verb,dim_001,dim_002,dim_003,dim_004,dim_005,dim_006,dim_007,dim_008,dim_009,dim_010,dim_011,dim_012,dim_013,dim_014,dim_015,dim_016,dim_017,dim_018,dim_019,dim_020,dim_021,dim_022,dim_023,dim_024,dim_025,dim_026,dim_027,dim_028,dim_029,dim_030,dim_031,dim_032,dim_033,dim_034,dim_035,dim_036,dim_037,dim_038,dim_039,dim_040,dim_041,dim_042,dim_043,dim_044,dim_045,dim_046,dim_047,dim_048,dim_049,dim_050
aviti,-0.080046594,0.7632249,-0.0012705597,-0.0024029587,-0.00032433576,-0.00055123714,0.0011294141,-0.0025768052,0.0055322587,0.008686502,-0.010164406,0.0510397,-0.0016772788,0.0019572515,-0.0025276614,0.062469326,-0.00407149,0.008998512,-0.0053292876,0.033382237,-0.026521778,0.0025739744,-0.0028726258,0.043335676,-0.0040794592,-0.0025973993,-0.24598664,-0.07951307,0.039310608,-0.41590697,-0.34849706,-0.09853693,0.08125227,-0.10429064,-0.09587397,0.00956749,-0.0010422142,0.012333463,-0.00021256815,0.0022295583,0.00026869477,-0.014056104,0.0008841381,-0.0014975494,-0.00032565944,-0.003884031,0.006777154,0.0039079795,-0.026623037,-0.007317329
bacati,-0.089213714,0.8591957,-0.0034996367,0.00014462783,-0.0014615373,-0.000424913,0.0019899434,0.00049931806,0.003632185,0.0077683283,-0.009886002,0.04323282,3.3152868e-05,0.00065915944,-0.00439561,0.09586043,0.027487276,-0.0052733794,-0.008228289,0.08919447,-0.096181884,0.06957066,-0.0032034507,0.44721067,0.011112522,-0.010646166,0.12778811,-0.004309505,0.000178252,-0.009673737,0.018138878,-0.050452605,0.004741294,-0.00015037497,0.0036210848,-0.00010199555,0.0025041222,0.001402124,-5.6539884e-05,0.00022393123,0.00044489303,-0.0042072465,0.0002912165,-0.0004938526,-0.0002870081,-0.00078466826,0.0014755758,0.0011231579,-0.005248044,-0.0017431742
baciti,-0.10202054,0.98070633,-0.004451886,0.002850799,-0.00092420226,-0.00028680716,0.0013795536,0.0005886869,0.0012462143,0.00248401,-0.004225633,0.026083233,-0.0019407185,0.0032786971,-0.00017392535,-0.0031731627,-0.07032965,-0.05398455,-0.0051435526,0.0096094245,-0.054043222,0.0764887,-0.0043048277,-0.020247348,-0.0007490291,0.0005180996,-0.014272628,0.010905902,-0.00093058945,0.028483843,-0.021600729,0.086661346,-0.01062559,0.009075673,-0.0064156307,0.0031283863,-0.0055611758,0.007033196,-0.00027278592,0.0005859137,0.0009345825,-0.011390408,7.933613e-06,-0.00080231455,-0.0005958729,-0.0014824644,0.005380919,0.002540123,-0.015671918,-0.0034659563
baviti,-0.10121094,0.9747345,-0.004599344,0.0026671442,-0.0016124471,6.607216e-05,0.0011114462,-4.6419143e-05,0.002655763,0.0010339435,0.0013570251,-0.038396552,0.005119034,-0.0019895174,-0.002610201,0.07130474,0.024118405,0.024809243,-0.01144555,0.1379406,-0.06212092,-0.024381127,0.003639982,-0.060554072,0.001525201,0.00018747633,0.02295484,0.008541601,2.1789487e-05,0.021970147,-0.005526176,0.01944532,-0.0016998901,0.01799943,-0.050387166,0.0012669177,-0.012459647,0.00070842804,-0.00014932583,0.00016732211,-6.0131824e-05,-0.0014200212,-0.00033438517,0.00011695639,-0.0002042412,-0.00027326192,0.00043925387,0.00020137292,-0.0007489121,0.0014966676
bazirati,-0.08630401,0.8302935,-0.0041388306,0.0026907793,-0.0012153093,0.00055075466,0.001191931,0.0009056377,0.0019109102,0.006500204,-0.011246051,0.043852262,0.006135557,-0.017677732,0.002380243,0.118856154,0.02681891,0.02762281,-0.014706125,0.09568036,-0.3261923,-0.39858732,0.022582928,-0.07406507,0.0014915811,0.0034258917,0.06302133,0.0029893888,-0.0026362662,0.007739663,0.00384219,0.0051940223,0.0020779218,-0.015762594,0.0045556678,-1.4001256e-05,0.0033808695,-0.00016705839,-0.00013411847,1.6642865e-05,0.00052095234,0.0012565857,-0.0012547938,3.1980908e-05,-0.00010409009,-0.0005869618,0.0009456229,0.0015239267,0.0021113355,0.0060164663
bediti,0.0,5.614595e-05,0.719945,0.16540797,0.047807075,0.16470292,-0.207213,0.06221175,-0.34574625,0.109724075,0.028292345,-0.027711105,0.07031331,-0.15863459,0.041490745,-0.29194698,0.052701857,0.062608495,0.10801708,-0.10359636,0.02501999,0.03668767,0.034526046,0.0,0.017342268,0.02666616,-0.071897864,0.032450844,-0.027670205,0.08920279,-0.11083532,0.0804159,0.008376604,0.02407251,0.082286984,-0.19626094,0.052968323,0.013337893,-0.035085913,0.02531646,-0.0025245142,-0.0076730815,0.050406672,-0.011010095,-0.011461943,0.0006100285,-0.037629843,-0.03013204,0.06729337,0.020300684
beležiti,-0.082244486,0.7899054,-0.003480874,0.0052662594,-0.001748495,-0.00048001646,-0.0030209606,-0.005402934,0.0019441453,-0.0412183,0.07336807,-0.5716058,0.029418986,0.0061966972,-7.684074e-05,-0.17497121,0.00030518477,0.0062986626,0.003537747,-0.01568631,0.03763476,-0.013282926,0.0010804823,-0.011004382,0.002936088,-0.003968826,0.03250788,-0.00082413096,0.0009920322,-0.005659086,0.0021809104,-0.02022461,0.0025022395,0.0010768259,-0.0010882175,-0.0017368117,0.000773495,0.0037304787,-4.5296412e-05,3.2116826e-05,0.00044832844,-0.007202646,-0.000442551,-0.0010308096,-0.00067164947,-0.0012673498,0.0033264204,0.0026042159,-0.014504074,-0.0037946221
besneti,-0.071296416,0.6874283,-0.0025405325,-0.0009904003,-0.0013856975,-0.00058353937,0.0019425655,0.00040907232,0.0035691932,0.007612993,-0.00969456,0.04294082,-3.3468335e-05,0.0006773243,-0.004537508,0.10084008,0.032908365,-0.0050776317,-0.010336524,0.11379743,-0.1187073,0.08870396,-0.004234041,0.6401584,0.016790979,-0.01660699,0.21737647,-0.0077698235,0.00023378621,-0.016400643,0.038883477,-0.10849764,0.010024497,0.0011108569,0.0071225814,-0.00043107892,0.0066517014,0.0063165324,-7.8957375e-05,0.00054194266,0.0015141813,-0.020113366,0.001667847,-0.003684771,-0.0011396116,-0.0042203423,0.0089416,0.008732502,-0.042770278,-0.010630738
bežati,0.0,0.0,-0.058268707,0.0,-0.12691183,-0.023698172,-0.3130544,-0.193348,0.16098058,0.15156074,-0.25188234,-0.053827118,-0.067205675,-0.0705501,0.08954802,0.0630099,-0.09037363,-0.118235014,-0.10778112,-0.09414249,0.045109708,0.10619666,-0.016508242,-0.1251771,0.00283674,-0.014057107,0.3351772,0.3529891,-0.026207276,0.2887849,-0.23374432,-0.13617693,0.009306541,-0.090684846,0.11948061,-0.3996887,0.09386248,0.067316614,0.024387417,0.027601829,0.04545163,-0.05630585,0.0030984767,-0.015247734,-0.04136179,-0.030018555,-0.020434784,-0.13110639,-0.13693768,-0.007731928
bilježiti,-0.0876043,0.84199417,-0.004023304,0.0047724294,-0.0016544713,0.00011793993,-0.0015381288,-0.002960293,0.0017998756,-0.023520561,0.04114183,-0.3446705,0.023430943,-0.009362789,0.0026848644,-0.04346304,0.016523542,0.026029196,-0.007854138,0.0528955,-0.20842053,-0.313714,0.017837178,-0.07228704,0.0031866566,-0.00040399277,0.08216744,0.0010451829,-0.0013664977,0.0012435132,0.010228965,-0.025578719,0.004620691,-0.01050222,0.0035749602,-0.0012492466,0.004476866,0.0043424238,-0.00012599461,0.00013310958,0.001094866,-0.010446446,-0.0006132845,-0.0020854762,-0.0008491014,-0.0027446474,0.0061342143,0.0062822476,-0.024811296,-0.0017861571
birati,-0.10152019,0.9764559,-0.004689187,0.0031582504,-0.00058266445,-0.00034593724,0.001879909,0.001287719,0.0014472655,0.0074354936,-0.014932498,0.10990669,-0.0065474603,0.0033916305,0.0018687162,-0.035464782,-0.100187756,-0.08218738,-0.0050592553,-0.013514452,-0.0027650099,-0.0009355689,-0.0029732233,0.01439636,-0.0021847985,0.0004578605,-0.009131669,0.0031212065,-0.0008848999,0.00963179,-0.0048555806,0.03429129,-0.004426467,0.0011210756,-0.0019125328,0.00073464116,-0.0039059492,-0.003079918,7.2509906e-06,-0.00037692717,-0.0011124978,0.019343244,-0.0014952801,0.004419222,0.0009036166,0.004419689,-0.011223917,-0.012797377,0.05573978,0.0058238367
bistriti,-0.07202243,0.6943951,-0.0025776462,-0.0009523539,-0.0013903894,-0.00057887705,0.0019471006,0.0004128277,0.0035767092,0.00762979,-0.009715754,0.04301534,-3.1188363e-05,0.00067770714,-0.0045393785,0.10081775,0.032767966,-0.0050922683,-0.010278117,0.11310523,-0.11809529,0.08816492,-0.0042041484,0.6343145,0.016615564,-0.016421022,0.21452402,-0.007658027,0.00023217037,-0.016185196,0.038199525,-0.10658026,0.0098500345,0.001066904,0.007007265,-0.00041981591,0.006511654,0.0061475923,-7.827093e-05,0.0005311893,0.0014774724,-0.019561851,0.0016199736,-0.0035728682,-0.0011099883,-0.004100268,0.008680069,0.008464992,-0.04145007,-0.010318656
biti,-0.1026421,0.98837173,-0.0048439526,0.002517201,-0.0013709815,0.00010063659,0.0017159524,0.00089701853,0.0026466525,0.0070001013,-0.008864347,0.045602154,-0.00075657724,0.0014748465,-0.0019792868,0.042750217,0.018845312,-0.00239564,-0.00079830986,0.012013463,-0.028330157,0.023063805,-0.00070933596,-0.0056966026,-0.00021514404,0.0009205507,-0.017617062,0.0092039965,-0.0006581058,0.023441672,-0.01888251,0.067130424,-0.0075493287,0.011044516,-0.022547917,0.0021944703,-0.008788153,0.001430655,-0.00018488507,0.0002987655,6.920404e-05,-0.00018542704,-0.00045015514,0.00085039425,-1.1423046e-05,0.00042458877,-0.00020243532,-0.0017515287,0.0063609616,0.0018714733
bivati,-0.093612775,0.8925035,-0.0031913451,0.003335071,0.001779074,-0.0018012447,0.0014529309,0.0014751112,-0.0031988674,0.0013979105,-0.00995555,0.060205564,-0.008212978,0.0010284442,-0.0025570858,0.16526507,-0.32551268,-0.20702991,-0.010668865,-0.092390746,0.06490928,-0.017506583,-0.009475416,-0.00791178,-0.006100071,-0.0013155543,0.029023178,0.0016970816,-0.0009504161,0.0072051887,0.009612494,0.00049028697,-0.001897351,0.00045306468,0.009756381,0.001256369,0.0023690087,0.0051060203,0.000133192,-0.00024492067,-0.00023511137,0.0060125915,-0.00091470394,0.0009001916,0.00021856779,0.0012567566,-0.0008931021,7.748948e-05,0.012624114,0.0038973112
blagati,-0.07691878,0.74010104,-0.0038062443,0.002683013,-0.0011238921,0.00068180216,0.0009960968,0.00094744156,0.0015073476,0.0061390707,-0.01142305,0.043751184,0.00740835,-0.021600416,0.0037777224,0.12597379,0.02920497,0.034881383,-0.017112298,0.10865903,-0.3875109,-0.49346802,0.027830359,-0.099763475,0.00200883,0.0037919488,0.09063251,0.0030545816,-0.003267771,0.008639567,0.010312326,-0.0091543365,0.0039466177,-0.018903602,0.006433633,-0.00014858576,0.005554784,0.0017756092,-0.00016384001,0.00011519177,0.0010449707,-0.0048912796,-0.0009914887,-0.0013404031,-0.00045958077,-0.002157666,0.004332962,0.0052171606,-0.013702877,0.003823095
blažiti,-0.07135031,0.6975052,-0.005500836,0.004171724,-0.0019828458,0.0011698967,0.0022895222,0.002350372,0.0036823521,0.015644059,-0.033446316,0.3371891,-0.019519575,0.013941845,0.021960622,-0.6176287,-0.017321918,-0.07177675,0.0011215344,-0.017415542,0.007977158,-0.030975338,0.0014197194,-0.009241754,0.00096919015,-0.00025406008,0.05158833,0.00092614867,-0.0012958553,0.010085188,0.018896736,-0.018922687,-0.00086768996,0.0020216266,0.011090113,0.00021961855,0.0035560287,0.00060193,-3.2508695e-05,-0.00016287807,0.00046772487,-0.0049735303,0.00025755685,-0.001267798,-0.0003670809,-0.0012706695,0.002580282,0.002992853,-0.0138955405,-0.0029868027
bledeti,-0.09408429,0.9002856,-0.0037446755,0.0034348695,0.00078464614,-0.0009642292,0.0014219035,0.0015226265,-0.002084808,0.001421383,-0.008263652,0.06454082,-0.007603986,0.002113949,-0.0036418831,0.16153383,-0.22762632,-0.13690403,-0.011328904,-0.018831324,-0.11029944,0.19497886,-0.010987278,-0.13208164,-0.0012747356,-0.002551266,0.08690635,-0.001794954,0.0016959489,-0.001406529,0.023931226,-0.054255027,0.0041012485,0.004256068,0.00013858234,0.00086111244,0.0029843533,0.005556857,2.376875e-05,-0.00029939227,0.00041505345,-0.0049041873,-0.00040560155,-0.0011457053,-0.00049917476,-0.0009057811,0.0041388115,0.004650553,-0.013187572,-0.00217175
blistati,-0.08566071,0.82282776,-0.0036376084,0.005104545,-0.0017448438,-0.0004531446,-0.0026786886,-0.004998589,0.0020743725,-0.03792982,0.06779086,-0.53062636,0.027474916,0.005826492,-0.00035476283,-0.1573864,0.0013830387,0.0054736063,0.0030388474,-0.012076619,0.031648368,-0.010310948,0.0009335362,-0.007337391,0.0026735847,-0.003560612,0.026002144,-0.00056403887,0.0009254597,-0.0049603693,0.00025332943,-0.013806618,0.001882351,0.00079582253,-0.0012560176,-0.0015659112,0.00028680064,0.0028215437,-4.2969008e-05,-2.2375086e-07,0.0002892152,-0.0046046237,-0.00059130497,-0.0005140369,-0.000515247,-0.00071926176,0.002072061,0.0013564768,-0.008197383,-0.0023136938
bližiti,-0.0584628,0.5660988,-0.0030909625,0.0022879392,-0.0020650874,-0.00039699735,0.0014458334,0.00048205428,0.0023574985,0.005138258,-0.010726785,0.034310494,-0.00081571966,0.0014845069,-0.0026872496,0.06342777,0.011826014,0.017285818,-0.004218931,0.036350828,-0.054308884,0.0006357004,-0.0018906737,0.07404133,-0.0024505942,0.006224338,-0.61658007,0.0071408683,-0.029712934,0.16306871,0.3701776,-0.30990347,-0.0022361288,0.0132497875,0.111258015,-0.042704027,0.02673587,0.00766568,0.0005446046,-0.0004829917,0.0016985678,-0.028353292,0.0037439724,-0.0057448307,-0.0012924428,-0.0043171756,0.009610318,0.011387484,-0.057113502,-0.013944777
bojati,-0.07520084,0.72358793,-0.0037426902,0.0026754332,-0.0011062208,0.00070174015,0.00096153794,0.00095207867,0.0014373559,0.0060650185,-0.011425021,0.043630313,0.007600434,-0.022195537,0.003999201,0.1268458,0.029528638,0.035997063,-0.017468892,0.11054268,-0.3967273,-0.5080008,0.028632991,-0.10378973,0.0020899335,0.003843396,0.095013835,0.0030575523,-0.0033652592,0.008768092,0.011372483,-0.011544326,0.004250841,-0.019383194,0.006733628,-0.00017095557,0.005907846,0.0021002186,-0.00016844203,0.00013164557,0.0011312745,-0.005925952,-0.0009437905,-0.0015715775,-0.00051914394,-0.0024205272,0.004901027,0.0058355187,-0.016376315,0.003435512
boleti,-0.08641495,0.8323953,-0.0033417281,-6.91949e-05,-0.0014571025,-0.00045779272,0.0019945065,0.00048566074,0.0036450194,0.007791985,-0.009917363,0.043472994,2.0821375e-05,0.00066709425,-0.0044524637,0.097455285,0.028694568,-0.005273074,-0.008680325,0.09442149,-0.10106227,0.0736282,-0.0034181227,0.48627466,0.012246521,-0.011828053,0.14528799,-0.0049775536,0.00018975498,-0.010980432,0.022082523,-0.061468463,0.00574401,7.8867386e-05,0.0042865295,-0.00016268044,0.0032770664,0.0023048383,-6.1015435e-05,0.0002830763,0.00064139784,-0.007106335,0.00054151524,-0.0010697243,-0.00044204778,-0.0014064256,0.0028240827,0.0024933745,-0.011999774,-0.003344883
boliti,-0.08675271,0.83549106,-0.0036878658,0.00093524967,-0.0014593281,2.3129078e-05,0.0017281441,0.000767168,0.0029975239,0.007962097,-0.012070635,0.049733598,0.003959415,-0.01117028,-0.0007311695,0.12858725,0.035180032,0.015546976,-0.015241249,0.1250522,-0.27672812,-0.2108433,0.01234825,0.31733513,0.010717891,-0.0074906736,0.17118248,-0.002745016,-0.001588994,-0.0046822517,0.026914153,-0.06464931,0.0076065753,-0.009374643,0.0073123234,-0.0003054401,0.006498437,0.004246169,-0.00013018474,0.00035263857,0.0013459913,-0.013019917,0.0003472421,-0.0025802478,-0.0008331876,-0.0032965264,0.00684038,0.007157511,-0.028886458,-0.0034725182
boraviti,-0.08151152,0.78284276,-0.003447334,0.005297118,-0.0017484997,-0.0004853122,-0.0030897353,-0.0054834047,0.0019166475,-0.041874062,0.07447883,-0.5797535,0.029804556,0.00626987,-1.9849176e-05,-0.1784992,8.395685e-05,0.0064651356,0.0036385667,-0.016420225,0.038847364,-0.0138875665,0.0011101902,-0.011753375,0.0029887373,-0.0040509976,0.033832487,-0.000877395,0.0010052919,-0.0058005606,0.002577731,-0.021540172,0.0026290745,0.001134402,-0.0010529642,-0.001771311,0.000873873,0.003916875,-4.5755747e-05,3.880934e-05,0.00048110745,-0.0077382377,-0.00041143506,-0.0011377176,-0.0007038138,-0.0013806543,0.00358555,0.0028624246,-0.015808614,-0.004100816
boriti,-0.09027867,0.86950177,-0.0044823303,0.0030093282,-0.0013538076,0.0006953794,0.0012673133,0.0011401916,0.0015206857,0.004846383,-0.008817331,0.05408916,0.0018200629,-0.009544559,-0.0007185433,0.12862597,0.019891877,0.027773784,-0.013701155,0.114260115,-0.38479662,-0.013152061,0.009261334,-0.18965985,0.00437297,0.0003556993,0.11359564,-0.0014636694,0.00106061,-0.0024570187,0.021258444,-0.057110995,0.0073412005,-0.005430072,-0.0050011766,-1.943286e-05,0.003429824,0.0018634797,-0.00016484286,-0.00014836199,0.0009379984,-0.008842308,-0.00058639195,-0.0018407464,-0.00077202555,-0.0022338666,0.0056492994,0.005789645,-0.021896224,-0.0014160818
braniti,-0.082227275,0.7885508,-0.002266028,-0.0018192867,-0.0015015424,-0.0006673782,0.0020168957,0.0004074847,0.003204586,0.006611803,-0.008227269,0.034918886,0.00048411282,-0.00067801826,-0.0028163025,0.0723967,0.013235087,-0.003994233,-0.0038404714,0.048725028,-0.055911705,0.06168444,-0.0028208243,0.05291192,-0.0035519486,0.006643004,-0.13382398,0.011825098,-0.008931888,0.033766646,-0.09920991,0.42767584,-0.052762404,-0.09512281,0.32578665,0.00917028,0.056904744,0.03262295,-0.001134342,0.0031536298,0.0076194825,-0.069308236,0.0013492743,-0.0064962055,-0.0028672237,-0.009635969,0.03412921,0.015312112,-0.10416378,-0.028349683
brinuti,-0.09689363,0.9340236,-0.005978537,0.003765055,-0.001837473,-0.00011010058,0.00016615598,-0.0014227718,0.0017368214,-0.005882057,0.01829553,-0.1707443,0.010218114,0.004747836,-0.0030225378,0.003960121,-0.011607029,0.24739906,0.0208449,-0.14798254,0.058025915,-0.0036544423,0.0009854536,0.00053126446,0.0010702357,-0.0017167504,0.03456669,-0.0003621251,-0.00019319319,0.000591031,0.0037063418,-0.0010064652,-0.0009900025,-0.0016877445,0.010920264,-0.00041407542,0.0019577788,-0.001142884,-4.5933855e-05,-0.00011127572,-2.9805958e-07,0.0032444894,-0.00069048244,0.0007438866,3.2979424e-05,0.0007265195,-0.0013557563,-0.0015898307,0.007829068,0.0014284843
brisati,-0.081952386,0.7900721,-0.0041052313,0.0026650582,-0.0012653659,0.0005744277,0.0012247907,0.0010783115,0.001175258,0.0026471908,-0.004677121,0.052141808,-0.0034272196,0.0028073045,-0.004452733,0.105419315,0.007812541,0.016579002,-0.008174453,0.097913966,-0.3133192,0.40854594,-0.0085701095,-0.23629709,0.005707715,-0.0027368525,0.115939334,-0.0052181743,0.0046604336,-0.011804806,0.027939077,-0.09135145,0.009292728,0.007119191,-0.014135347,8.4702406e-05,0.0012115589,0.0018417491,-0.0001434389,-0.0003490469,0.00075316074,-0.011636672,-0.0001132283,-0.0021589254,-0.00097383,-0.0021419409,0.0063550877,0.005856112,-0.027672784,-0.0060702115
broditi,0.0,0.0,-2.5994467e-15,0.0,4.6335478e-09,0.0,0.0,-8.232516e-06,-6.168916e-05,0.0,-0.0071883686,-0.0035203448,-0.027222602,-0.20844622,-0.34982985,-0.004636021,0.514184,0.14846751,-0.019903025,-0.08373532,0.06395311,0.10527708,-0.12955858,0.09824042,-0.07148916,0.021105038,0.029227883,0.1583028,0.08063791,0.05180382,-0.14160684,-0.1257332,-0.040243898,-0.14234102,0.029303048,0.051681876,-0.45331907,0.011122284,-0.22801001,0.17927364,0.045023207,-0.06238514,0.28791565,0.012432829,0.0018638013,0.022318965,-0.019738404,-0.04409734,0.09770024,0.06978322
brojati,-0.099684455,0.95782274,-0.0041709347,0.0022687481,-0.00046380048,-0.00064490957,0.0018936313,0.0011360998,0.001099026,0.00577838,-0.010961144,0.065820865,-0.004145867,0.0016817837,-0.004352172,0.13811553,-0.09474893,-0.049994886,-0.014801859,0.12248394,0.020940192,0.101326674,-0.0053995103,-0.089058965,-0.00066554814,-0.0012799486,0.053692017,-0.00065296184,0.0006650775,0.0017074547,0.013628393,-0.022429058,0.0009288479,0.0019175882,0.0029136185,0.0005071535,0.0013687296,0.0008165294,1.67616e-05,-0.00024965775,-0.00010369386,0.0027808514,-0.00063415704,0.0004736916,9.937142e-06,0.0006736871,-0.000441117,-0.00021830206,0.006170705,0.0018971881
brojiti,-0.09254747,0.89142203,-0.0044224327,0.002621603,-0.0013343188,0.0003982608,0.001424171,0.00096022064,0.0018200545,0.0040031117,-0.0060374658,0.04897898,-0.0024273805,0.0021855165,-0.0042685634,0.09800587,0.0097106425,0.0104288235,-0.006829581,0.079721086,-0.23702091,0.2998238,-0.0063947104,-0.15786733,0.0038537413,-0.0014677049,0.066845275,-0.0029513084,0.0033071826,-0.0072690602,0.013244586,-0.046299625,0.0049451566,0.0042605954,-0.010799911,0.00020960497,-0.00070188375,-0.0009806716,-0.00010365382,-0.00034956483,7.505605e-05,-0.00074706966,-0.0007321168,6.3972424e-05,-0.00030148923,0.00012096422,0.0008446266,0.0003255261,-0.00069826486,1.8929886e-05
brusiti,-0.07366863,0.705896,-0.0016861346,-0.0025462238,-0.001465741,-0.0007598804,0.0019845592,0.00035492508,0.0030795608,0.0062982687,-0.0078007095,0.03308723,0.0005301915,-0.00088895013,-0.0025762103,0.06959548,0.012690541,-0.003665061,-0.0038322296,0.050421037,-0.056737546,0.06678495,-0.0031076465,0.054599334,-0.0040020207,0.007436531,-0.14613782,0.0133747235,-0.010488795,0.03891065,-0.11210364,0.4902675,-0.060945634,-0.11151968,0.38445628,0.010713066,0.06820916,0.040081702,-0.0013405004,0.0038085869,0.00933309,-0.08722982,0.002050455,-0.008803347,-0.003667047,-0.01257167,0.04307022,0.020808209,-0.1368147,-0.036698952
buditi,-0.09847472,0.9509836,-0.0053515313,0.0021861356,-0.0016008073,0.0006116437,0.002363709,0.0019795776,0.0047392715,0.01264101,-0.014838118,0.07013415,-0.000712637,0.0020633168,-0.0060004513,0.1345882,0.16967694,0.0075088697,0.017460922,-0.12428293,0.024745956,0.019747665,-0.00045837462,0.11457361,0.0030325558,-0.0031513888,0.053354405,-0.0012934435,-0.00023249416,-0.0014943684,0.005622831,-0.0056255306,-0.00027537043,-0.002272737,0.010568917,0.00027174293,0.0016971455,-0.0021214832,-5.3511623e-05,-5.4371016e-05,-9.96372e-05,0.0068227965,-0.00075615064,0.0018134932,0.000431114,0.0018093701,-0.0037958035,-0.004610346,0.022647485,0.0048689027
bujati,-0.07490143,0.72621834,-0.0032604286,-0.00074169395,-0.001770478,-0.0006042619,0.002568333,0.00069180544,0.004894069,0.012224552,-0.016841052,0.086531326,-0.0011058735,0.0016439966,-0.0057743075,0.13626881,0.06579728,0.08245767,-0.032942485,0.49749506,0.3895166,-0.048512343,0.0022234817,-0.11791766,0.00026410338,-0.001676555,0.094831556,-0.0014696476,-0.0012064995,0.007019566,0.030859975,-0.045198902,0.0008547129,0.0015459,0.017092898,-0.0002546452,0.005699874,0.0006066452,5.056803e-05,1.0669473e-05,0.00040292033,-0.005907044,0.00074471225,-0.0015741521,-0.00030402426,-0.0013878613,0.002971932,0.0036058442,-0.01662429,-0.0034767855
buniti,-0.09283767,0.89722323,-0.006641364,0.0024261894,-0.0016704992,0.000114320224,0.0020448142,0.0010850817,0.001578247,0.015391094,-0.016159823,0.083901726,-0.0021303245,0.0032746946,-0.0045270496,0.1101905,-0.013517934,0.34581363,0.027190698,-0.19617376,0.055198777,0.008647983,0.0006345431,0.010265964,-0.000108051216,-4.980669e-05,0.022401063,0.00049799116,-0.00097645645,0.005766218,0.0013097024,0.023887305,-0.0044369786,-0.0045444793,0.020165714,0.00027181325,0.0018628184,-0.005509692,-7.7699646e-05,-0.00026689787,-0.00062139105,0.016542848,-0.0016373801,0.00387101,0.00089526165,0.0040326035,-0.008550519,-0.009474375,0.046946947,0.010476857
bušiti,-0.07913448,0.7666405,-0.0042842426,0.0028510801,-0.0012608744,0.0019159226,0.0024698938,0.0038567956,0.0075968388,0.012434085,-0.015501444,0.071168765,-0.00019153216,0.001998087,-0.0077337204,0.1705083,0.4546882,-0.28575307,0.031518638,-0.25004002,0.111162245,-0.019284744,0.001016646,-0.045912303,0.00030690178,-0.0013069438,0.05585785,-0.0020607656,0.00018780096,-0.00461707,0.010218506,-0.030066187,0.002654393,-0.00025297556,0.0071818824,0.0005142402,0.0034253092,0.0018134341,-7.631311e-06,0.00010395908,0.0007413983,-0.006566664,0.0005035073,-0.0013818721,-0.0001338014,-0.0014110507,0.0033677854,0.0030428888,-0.015263511,-0.0037390448
cediti,-0.073379375,0.71180505,-0.0041090283,0.002842639,-0.0012126311,0.0021018807,0.0024873049,0.004146567,0.007924252,0.012772364,-0.015903698,0.07337334,-0.00022828022,0.0021235768,-0.008045913,0.17792723,0.49677706,-0.31266394,0.03495897,-0.27809462,0.12714556,-0.02426884,0.0012255819,-0.054832406,0.00042445105,-0.0016340305,0.06785564,-0.0025773577,0.00019978215,-0.0055352417,0.013957825,-0.040700175,0.0035954653,2.5575428e-05,0.008326719,0.0005064451,0.0044470835,0.002966337,-6.764523e-06,0.0001610054,0.0010138579,-0.010418607,0.0008385566,-0.0022062764,-0.00030801896,-0.002258581,0.0052728984,0.004988273,-0.024923814,-0.005979295
ceniti,-0.08684716,0.8390417,-0.004575384,0.0031871246,-0.0013495634,0.001634276,0.0020449592,0.003007404,0.0055873767,0.0110385325,-0.015808785,0.068011835,0.0039154068,-0.010535707,-0.002759639,0.17546944,0.3121405,-0.16735454,0.011470903,-0.106161125,-0.13548739,-0.28254312,0.015846804,-0.08645299,0.0013372783,0.0010966241,0.08880562,0.00014622699,-0.0016437442,0.0014275486,0.013633045,-0.028460383,0.004199106,-0.010139312,0.00828263,0.00021688506,0.0055319592,0.0026352638,-9.1339214e-05,0.00015277113,0.0011355138,-0.008497361,-5.4563832e-05,-0.0019532891,-0.00041499131,-0.0024157045,0.0052662524,0.0055657085,-0.021250531,-0.0013314624
cerekati,0.0,0.0,0.0,0.0,0.0,0.0,0.0,0.0,1.9053217e-13,0.0,-1.4209204e-09,-2.0875932e-09,0.0,-3.2962748e-07,5.057876e-06,0.0,-0.00055508135,-0.00027475948,-0.024751963,-0.008167498,-0.48477802,-0.17456739,-0.57288074,-0.012938626,-0.052502703,0.40722337,0.012116206,-0.17499541,-0.02826558,0.15250532,-0.13341382,-0.14594099,0.12832934,0.11801287,0.068025246,-0.080936424,-0.22550416,-0.0368853,0.06430112,-0.08271161,0.06894374,0.034481745,-0.051612258,0.08658617,0.0072111697,0.045232803,-0.065459296,0.04874729,0.09720222,-0.062384132
cijeniti,-0.07639977,0.74059606,-0.004202769,0.0028496054,-0.0012385255,0.0020083562,0.0024806813,0.0040016356,0.0077635194,0.012610601,-0.01571203,0.072309956,-0.00020961743,0.002061112,-0.007893132,0.17428397,0.4756172,-0.29912972,0.033223666,-0.26393676,0.11904725,-0.02172801,0.0011192671,-0.050294865,0.000364346,-0.0014672092,0.061742645,-0.0023135908,0.00019381096,-0.005067359,0.012043205,-0.03525509,0.0031135092,-0.00011827153,0.007744326,0.00051102665,0.0039238394,0.002373528,-7.220643e-06,0.0001316676,0.000874007,-0.008436389,0.00066605606,-0.0017816587,-0.00021810154,-0.0018220176,0.004291702,0.003985728,-0.019945294,-0.0048248447
crtati,-0.09924384,0.9579321,-0.0051169177,0.0043713115,-0.0018999128,0.00019888315,0.000319883,-0.0010347188,0.0032669601,-0.0077515314,0.01321069,-0.08843022,0.004606769,0.007387005,0.0061783763,-0.25139144,-0.0005789942,-0.024052085,0.00049714424,0.00019082104,0.000800861,-0.005761193,0.0005447082,0.006427107,0.0011542661,-0.0009588552,0.009590567,0.00093109417,-3.6389323e-05,0.0025620556,-0.0011977457,0.00923545,-0.0013805962,0.00012129188,0.0020432791,-0.0003694057,-0.00053699693,-0.0013221116,-3.1606985e-05,-0.0001751966,-0.0002562819,0.0050827665,-0.0009006299,0.0011936313,0.00011340404,0.00116569,-0.0024662765,-0.0028113502,0.01363694,0.003008386
cvetati,-0.07975261,0.7725239,-0.0043021576,0.0028507023,-0.0012657646,0.0018938887,0.0024667508,0.0038220545,0.0075560543,0.012389766,-0.015448402,0.0708846,-0.0001872698,0.0019828912,-0.007694593,0.16958484,0.4496979,-0.28256494,0.031113636,-0.24674095,0.10929907,-0.018711595,0.0009925195,-0.044881627,0.00029347566,-0.0012693721,0.054476645,-0.0020015808,0.00018635481,-0.004511413,0.009792805,-0.028855707,0.0025473132,-0.0002840715,0.0070496607,0.00051483174,0.0033090375,0.0016834529,-7.7238155e-06,9.75305e-05,0.0007105599,-0.006133218,0.00046584726,-0.0012892986,-0.00011433058,-0.001315898,0.0031538345,0.0028247205,-0.01418021,-0.003487785
dahnuti,-0.09563735,0.9209738,-0.0048628896,0.0041327532,-0.00022094644,-0.00021311907,0.0019118211,0.002032789,-0.00010207301,0.0070285304,-0.01888819,0.17838947,-0.013171208,0.0070168744,0.005842281,-0.12184639,-0.1701253,-0.1252465,-0.007899834,-0.01762613,-0.08586115,0.1415473,-0.0076152543,-0.10736676,-0.0003316266,-0.002062155,0.087132014,-0.0011827914,0.0008906566,0.0022578961,0.02571541,-0.050607346,0.0030727996,0.004102613,0.0037793282,0.0006882774,0.0036165467,0.004461796,7.871984e-07,-0.00027628682,0.00053070026,-0.006328797,-0.00014581508,-0.0014800334,-0.00055342074,-0.0013119852,0.004403852,0.004914293,-0.016899556,-0.003180948
dati,-0.10287117,0.99083835,-0.004957954,0.0031097636,-0.0012072863,1.1907081e-05,0.0016885721,0.0009837914,0.0026758607,0.0050839707,-0.007780757,0.038416054,-0.000856034,0.001467293,-0.0016390154,0.044938814,0.0060268636,-0.031951588,-0.0020576103,0.0129242055,-0.0176077,0.007639204,-0.00034715107,-0.035752643,-0.00017271502,-4.922327e-05,-0.00032831382,0.000754652,-0.0014608069,0.010367374,0.021565292,-0.013873248,-0.00073822343,-0.00071913557,0.009553677,-0.0016984484,0.0018110034,-0.0007913904,2.5723295e-06,-0.00022194954,-0.00015721892,0.005253589,-0.0008066977,0.0011684012,0.00020619067,0.0012900449,-0.0023218358,-0.002434885,0.014905435,0.0039681895
davati,-0.09975979,0.9606331,-0.004643114,0.0032848776,-0.0016727722,0.00010372524,0.0008529195,-0.000119147946,0.0017357297,-0.00043258799,0.0043535354,-0.05476483,0.0037528565,0.0024731688,-0.0034334923,0.049082115,0.00998462,0.009578283,-0.0041851318,0.045765914,-0.102542415,0.11523432,-0.0033193398,-0.02489744,0.0013322821,0.00081182714,-0.11389573,0.019949919,-0.00334902,0.07018164,0.032522205,0.0071833394,-0.0053179064,0.051174425,-0.10747669,-0.0030933951,-0.02758984,0.004435298,-0.00019499326,0.00046960375,5.2820353e-05,-0.011771748,0.0009460685,-0.001352383,-0.0007027124,-0.0018452788,0.003644525,0.003188722,-0.020390488,-0.0036619944
daviti,-0.0853488,0.8298378,-0.0056263255,0.0039145965,-0.0019376269,0.0009144994,0.0022842078,0.002022529,0.0037632755,0.014222226,-0.028829884,0.27716914,-0.015430234,0.011182941,0.016467245,-0.46978235,-0.010114344,-0.057963956,4.5249046e-05,-0.005477795,-0.004777691,-0.017668461,0.00088014797,0.0021619638,0.00057164545,0.00022317097,0.026630346,0.0013684783,-0.0009894739,0.0087589845,0.008927636,0.001343008,-0.0020842173,0.0009077137,0.0077412087,0.00030326546,0.0013475224,-0.0015670635,-2.8460112e-05,-0.0002208163,-4.559279e-05,0.0028010043,-0.00039287718,0.00044361126,5.6424724e-05,0.0004827206,-0.0012453094,-0.0010929574,0.006116489,0.001545686
dejstvovati,0.0,0.0,0.0,0.0,0.0,0.0,0.0,-5.3537966e-24,-4.5849028e-23,4.420214e-20,-4.1031066e-18,5.358416e-18,6.629806e-16,5.0765094e-15,4.6737045e-13,1.9269273e-14,-5.4711474e-10,4.0622414e-10,0.0,3.2201108e-08,3.0580504e-05,5.8730486e-05,0.00023128417,5.4804976e-05,0.006782868,0.023016669,0.00039132568,0.045215603,-0.027638866,-0.044389755,0.19855691,0.09696465,0.2122109,-0.4878778,-0.32139844,-0.028908439,0.5438173,-0.13342677,-0.013833308,0.09088967,0.035033654,-0.3920158,0.0866818,0.018110892,0.04791173,0.0,-0.062368464,0.016793875,0.25952446,0.00831944
deliti,-0.093398474,0.8995071,-0.0040724333,0.0015149722,-0.0013769999,4.0087074e-05,0.0016177924,0.00080743234,0.0014077859,0.010132412,-0.010261816,0.046483696,-0.00048118155,0.00097198295,-0.0039110514,0.08939149,0.01782396,0.0033781512,-0.0062483004,0.060757928,-0.06436843,0.04699324,-0.0031321696,0.24052922,0.0051382715,-0.0033777591,-0.022810267,0.03884795,-0.0003038681,0.096327685,-0.043422014,0.10936942,-0.010897976,0.09998788,-0.24795565,0.006877255,-0.06282941,0.009537727,-0.00050560024,0.0015952856,8.694081e-05,-0.023192484,0.002382108,-0.0027644176,-0.0011936104,-0.004377,0.007652202,0.006808701,-0.043230418,-0.0077466085
denuti,-0.082959615,0.7967966,-0.003513626,0.0052349255,-0.0017482421,-0.00047469957,-0.0029523703,-0.0053224145,0.0019711151,-0.040562578,0.07225691,-0.5634503,0.02903272,0.0061233053,-0.0001332883,-0.17145081,0.00052423566,0.0061328677,0.0034373906,-0.014957282,0.03642868,-0.012682433,0.0010509145,-0.010261521,0.0028835435,-0.0038869192,0.031192677,-0.00077134836,0.0009787664,-0.005518345,0.0017883736,-0.01892134,0.0023765112,0.0010197789,-0.0011228524,-0.0017024543,0.0006742602,0.0035458456,-4.4835342e-05,2.5507985e-05,0.00041590972,-0.006673064,-0.00047316647,-0.0009252254,-0.00063981896,-0.0011554208,0.0030703754,0.0023492307,-0.013215627,-0.0034921595
derati,-0.09010903,0.8708393,-0.0045647332,0.0027908774,-0.0013356224,0.0014388155,0.002361176,0.0030893856,0.006639231,0.011316031,-0.014151761,0.06415974,-0.000102748105,0.0016571217,-0.0068075783,0.14887631,0.34670308,-0.21686277,0.022865644,-0.1796938,0.07206013,-0.007552212,0.0005190411,-0.024637217,3.5666206e-05,-0.00054001895,0.02756082,-0.00085990905,0.0001557432,-0.0024565395,0.0016828586,-0.005805487,0.0005102095,-0.0008533727,0.0044639413,0.00051527336,0.0010989048,-0.00074258854,-9.259452e-06,-2.2286384e-05,0.00013090485,0.0019204187,-0.00023235871,0.0004227858,0.00024244071,0.00044319555,-0.0008034725,-0.001199242,0.0057972264,0.0011467629
desiti,-0.09959738,0.96235466,-0.006053144,0.0042521637,-0.0020063191,0.00023078758,0.0006916953,-0.0005985151,0.002704479,-0.002104138,0.0070024366,-0.051773056,0.0031026576,0.007582217,0.0043526255,-0.19032213,-0.010034964,0.120477945,0.012224492,-0.0875012,0.034127034,-0.009331047,0.0009764787,0.0009448071,0.0011011772,-0.0012562143,0.031427905,0.00027691224,-0.00037113237,0.0030649258,0.005012295,-0.0004908342,-0.001214904,-0.0005901277,0.008824015,-0.00028280923,0.0015369566,-0.0010493669,-4.099109e-05,-0.00014847184,-1.2630095e-05,0.0027900015,-0.0006319734,0.00061677775,7.054082e-06,0.00060208363,-0.0012021717,-0.0013645331,0.0068268096,0.0013622063
dešavati,-0.08643107,0.83592606,-0.0069494117,0.0023612871,-0.0016760507,0.00016091288,0.0020242378,0.0011877147,0.0009326471,0.017260995,-0.017675135,0.094965525,-0.0028336567,0.0038909193,-0.004478899,0.1140153,-0.024064975,0.43667883,0.035367556,-0.25988021,0.08686876,-0.0031485194,0.001209238,0.00025009573,1.7104587e-05,-0.0006642283,0.05150759,-0.0006591919,-0.0010578526,0.004187628,0.010306242,-0.0020252473,-0.0022740255,-0.0032322586,0.02132306,0.0003346374,0.0042678285,-0.0028601764,-4.9453538e-05,-0.00013975745,4.90834e-05,0.0050403057,-0.00043408308,0.00082576927,0.00022473495,0.0009204843,-0.0019329245,-0.0017269842,0.009581405,0.0018526559
dijeliti,-0.07447416,0.7221098,-0.007224151,0.0022527354,-0.0016731041,0.00021955612,0.0019879225,0.0013049116,0.00017841793,0.019519791,-0.019463448,0.107626215,-0.0036063571,0.0047245617,-0.004544744,0.12075986,-0.03454496,0.5519244,0.045628533,-0.33782232,0.122970164,-0.011911521,0.0018106793,-0.010875983,0.00024476,-0.0013473607,0.08189201,-0.0016218405,-0.0013742157,0.0042427364,0.020074029,-0.021796122,-0.0012242347,-0.0033808236,0.028462049,0.00027014373,0.007187727,-0.001251766,-5.986713e-05,-6.482997e-05,0.0005518986,-0.0014354939,0.00014963224,-0.0006308829,-0.000113744754,-0.0005569405,0.0013691551,0.0018323662,-0.0077261277,-0.0022120173
diktirati,-0.08393955,0.8091006,-0.0041697654,0.0026658333,-0.0012805212,0.0005470628,0.0012613755,0.0010620316,0.0012853359,0.0028793241,-0.00491616,0.051775254,-0.0032720664,0.0027128104,-0.004435656,0.104509175,0.008151446,0.015607962,-0.007975747,0.09518685,-0.30156782,0.39166892,-0.008233513,-0.2239203,0.0054152366,-0.0025327983,0.10806376,-0.0048525534,0.004446974,-0.011076934,0.025547523,-0.08402852,0.0085870065,0.0066572907,-0.013614839,0.00010620707,0.0008899589,0.0013669176,-0.00013711021,-0.0003502852,0.00063967524,-0.009809913,-0.00021963245,-0.0017838378,-0.000861448,-0.0017598191,0.005427944,0.004923197,-0.023118326,-0.005040875
dirati,-0.099685125,0.9615557,-0.0045252135,0.0023865723,-0.0016988937,0.00032206948,0.0014368922,0.0005756624,0.004186375,0.0030052096,0.0009904975,-0.046269134,0.004919436,0.002423129,-0.0051412713,0.08386634,0.14252017,-0.060239937,0.00022876152,0.04676236,0.06826787,0.008806437,-0.00069141283,0.09067697,0.003301418,-0.003161947,0.029460236,0.015559635,-9.548115e-05,0.039731134,-0.010665762,0.028614346,-0.0034298766,0.042682383,-0.10077339,0.0027278122,-0.0248433,0.0049224314,-0.00021821169,0.0006994738,0.00030901792,-0.012573154,0.001081666,-0.0016953952,-0.0006476934,-0.0023962383,0.0045645423,0.0040620794,-0.024218144,-0.004747834
dirnuti,0.0,0.0,0.0,0.0,0.0,0.0,0.0,1.257503e-29,2.7916566e-28,2.1988698e-26,2.1772382e-24,8.885441e-25,8.794959e-23,1.0522484e-21,2.0666788e-20,3.1952757e-22,2.2680962e-18,0.0,-4.3152225e-15,1.6018989e-15,-4.0567445e-12,-2.3373184e-11,-1.2272666e-10,0.0,5.758725e-08,-1.1166509e-07,-1.3289583e-08,0.0005896476,0.49834028,0.010033883,0.024550788,0.011989301,0.09446057,-0.06786471,-0.02235356,-0.43805602,-0.06483943,0.0,0.0,0.08104133,-0.1414228,-0.03965828,-0.07914732,0.531119,-0.03791423,0.15134059,-0.1505726,0.29901558,0.0,0.29625592
disati,-0.10053477,0.97027576,-0.00517838,0.0031439166,-0.001613805,0.0004909458,0.0018451184,0.0012370729,0.00296656,0.008705692,-0.015098389,0.11467371,-0.003729591,0.00011954983,0.003006712,-0.059294604,0.010721183,-0.006868182,-0.006004588,0.051540732,-0.1550262,0.0034726225,0.003080151,-0.050903313,0.0014385239,0.0008646471,0.023736011,0.0010615358,2.9829933e-05,0.0038494756,0.00056030694,0.010052236,-0.0008592478,-0.0033243513,0.0014974221,0.0002135777,-0.00058477436,-0.0035015824,-8.804991e-05,-0.00028707625,-0.00042959113,0.010733148,-0.0015553836,0.0025278004,0.00045064627,0.0024897323,-0.0051607327,-0.0057837474,0.030694801,0.008262424
diskutovati,-0.0893698,0.8638428,-0.004549061,0.0027995266,-0.0013316207,0.0014783381,0.0023730386,0.0031540133,0.006723769,0.011419729,-0.014277617,0.06480008,-0.000109854045,0.0016861857,-0.0068897624,0.15078136,0.35563433,-0.22255354,0.023573438,-0.185438,0.075208224,-0.008475593,0.00055847416,-0.02632413,5.674535e-05,-0.00060019456,0.029788177,-0.00095354975,0.00015843866,-0.002626205,0.0023410376,-0.007675262,0.0006753098,-0.0008087639,0.0046782373,0.0005159728,0.0012778137,-0.0005492544,-9.150195e-06,-1.2751974e-05,0.00017736529,0.0012813437,-0.00017706057,0.0002875091,0.0002144791,0.00030425435,-0.0004907806,-0.00088207284,0.0042228587,0.00078147254
diti,-0.08854677,0.8598735,-0.005614381,0.003810454,-0.0019088719,0.0008359031,0.002263596,0.0019145736,0.0037540828,0.013708335,-0.02730778,0.25820652,-0.014167797,0.010325026,0.014808996,-0.42493263,-0.00804213,-0.053662006,-0.00025100104,-0.0021498727,-0.008232322,-0.013871773,0.0007248434,0.0052547823,0.0004582624,0.00035099563,0.019620728,0.001475112,-0.00089790334,0.008321606,0.0061645666,0.006769842,-0.002390935,0.0006017751,0.0067751496,0.00032265298,0.0007477693,-0.0021273212,-2.711598e-05,-0.00023395607,-0.00018049793,0.0048185852,-0.0005600713,0.00088655314,0.00016655483,0.0009360581,-0.00223171,-0.0021476205,0.011272025,0.0027105452
diviti,-0.08475471,0.81409585,-0.00359597,0.0051505296,-0.0017464404,-0.00046065016,-0.0027732211,-0.005110892,0.0020394777,-0.038842097,0.0693392,-0.542014,0.028015923,0.005929716,-0.00027892925,-0.1622474,0.0010891015,0.0057009114,0.0031761683,-0.013066598,0.033293784,-0.011125701,0.00097397144,-0.00834029,0.0027461536,-0.0036732221,0.027784739,-0.000635056,0.00094393577,-0.005152441,0.0007779859,-0.015558009,0.0020516932,0.00087252207,-0.0012109122,-0.0016129697,0.0004191167,0.0030695,-4.3618173e-05,8.550444e-06,0.00033250096,-0.005311096,-0.00055121223,-0.00065426086,-0.0005578381,-0.00086804776,0.0024127157,0.0016949781,-0.009908788,-0.0027156707
dizati,-0.09572235,0.92237824,-0.0045734365,0.0026056792,-0.0013805907,0.00031163375,0.0015396039,0.00090512785,0.002203303,0.004792357,-0.0068155737,0.047423456,-0.001868086,0.0019608303,-0.0043310807,0.09716211,0.012778632,0.011015705,-0.006023161,0.07147818,-0.2033186,0.2528147,-0.0054573286,-0.11898843,0.003023043,-0.0007753574,0.038063128,-0.001469995,0.0025284376,-0.0035414093,0.004786288,-0.014368202,0.0015573656,0.0015386966,-0.0051667048,0.0001628956,-0.0018365869,-0.0037671747,-0.000122137,-0.00042653838,-0.0005368286,0.010965531,-0.001796421,0.0030439685,0.0004205145,0.0031710786,-0.005827123,-0.0072902977,0.03608275,0.008398069
dići,-0.07555832,0.7329586,-0.0071588205,0.0026920005,-0.0017348554,0.0005069842,0.0018794929,0.0015463401,-0.00021566842,0.016908444,-0.017320048,0.11250309,-0.005047717,0.0055320584,-0.0053142332,0.14087762,-0.031331357,0.5093339,0.03805501,-0.26492324,-0.036743212,0.19128619,-0.002501256,-0.140365,0.003420376,-0.0031567314,0.15028697,-0.0049487394,0.0011699301,-0.0034240757,0.039327458,-0.08576384,0.0053647924,0.0013594148,0.019430446,0.00013944425,0.008757574,0.0021715495,-0.00012506946,-0.00012620533,0.0013231541,-0.014963378,0.0007874818,-0.0033286202,-0.0009317026,-0.003169562,0.008063492,0.008484273,-0.040390063,-0.009119455
djelovati,-0.09892889,0.9526426,-0.004462791,0.0021420738,-0.0013080928,-5.3231666e-05,0.0017013514,0.00058024115,0.0031000376,0.00680211,-0.008777067,0.038346667,7.726225e-05,0.00056953105,-0.0035750398,0.070544355,0.013453886,-0.0061261225,-0.0035201476,0.033831745,-0.04698233,0.02849947,-0.0010191071,0.042802896,-0.0011012441,0.00241859,-0.069683425,0.0040647076,-1.2397637e-05,0.008955334,-0.029563172,0.093113996,-0.0091118,-0.0020101757,-0.009950373,-2.033188e-05,-0.010803083,-0.01888479,0.00042277694,-0.0015554813,-0.0049686916,0.08093912,-0.00692685,0.016368462,0.004009843,0.01623689,-0.038891517,-0.03842389,0.20568599,0.046921093
dobaciti,-0.7073114,-0.073358454,0.049321633,0.0608367,0.014979417,0.06649182,-0.072027236,0.04080464,-0.1849953,-0.30401933,-0.5403563,-0.056168616,-0.1989191,0.081970826,0.046952277,-0.0028194473,0.009892262,0.006196609,-0.037323304,-0.000760635,-0.0016649155,-0.0008370322,-0.023828356,-0.0004925088,0.017956465,0.0051004076,0.0024773744,-0.010239096,0.007233417,-0.0051580854,0.009594273,0.006644118,-0.016010871,-0.014946468,-0.010618865,-0.012381886,0.0030096117,0.0023499816,-0.007650632,0.0037462674,-0.028491462,-0.0044197626,0.010050186,0.01074534,-0.0067885434,-0.006057623,-0.029025933,0.0027977668,-0.027977569,0.005767069
dobaviti,-0.70729876,-0.07295691,0.048705354,0.06505519,0.021388436,0.075123124,-0.06843975,0.040529322,-0.18652287,-0.30921867,-0.5322948,-0.05446105,-0.21546209,0.07608055,0.04501894,-0.0010496068,0.00985569,0.0162791,-0.035448883,-0.007380317,0.0015485944,-0.0014645852,-0.022295257,-0.00019488929,0.016830044,0.0044207973,0.005192313,-0.008237743,0.008258766,-0.004856417,0.008740918,0.0049827164,-0.012019316,-0.010935776,-0.004862164,-0.0076136435,0.0037793415,0.0024588427,-0.0041589043,0.0077869664,-0.021553643,-0.0022589196,0.014875475,0.0033599173,0.009324556,-0.010524366,-0.010382189,-0.008192922,-0.009919505,0.0063657104
dobijati,-0.09626509,0.9250914,-0.0041315304,0.004299618,-0.001672193,-0.0003326668,-0.0012483266,-0.0032479821,0.0025141868,-0.023801632,0.043722704,-0.35273242,0.018961674,0.004186224,-0.001425602,-0.083567604,0.0055189724,0.0020863249,0.0010034863,0.0023065375,0.0074599227,0.0014927699,0.0003356888,0.0069946595,0.0015747698,-0.0018750894,0.0002850354,0.0004400019,0.00064092956,-0.0021446843,-0.007032943,0.010863754,-0.00051677634,-0.00028519362,-0.0018382367,-0.0008714756,-0.0015367724,-0.0006596811,-3.2787946e-05,-0.00011968883,-0.0003089973,0.005133512,-0.0011170955,0.0013951685,7.595297e-05,0.0013112627,-0.0025871305,-0.0032463728,0.0151063185,0.0031672902
dobiti,-0.44166404,0.6957278,0.023024315,0.036354657,0.009128105,0.035400763,-0.03630364,0.016013538,-0.09075768,-0.16714352,-0.25420368,-0.18312621,-0.09566278,0.04627296,0.023404052,-0.015346097,0.012984781,0.007930226,-0.02261103,0.013917444,-0.016358702,0.0037652461,-0.015393448,0.026292564,0.012198462,0.0038685787,-0.15506317,-0.013273489,-0.00045929736,0.041632935,0.09516586,-0.0615934,-0.023109613,-0.026294684,0.015103995,0.3543609,0.010120725,-0.035287067,-0.0038990236,-0.00032269672,0.006237178,0.003998711,-0.006383121,0.002395245,0.0035903722,-0.0061613717,0.0070654675,-0.0016748182,0.004320715,0.0013478373
dobivati,-0.09059725,0.8726632,-0.0041683544,0.0042650336,-0.0021818336,-0.00045905833,-0.00053071574,-0.0024460878,0.002731981,-0.01750826,0.030942865,-0.27109355,0.01477488,0.0040287008,-0.0019780556,-0.045956127,0.008352101,0.011071633,-0.00082798395,0.015364191,-0.014800478,-0.0022404667,-0.0005355923,0.03699441,0.00016752882,0.0013137816,-0.29478702,0.003466029,-0.013924139,0.0768837,0.1770532,-0.15004668,-0.00070966006,0.006495667,0.05230448,-0.021207778,0.012277873,0.004240268,0.00023252069,-0.00027257708,0.0007728519,-0.012795707,0.00117201,-0.002312223,-0.00072621,-0.0017365569,0.0041224286,0.004485605,-0.023326233,-0.005971519
dodati,0.0,0.0,0.0,0.0,0.0,0.0,0.0,-0.0,-1.2284454e-29,-6.633605e-29,-7.7544386e-26,6.2724422e-27,-2.852723e-24,-6.167602e-23,-1.1336727e-21,-6.4776e-24,-1.2117034e-19,-3.4808693e-21,4.2614357e-19,-3.9797037e-19,-4.2547944e-17,-4.5365273e-18,-2.947744e-17,-7.937454e-20,1.3098251e-17,-2.0318626e-16,-1.9345425e-16,0.0,-2.9713437e-06,-4.602063e-08,-9.1489724e-08,-8.935745e-08,-4.224144e-06,5.3952253e-06,-5.3313056e-06,-0.0006686464,0.0,-0.0038852233,-0.23813063,0.16823344,-0.47367388,0.058112815,0.77318424,-0.037060447,0.074076265,0.023100546,-0.14709325,-0.2373362,-0.06370659,0.0
dodavati,-0.70731366,-0.07332035,0.046661243,0.06364556,0.020722682,0.07042602,-0.07424086,0.041577976,-0.19260071,-0.29573718,-0.5398465,-0.05740851,-0.21256177,0.07530987,0.044541884,-0.0030849217,0.010054309,0.0060208514,-0.035401933,-0.00024289411,-0.0017071231,-0.0006948099,-0.021735808,-0.00022326766,0.016253399,0.004341826,0.0019972418,-0.00592352,0.008042869,-0.0062679877,0.008496069,0.0061298897,-0.010695608,-0.011353168,-0.0069970964,-0.0038138838,0.004024338,0.00035990853,-0.005013769,0.0030256636,-0.01856055,-0.0033014372,0.007969497,0.0019509336,0.0043651536,-0.007607199,-0.0037517212,-0.004026808,-0.0058125607,0.0041576843
dodeliti,-0.70626557,-0.073169276,0.050370533,0.063871734,0.020483045,0.0690236,-0.071030006,0.034324106,-0.19088648,-0.30586898,-0.5411197,-0.05631949,-0.20685804,0.07018342,0.027893819,-0.0035065506,0.009942722,0.006177954,-0.035586275,-0.0006334456,-0.0014599948,-0.0006510942,-0.021268118,-0.00025232648,0.015869405,0.0045042983,0.002069443,-0.0061020637,0.0065247263,-0.0056286887,0.008259981,0.0060677277,-0.011151808,-0.0123060085,-0.007893297,-0.002558294,0.003842774,-0.0032382642,-0.006969516,0.004188991,-0.01449878,-0.0013988208,0.0065545193,0.0064179557,0.008147435,-0.008299452,-0.0037299811,-0.0028760065,-0.008764996,0.0032558083
dodijeliti,0.0,0.0,0.0,0.0,0.0,0.0,0.0,-0.0,-0.0,-2.996623e-28,-2.776392e-26,0.0,-1.6822303e-24,-1.2881005e-23,-3.952979e-22,-4.074447e-24,-2.169117e-20,-3.5789678e-21,0.0,-2.1277673e-19,-1.2629262e-17,-3.0318446e-18,-5.9697927e-18,-1.1051555e-20,-2.735563e-18,-1.0608837e-17,0.0,5.7364457e-11,1.9392614e-08,-6.007116e-10,0.0,-1.1663911e-09,0.0,-8.450926e-07,1.1134405e-06,0.00027929293,1.7224958e-05,-0.00027047563,-0.13262257,0.016534338,-0.5276083,-0.054615743,-0.54196435,-0.37152267,-0.06188316,0.0,-0.24576281,0.36603728,0.11119254,-0.2417727
dodirati,-0.7073001,-0.07333814,0.04710297,0.06454943,0.021313509,0.075076535,-0.069988735,0.027338313,-0.18557261,-0.30350494,-0.54064775,-0.056430317,-0.20844513,0.07105045,0.027640054,-0.003507659,0.009907383,0.0061750133,-0.03785931,-0.00076938915,-0.0014683801,-0.0007756599,-0.023720725,-0.00035862072,0.018023591,0.004866848,0.002417748,-0.010308021,0.008129092,-0.005238178,0.010009146,0.006897482,-0.015242088,-0.015696267,-0.010020358,-0.006415338,0.0032189498,0.0005019966,-0.0076297275,0.002666275,-0.021059705,-0.0056966646,0.013668257,0.008858254,0.0132344905,-0.010224743,-0.011549569,-0.004152646,-0.013296889,0.0057709636
dodirnuti,0.0,0.0,0.0,0.0,0.0,0.0,0.0,0.0,2.2829629e-29,9.999377e-28,7.2054876e-26,4.0326258e-26,4.3659795e-24,4.7758213e-23,9.526563e-22,1.586194e-23,6.4338554e-20,1.1942593e-20,1.4344794e-18,4.7334056e-19,4.2142357e-17,1.0116908e-17,2.988074e-17,7.375547e-20,1.21710015e-17,4.1300513e-17,1.7554617e-18,-7.975768e-12,2.696286e-09,0.0,0.0,-1.2973698e-09,-3.0664914e-08,-1.5666522e-07,-1.5480914e-07,-0.00011649594,-2.8738828e-05,0.0,0.29503056,0.29425672,-0.7335694,0.0,-0.28737965,-0.26688573,-0.26672503,0.103033036,-0.06834012,0.16964209,-0.03382668,0.13446116
događati,-0.7068304,-0.07324881,0.051350992,0.06620873,0.025320124,0.06882132,-0.06355947,0.032698236,-0.18691652,-0.3033598,-0.5406304,-0.056770943,-0.21057358,0.074238695,0.04386166,-0.0029684675,0.0100795515,0.006268733,-0.03427801,-0.0003797701,-0.0016022564,-0.00061303284,-0.020504046,-0.00017755233,0.015628919,0.004609738,0.00202194,-0.0053226897,0.0070662093,-0.0054530744,0.008142327,0.0061544185,-0.010660905,-0.011535375,-0.007572323,-0.0041629295,0.0033174858,-0.0016727274,-0.007214895,0.0053946604,-0.016976856,-0.0007054247,0.009507613,0.0040841023,0.007199053,-0.008005217,-0.0037885413,-0.0064662118,-0.005891505,0.0048841904
dogoditi,0.0,0.0,0.0,0.0,0.0,0.0,0.0,0.0,0.0,0.0,0.0,0.0,0.0,0.0,0.0,0.0,0.0,0.0,0.0,0.0,0.0,0.0,0.0,0.0,0.0,0.0,0.0,3.8467187e-13,-1.9506312e-10,0.0,-2.4024512e-11,4.6929183e-11,-7.3948553e-10,0.0,0.0,5.618608e-06,-2.7721517e-06,-4.3529828e-05,0.3415043,0.08515214,-0.30780694,0.0,0.0,0.1594457,-0.23902455,-0.31803462,-0.47463113,0.5498204,0.07831024,-0.2529178
dogovoriti,-0.7070703,-0.07332848,0.053833004,0.061687108,0.0214953,0.07637489,-0.07290437,0.034407336,-0.18140987,-0.3026021,-0.5399586,-0.056172755,-0.19966377,0.082411565,0.047340088,-0.0027978502,0.009814113,0.0063154455,-0.03788644,-0.00085378037,-0.0016310138,-0.00087412004,-0.024519626,-0.00053784583,0.018828783,0.005241753,0.0026787915,-0.011096515,0.007929733,-0.0042684665,0.0104359,0.006798187,-0.016889561,-0.01610846,-0.010512071,-0.0139373485,0.0004292426,0.0033377733,-0.009467236,-0.0011575351,-0.030272897,-0.00559025,0.017945534,0.005151933,-0.0042336215,-0.007282708,-0.03139773,-0.0020250557,-0.026815405,0.011347174
dograbiti,-0.7064161,-0.07318491,0.050460618,0.06404287,0.020577451,0.06939997,-0.07161366,0.034734197,-0.19698495,-0.29763466,-0.54008496,-0.057144064,-0.21119979,0.07454742,0.043922886,-0.0030599912,0.010129813,0.006003173,-0.034085333,-0.000277081,-0.0016257473,-0.0006123516,-0.020291662,-0.00019960772,0.015206214,0.0042786677,0.0019805185,-0.004082284,0.0076426878,-0.0058047334,0.007990583,0.0058208685,-0.008941443,-0.011088007,-0.0066755996,-0.002097199,0.0042435834,-0.00231101,-0.0064289207,0.002468692,-0.01531089,-0.00032755997,0.006981117,0.0019295221,0.006245679,-0.0076855435,-0.0018725224,-0.0042758947,-0.0056988155,0.0035300916
dograditi,-0.583734,-0.060549766,0.044818394,0.052090574,0.012984821,0.058822766,-0.053392213,0.027571522,-0.15798123,-0.2574818,-0.43893072,-0.045178574,-0.17440623,0.05881773,0.02204083,-0.002679061,0.008075302,0.0050160317,-0.0065675955,0.0014930138,-0.0015411654,-0.0018124649,-0.028998982,-0.00019864817,0.019907648,0.0037211208,0.00170403,-0.017756378,0.008483197,0.00017406963,0.0062367762,0.00395637,-0.01364328,-0.0151961725,-0.012675777,-0.010091116,0.0064799185,0.005685779,-0.0053470824,0.012194316,-0.027686596,-0.013677339,0.030751657,-0.103722125,-0.33088836,0.27440414,0.3342892,-0.08388879,0.06544308,-0.0044922167
dogurati,-0.7072714,-0.07331026,0.0529986,0.060302682,0.020690043,0.07105521,-0.07788367,0.035014756,-0.18183774,-0.30175492,-0.5403856,-0.056833465,-0.21165654,0.07481772,0.044334836,-0.0029824714,0.009883535,0.0062387413,-0.03499889,-0.00062218617,-0.0016078443,-0.0007247301,-0.021523373,-0.00043891446,0.016024413,0.004424009,0.0023543737,-0.006477273,0.0075415764,-0.0046402663,0.008623566,0.005944451,-0.012359995,-0.011054707,-0.0076726247,-0.0058824294,0.0031170277,-0.0004251666,-0.006750832,0.003349739,-0.017723316,-0.0010498262,0.009268933,0.0032139898,0.006295977,-0.006519678,-0.0059174197,-0.0061257714,-0.008800542,0.0046078847
dohvatiti,0.0,0.0,0.0,0.0,0.0,0.0,0.0,0.0,0.0,0.0,0.0,0.0,0.0,0.0,0.0,0.0,0.0,0.0,0.0,0.0,0.0,0.0,0.0,0.0,0.0,0.0,0.0,-6.141944e-17,-3.737419e-13,0.0,0.0,-5.9944366e-14,-2.833716e-12,-1.158183e-10,0.0,-2.2965932e-07,-4.2491653e-08,-2.22409e-06,-0.33501387,-0.22275676,0.33319384,0.017032493,0.16316304,0.31283075,-0.26053533,0.022749288,0.41387603,0.29536974,0.12803651,-0.5089456
dojaviti,-0.7073939,-0.07334574,0.05210767,0.06744497,0.025925092,0.070956446,-0.06706363,0.040074937,-0.1843385,-0.30393726,-0.54067314,-0.056250703,-0.19935098,0.08186344,0.046920586,-0.0028014844,0.009979245,0.0063958596,-0.037123524,-0.00054146635,-0.0016644663,-0.00075968757,-0.02344256,-0.00022488009,0.018116621,0.0052476306,0.002172589,-0.00922403,0.006616233,-0.005800331,0.009325279,0.0069846977,-0.014328924,-0.014491499,-0.009237922,-0.009790087,0.0013453384,0.0009823708,-0.0083460435,0.005774365,-0.02361118,-0.003923646,0.011765396,0.007419236,-0.00046416736,-0.0067784134,-0.01258997,-0.0045987107,-0.012669672,0.007229297
dojuriti,-0.7073933,-0.073344454,0.052022308,0.06720159,0.025665058,0.068145685,-0.07776204,0.03512063,-0.18295944,-0.3035278,-0.5406169,-0.05609978,-0.19954981,0.08199749,0.047007587,-0.0027452593,0.010032424,0.0063572447,-0.03710266,-0.0005930046,-0.0016425287,-0.0007609751,-0.023632709,-0.0002694089,0.018127667,0.0051396345,0.0022972014,-0.0096396655,0.006950517,-0.005437077,0.009593051,0.007232753,-0.014865788,-0.0141775245,-0.008988832,-0.010230732,0.0018233653,0.00093373924,-0.009439101,0.004137277,-0.022394415,-0.0015282576,0.011163851,0.005514965,0.0008351227,-0.0022917108,-0.010238656,-0.009267814,-0.015732491,0.007462692
dokazati,-0.70775515,-0.07338247,0.048923988,0.05986737,0.024419066,0.06366319,-0.06928783,0.03395213,-0.19520949,-0.29616,-0.53995013,-0.057319596,-0.21246772,0.07538165,0.044548288,-0.0032210078,0.010415276,0.0061027813,-0.035642445,-0.0004423906,-0.0017439981,-0.00074615073,-0.021996018,-0.0005063054,0.016831059,0.0045413384,0.0023888375,-0.006097399,0.008588978,-0.004961128,0.00934899,0.005604388,-0.0109654125,-0.01309742,-0.008406957,-0.0046264674,0.005172071,0.0011123844,-0.006009908,0.0015046408,-0.01984434,-0.0054787863,0.010008682,0.0007277547,0.007711873,-0.0050927894,-0.0056484076,-0.005264463,-0.007225393,0.0028574823
dokazivati,-0.7073524,-0.07332259,0.04856359,0.059320334,0.024140857,0.0628196,-0.06816333,0.033271324,-0.18760732,-0.3036488,-0.54074335,-0.05676061,-0.21058546,0.074262254,0.04385699,-0.0030651013,0.0101951035,0.0062046647,-0.034330722,-0.0005130263,-0.0016531517,-0.0006646161,-0.020755345,-0.0004157161,0.015654793,0.0045000184,0.002213265,-0.0054792864,0.0071904613,-0.0047759633,0.008338365,0.005740541,-0.01127615,-0.011212394,-0.007999705,-0.0047402605,0.004164212,-0.0014535661,-0.0066633276,0.004424181,-0.017419212,-0.0017159845,0.008689318,0.00465444,0.007954877,-0.0067568943,-0.0038126227,-0.0071079386,-0.0070772683,0.003959684
dokopati,-0.70735234,-0.07332259,0.048563585,0.059320334,0.024140855,0.0628196,-0.06816333,0.033271324,-0.18760729,-0.30364877,-0.54074335,-0.056760605,-0.21058546,0.074262254,0.04385699,-0.003065101,0.010195103,0.0062046647,-0.034330722,-0.0005130262,-0.0016531517,-0.000664616,-0.020755345,-0.000415716,0.015654791,0.004500018,0.002213265,-0.0054792864,0.007190461,-0.0047759637,0.008338364,0.0057405406,-0.01127615,-0.011212393,-0.007999704,-0.0047402605,0.0041642115,-0.0014535659,-0.0066633266,0.0044241804,-0.017419212,-0.0017159842,0.008689316,0.0046544396,0.007954876,-0.0067568934,-0.0038126223,-0.0071079377,-0.0070772674,0.0039596837
dolaziti,-0.7069883,-0.07279358,0.049047858,0.059600767,0.020727355,0.07200818,-0.07448654,0.028432537,-0.19410822,-0.29658234,-0.53938365,-0.055847697,-0.20020558,0.08292928,0.047421295,-0.0012272166,0.014200136,0.0034918813,-0.037875105,-0.0028452054,-0.0009766389,-0.0008151022,-0.02482595,-0.00035470963,0.019087886,0.0050650495,-0.0013587013,-0.012512168,0.010894227,-0.016133621,0.00078664144,0.004448651,-0.01230403,-0.022620142,-0.014642808,-0.011271502,0.0033819461,0.0044180793,-0.009309894,-0.012077483,-0.033107787,-0.0072808014,0.018494368,-0.009558165,-0.0026199417,-0.0018706842,-0.03453233,-0.0030268587,-0.025414763,0.010291415
doleteti,0.0,0.0,0.0,0.0,0.0,0.0,0.0,0.0,0.0,0.0,0.0,0.0,0.0,0.0,0.0,0.0,0.0,0.0,0.0,0.0,0.0,0.0,0.0,0.0,0.0,0.0,0.0,7.802145e-21,-1.05503645e-17,1.6340568e-19,1.299412e-18,2.5382554e-18,3.1997202e-16,0.0,2.326105e-13,1.1669501e-10,3.8383914e-11,1.2054501e-09,0.0,0.0036220052,0.0,-0.00029540993,-0.004716474,-0.289371,0.19204475,0.28859356,0.07178227,0.5701971,0.24871317,-0.6355515
dolikovati,0.0,0.0,0.0,0.0,0.0,0.0,0.0,0.0,0.0,0.0,0.0,0.0,0.0,0.0,0.0,0.0,0.0,0.0,0.0,0.0,0.0,0.0,0.0,0.0,0.0,0.0,0.0,0.0,2.298643e-18,1.7800869e-19,0.0,1.1060362e-18,-3.4856683e-17,8.5478745e-15,3.3786416e-14,6.779927e-11,1.672566e-11,5.252708e-10,0.002109903,0.0,-0.0010492202,-6.436194e-05,0.0010275937,-0.37827733,0.11814049,0.5030147,0.37534657,-0.4503364,-0.0619291,-0.49233675
dominirati,-0.70597565,-0.07312131,0.050094847,0.06347296,0.020341761,0.0685209,-0.070498325,0.03406776,-0.18967557,-0.30472654,-0.54081684,-0.056616705,-0.20944512,0.07351483,0.043292858,-0.002918859,0.009939564,0.006098295,-0.032976847,-0.0003459522,-0.0015522175,-0.0005490765,-0.019321727,-0.0001413206,0.014339372,0.0042622457,0.0018715624,-0.0038081321,0.0067110285,-0.005593285,0.0073918537,0.0058957986,-0.009364427,-0.010064491,-0.0066095474,-0.0024753886,0.0037275974,-0.0034344902,-0.006742658,0.0039885906,-0.01459962,0.00094766635,0.0067251166,0.0036793982,0.0066137156,-0.008070633,-0.0016228936,-0.0053315787,-0.0058965776,0.003926629
domoći,0.0,0.0,0.0,0.0,0.0,0.0,0.0,0.0,0.0,0.0,0.0,0.0,0.0,0.0,0.0,0.0,0.0,0.0,0.0,0.0,0.0,0.0,0.0,0.0,0.0,0.0,0.0,-1.9096436e-23,7.746883e-20,0.0,0.0,-3.7275618e-20,2.3494787e-18,-2.8808035e-16,-2.2773387e-15,0.0,-1.127376e-12,1.4162135e-10,0.00028443168,7.092141e-05,0.00028288644,3.4706005e-05,-0.0002770556,-0.40795833,0.5096409,-0.2712415,-0.13493253,0.6698916,0.12522802,-0.13274181
donositi,-0.5859756,-0.06059369,0.041303486,0.058640275,0.017713077,0.059117466,-0.06000054,0.028661184,-0.15369785,-0.24885489,-0.44678685,-0.045705087,-0.15844938,0.052856423,0.029362349,-0.0022888342,0.008659982,0.0057773674,-0.03840936,-0.00056841236,-0.0010009134,0.0014960577,-0.02554693,0.002731567,0.019712765,0.006334102,-0.014417664,0.21938217,0.030741645,0.28279775,-0.33351034,-0.1769016,0.052161194,0.00020222044,0.0720937,0.0070575112,0.20085977,-0.006421811,-0.0034139967,0.003273704,0.00046436948,0.011801298,0.0030810458,6.135208e-05,0.009118769,-0.0071163243,0.004060175,0.011586427,0.016902678,-0.0029194776
dopadati,0.0,0.0,0.0,0.0,0.0,0.0,0.0,0.0,0.0,0.0,0.0,0.0,0.0,0.0,0.0,0.0,0.0,0.0,0.0,0.0,0.0,0.0,0.0,0.0,0.0,0.0,0.0,-3.842626e-24,-4.4538405e-21,-3.4490884e-22,-8.228209e-22,-4.2861018e-21,-2.701526e-19,0.0,-1.3092882e-16,-2.6273515e-13,-3.8889082e-13,-2.4426298e-11,-3.270511e-05,-4.8928985e-05,0.0,1.5962549e-05,0.0,0.2814522,-0.45317778,-0.3118845,-0.18618108,0.73945785,0.09215505,-0.16789511
dopati,-0.70597565,-0.07312131,0.050094847,0.06347296,0.020341761,0.0685209,-0.070498325,0.03406776,-0.18967557,-0.30472654,-0.54081684,-0.056616705,-0.20944512,0.07351483,0.043292858,-0.002918859,0.009939564,0.006098295,-0.032976847,-0.0003459522,-0.0015522175,-0.0005490765,-0.019321727,-0.0001413206,0.014339372,0.0042622457,0.0018715624,-0.0038081321,0.0067110285,-0.005593285,0.0073918537,0.0058957986,-0.009364427,-0.010064491,-0.0066095474,-0.0024753886,0.0037275974,-0.0034344902,-0.006742658,0.0039885906,-0.01459962,0.00094766635,0.0067251166,0.0036793982,0.0066137156,-0.008070633,-0.0016228936,-0.0053315787,-0.0058965776,0.003926629
dopiti,-0.7076511,-0.073368646,0.053747825,0.062075943,0.025271779,0.068871036,-0.0639829,0.033150997,-0.19387448,-0.29552183,-0.5397786,-0.057384785,-0.21283336,0.07560744,0.044745076,-0.0032235559,0.010347875,0.0062183524,-0.036068343,-0.00050680275,-0.0017198203,-0.0007732156,-0.022266133,-0.00050866255,0.017274346,0.0047247433,0.0024957946,-0.0064133685,0.008754352,-0.0047398065,0.009665701,0.005578551,-0.011102923,-0.014243708,-0.008839485,-0.005201102,0.004237711,0.0017523743,-0.0067560524,0.0018957534,-0.020726997,-0.006107488,0.0125970505,9.445897e-05,0.0076344605,-0.006950916,-0.0093836095,-0.0029675525,-0.006847494,0.003580721
doploviti,-0.706932,-0.07325986,0.047863524,0.05765153,0.01976404,0.06717886,-0.069584906,0.033732403,-0.18870246,-0.30422407,-0.5408167,-0.05672242,-0.2100773,0.07391111,0.043605946,-0.0030167538,0.009999077,0.0060754167,-0.033709403,-0.0005062406,-0.0016046829,-0.00063389126,-0.020138796,-0.0003739963,0.014917395,0.004303534,0.0021101863,-0.0046103224,0.0071753785,-0.0049406854,0.007839972,0.005619476,-0.010420319,-0.010399352,-0.007291719,-0.0035865312,0.00402849,-0.0026367889,-0.0062228683,0.0029889413,-0.016193522,-0.00035826198,0.007447735,0.0039243875,0.0072521786,-0.008448783,-0.002762574,-0.005265303,-0.0061596804,0.0036268465
dopratiti,-0.7063919,-0.073183045,0.05055221,0.06425942,0.02072027,0.07034728,-0.07534618,0.028391393,-0.18668228,-0.303535,-0.54064095,-0.056589574,-0.21025911,0.07401975,0.043696586,-0.0028714163,0.009941592,0.0061068605,-0.03366382,-0.0004239594,-0.001539489,-0.0005875686,-0.020093229,-0.00018902238,0.014949174,0.004333356,0.0020374332,-0.0048479727,0.0072994586,-0.005279806,0.007900652,0.0061680614,-0.010326416,-0.0105896965,-0.006860747,-0.0035061936,0.0035958472,-0.0026738548,-0.007301598,0.0032267706,-0.01543645,0.0013446125,0.008064371,0.0028631277,0.007303761,-0.0073465686,-0.0020614539,-0.006871582,-0.0065353927,0.004506267
dopremati,0.0,0.0,0.0,0.0,0.0,0.0,0.0,0.0,0.0,0.0,0.0,0.0,0.0,0.0,0.0,0.0,0.0,0.0,0.0,0.0,0.0,0.0,0.0,0.0,0.0,0.0,0.0,1.7349735e-24,2.8848594e-21,9.583619e-23,3.2799322e-22,5.0764e-22,1.5278608e-20,1.0860173e-19,-4.292603e-19,8.613976e-16,-2.5500177e-15,-1.0677802e-13,-4.2890497e-07,-8.555599e-07,0.0,0.0,1.0026776e-05,0.4199597,-0.31478012,-0.2617696,-0.416706,0.6206387,0.051564798,-0.30745536
doprineti,0.0,0.0,0.0,0.0,0.0,0.0,0.0,0.0,0.0,0.0,0.0,0.0,0.0,0.0,0.0,0.0,0.0,0.0,0.0,0.0,0.0,0.0,0.0,0.0,0.0,0.0,0.0,-2.569899e-24,-4.27103e-21,-1.4164365e-22,-4.8504545e-22,-7.4201903e-22,-2.3093844e-20,-2.2824317e-19,-7.893867e-19,-6.7888457e-16,-8.932086e-16,-2.8051293e-14,-4.507047e-07,2.2476127e-07,-8.9651235e-07,1.0998887e-07,-3.512134e-06,-0.13790774,0.44103906,-0.12034507,-0.08210357,0.7608809,-0.027092827,-0.43077633
doprinositi,-0.70597565,-0.07312131,0.050094847,0.06347296,0.020341761,0.0685209,-0.070498325,0.03406776,-0.18967557,-0.30472654,-0.54081684,-0.056616705,-0.20944512,0.07351483,0.043292858,-0.002918859,0.009939564,0.006098295,-0.032976847,-0.0003459522,-0.0015522175,-0.0005490765,-0.019321727,-0.0001413206,0.014339372,0.0042622457,0.0018715624,-0.0038081321,0.0067110285,-0.005593285,0.0073918537,0.0058957986,-0.009364427,-0.010064491,-0.0066095474,-0.0024753886,0.0037275974,-0.0034344902,-0.006742658,0.0039885906,-0.01459962,0.00094766635,0.0067251166,0.0036793982,0.0066137156,-0.008070633,-0.0016228936,-0.0053315787,-0.0058965776,0.003926629
dopuniti,0.0,0.0,0.0,0.0,0.0,0.0,0.0,0.0,0.0,0.0,0.0,0.0,0.0,0.0,0.0,0.0,0.0,0.0,0.0,0.0,0.0,0.0,0.0,0.0,0.0,0.0,0.0,-4.504764e-25,-7.4877046e-22,-2.4823487e-23,-8.498778e-23,-1.2982169e-22,-4.0480874e-21,-3.8523035e-20,-1.08343496e-19,-3.5256185e-17,-2.3193287e-17,-4.370323e-15,-1.1703115e-08,0.0,-4.6558142e-08,2.2847995e-08,-1.8239396e-07,0.2750168,-0.9161708,0.25142142,0.03411076,-0.13547815,-0.02251198,0.041946184
dopustiti,-0.58486354,-0.060682446,0.044195484,0.058302797,0.01737619,0.057490837,-0.056943435,0.022293502,-0.15509629,-0.25668672,-0.43921655,-0.045270186,-0.17453736,0.05059066,0.042519283,-0.0022091724,0.00909545,0.0057183043,-0.031410914,-0.0006835113,-0.0003556554,0.00045486377,-0.01692192,0.0002672694,0.0111322375,0.0044329367,0.0020319843,0.013968758,-0.1103774,-0.024426877,0.011713871,0.010442637,-0.0020157155,-8.0117925e-06,-0.0175253,-0.011005886,0.036392648,0.0043197447,0.34902778,-0.19883259,-0.050476372,-0.044397913,-0.37193096,0.00457714,-0.014526822,-0.019103324,0.012148238,-0.0018764796,0.0137784295,-0.011666381
doputovati,0.0,0.0,0.0,0.0,0.0,0.0,0.0,0.0,0.0,0.0,0.0,0.0,0.0,0.0,0.0,0.0,0.0,0.0,0.0,0.0,0.0,0.0,0.0,0.0,0.0,0.0,0.0,1.8446201e-25,3.066025e-22,1.0164239e-23,3.4796143e-23,5.3148563e-23,1.6576449e-21,1.4397158e-20,3.9765884e-20,1.650999e-17,5.43055e-18,1.3643749e-15,4.3843272e-08,0.0,0.0,0.0,0.0,0.5151465,-0.6864484,0.0,0.042596273,0.5075405,0.063252315,0.0
dopuštati,-0.7073703,-0.07333807,0.053899348,0.06301885,0.019310758,0.06109525,-0.067933075,0.033307824,-0.18848863,-0.3046798,-0.5408656,-0.05645484,-0.20642959,0.060420178,0.049780175,-0.0032038542,0.010364814,0.0064160796,-0.037102327,-0.0010640105,-0.00074566377,0.00039720078,-0.022835424,-0.00029679024,0.017177172,0.004710777,0.002292876,-0.0073853023,0.009912176,-0.0055372138,0.01048272,0.00644108,-0.011387917,-0.013807858,-0.010224491,-0.005061691,0.004369556,-0.00153471,-0.007869795,0.0067840856,-0.023530351,-0.0009396269,0.015343445,0.005178411,0.010393382,0.0024971885,-0.011149645,-0.0036366156,-0.018827064,0.0010235698
dorasti,-0.58350486,-0.060546808,0.040292844,0.05688354,0.01704184,0.056332313,-0.05448553,0.033097357,-0.15286432,-0.25525987,-0.4379723,-0.04545723,-0.17496824,0.051068075,0.04294301,-0.002238116,0.009016842,0.0057559633,-0.034072034,-0.0007907644,-0.0004216558,-3.890645e-05,-0.022311544,0.00030059862,0.017353304,0.00422025,0.0013107485,-0.01451229,0.012411921,-0.005320667,0.010255907,0.0077325255,-0.015215049,-0.016626902,-0.014249457,-0.022772504,0.0023287216,0.033221107,-0.25300553,-0.33268893,0.37146306,0.023687067,-0.08263684,0.0008467693,-0.004379727,-0.017662777,0.021898827,0.0010669761,0.010651578,0.0010798787
dosaditi,-0.70645434,-0.073193766,0.04590555,0.062337887,0.020142784,0.06802143,-0.0701331,0.033928953,-0.18926807,-0.30451542,-0.5408273,-0.0566675,-0.20971638,0.073679194,0.04343052,-0.0029210353,0.009953861,0.0060373475,-0.03330371,-0.000321642,-0.0015791134,-0.0005634856,-0.01970429,-0.00015040512,0.014581001,0.0042732656,0.0018589371,-0.004329944,0.0069489074,-0.0056856666,0.0074970215,0.0060186316,-0.009881535,-0.010072801,-0.0067488253,-0.0029086904,0.0038575418,-0.0030009232,-0.0063839364,0.0038442197,-0.015600473,0.000522767,0.007146303,0.0038668502,0.006821651,-0.008374501,-0.001532945,-0.0059946897,-0.0055576297,0.004169066
doseliti,-0.70744705,-0.07334989,0.05375005,0.062369127,0.015551594,0.07024712,-0.06376158,0.032894395,-0.18814386,-0.30512953,-0.5409057,-0.05609781,-0.19865677,0.08151692,0.046642963,-0.00281126,0.009943161,0.0062206797,-0.036684293,-0.0008091691,-0.0015894988,-0.00078475697,-0.022878336,-0.00046408543,0.017434474,0.005163625,0.0025128115,-0.008394316,0.0074769445,-0.004668134,0.009337975,0.0062996335,-0.013594227,-0.01521723,-0.010065755,-0.009094375,0.003009763,-0.00056953495,-0.009054562,0.0021511933,-0.022747546,-0.0007698288,0.011088077,0.005168782,0.002988723,-0.009457559,-0.015121378,-0.0005165469,-0.013394827,0.0045527737
dosetiti,-0.7061207,-0.073188454,0.051302105,0.065931715,0.025004474,0.06514743,-0.070181265,0.034181144,-0.19205868,-0.31132388,-0.5320397,-0.05502461,-0.21310942,0.07469576,0.04381827,-0.0026337542,0.010762838,0.006624983,-0.031619363,-2.3195189e-05,-0.0015100939,-0.0005817549,-0.00952445,0.00022986846,-0.014190213,-0.03454889,0.0013025723,-0.006241364,0.01203764,-0.0023032122,0.008158062,0.0062790946,-0.021039749,-0.024747206,-0.01373937,-0.0059324247,0.012083137,-0.00055723236,-0.0064705093,0.0076991296,-0.017038494,0.0024832662,0.009525501,0.0035494014,0.011816743,-0.0069644274,-0.002755154,-0.0070576463,-0.009690997,0.0077034472
dosezati,-0.70597565,-0.07312131,0.050094847,0.06347296,0.020341761,0.0685209,-0.070498325,0.03406776,-0.18967557,-0.30472654,-0.54081684,-0.056616705,-0.20944512,0.07351483,0.043292858,-0.002918859,0.009939564,0.006098295,-0.032976847,-0.0003459522,-0.0015522175,-0.0005490765,-0.019321727,-0.0001413206,0.014339372,0.0042622457,0.0018715624,-0.0038081321,0.0067110285,-0.005593285,0.0073918537,0.0058957986,-0.009364427,-0.010064491,-0.0066095474,-0.0024753886,0.0037275974,-0.0034344902,-0.006742658,0.0039885906,-0.01459962,0.00094766635,0.0067251166,0.0036793982,0.0066137156,-0.008070633,-0.0016228936,-0.0053315787,-0.0058965776,0.003926629
dosećati,-0.54314166,0.4569075,0.033856828,0.047411337,0.017080465,0.04655118,-0.049398992,0.025775047,-0.14382204,-0.21263148,-0.375638,0.012147706,-0.15856396,0.053542733,0.029796515,0.15239894,-0.37443322,-0.2319132,-0.035362694,-0.12241276,0.09491286,-0.033550147,-0.025356276,-0.026790114,0.00429918,0.000593813,0.06103248,-0.0029653653,0.0047668554,0.0032769023,0.027511898,-0.025768468,-0.0056200586,-0.005676934,0.008876471,-0.001152388,0.008782063,0.009933502,-0.0035371224,0.0022620296,-0.010667657,-0.005402132,0.0065926737,-0.0012123893,0.0055232057,-0.006377855,0.002470349,0.0028003384,-0.02174109,-4.449925e-05
doseći,-0.70715797,-0.07330245,0.05190602,0.06778274,0.019719966,0.062101286,-0.06860848,0.033589233,-0.18942168,-0.30574855,-0.54109293,-0.055981755,-0.19840333,0.08106565,0.046297863,-0.0027574177,0.010141742,0.006259496,-0.03595418,-0.0005607174,-0.0016013461,-0.00068236614,-0.022121668,-0.00021815994,0.016873507,0.0050723143,0.0021789789,-0.0074343234,0.00667168,-0.0056340303,0.008742306,0.0067397803,-0.012344043,-0.013756891,-0.008885183,-0.006998933,0.0036158415,-0.0016347604,-0.009135021,0.005265442,-0.018812612,0.00083226437,0.008116766,0.005403679,0.0038963906,-0.0054295473,-0.0070777857,-0.0056803287,-0.011332063,0.0047247955
dospevati,-0.7064587,-0.07318789,0.05206817,0.058833487,0.019968556,0.0676925,-0.06996107,0.03387559,-0.18912469,-0.30444428,-0.54080755,-0.056669794,-0.20979385,0.07373822,0.043460876,-0.0030122083,0.009982795,0.006137112,-0.033354178,-0.00052424625,-0.001575342,-0.00061517785,-0.019713162,-0.0003511522,0.014638684,0.00428962,0.0021044987,-0.004010223,0.006891002,-0.004914624,0.0076882765,0.005526704,-0.009782918,-0.010348334,-0.007063308,-0.003000665,0.0038556687,-0.0031890902,-0.0066680647,0.0033012414,-0.014921775,0.00029935583,0.0068966197,0.00368734,0.0069149695,-0.0080676265,-0.0026177205,-0.0046157474,-0.0064424807,0.0034488146
dostaviti,-0.70700765,-0.07228659,0.051746838,0.06740025,0.018248664,0.06377365,-0.0692879,0.033821356,-0.19054353,-0.30874157,-0.53545195,-0.058642354,-0.21153614,0.07404254,0.043319177,-0.0023865632,0.009949505,0.006107527,-0.006749463,0.0041736425,-0.009154945,0.008938617,-0.029400662,-0.0065267542,0.019652817,0.0039366605,0.0057720076,-0.011431482,0.008433629,-0.0038041463,0.0069474215,0.0014643208,-0.0097925095,-0.0100264335,-0.00967305,-0.004899313,0.005421563,-0.001544793,-0.0072905123,0.00790179,-0.016615715,0.0030754271,0.008329808,0.0017535631,0.009054908,-0.014236351,-0.015876511,-0.0026945167,-0.008788395,0.0070191356
dostavljati,-0.70596904,-0.07284742,0.052349553,0.06634591,0.015940813,0.071290724,-0.06464203,0.033251897,-0.19033939,-0.31070003,-0.5307654,-0.058940392,-0.21325253,0.074699774,0.04380778,-0.0039947755,0.00979189,0.005996378,-0.0065648467,0.0020347023,-0.0014465753,-0.0018798249,-0.03059224,0.00024036439,0.020419866,0.0042956015,0.0016670232,-0.013711238,0.00958731,-0.0021801842,0.005466531,0.006701322,-0.0112323165,-0.01181238,-0.008503102,-0.0077864653,0.0056644212,-0.0032032249,-0.0058635185,0.007703215,-0.022230012,0.02844095,0.012078157,0.0022485764,0.014038918,-0.020195022,-0.038685605,-0.004342312,0.032942217,0.022006836
dostignuti,-0.7064236,-0.073186755,0.050802182,0.0651636,0.02464244,0.06426739,-0.06912258,0.03362359,-0.18863168,-0.30418676,-0.5407605,-0.05665301,-0.20992595,0.07384389,0.043525558,-0.002962563,0.010120909,0.006219721,-0.033522498,-0.00034590738,-0.0015937663,-0.0005723889,-0.019830674,-0.00016435057,0.014945655,0.004428944,0.0019405297,-0.0044293776,0.0066765132,-0.0055283713,0.0077405595,0.006020314,-0.009905244,-0.010628923,-0.007043688,-0.0031598143,0.0037817706,-0.0027226063,-0.007122145,0.0051087355,-0.015138202,0.00030672632,0.007391166,0.0040654023,0.0069030304,-0.00698797,-0.0020054176,-0.006412951,-0.006368617,0.0041799764
dostizati,-0.6900047,-0.07152137,0.05021129,0.06485683,0.015124145,0.06540928,-0.0690663,0.033665653,-0.19201224,-0.29005042,-0.52699983,-0.055724304,-0.2061212,0.07269711,0.04274149,-0.0029593026,0.00980953,0.0057867747,-0.032163978,-0.00015756564,-0.0017002806,-0.0007461202,-0.017197063,-0.00022552231,0.012463683,0.0043896646,0.002341686,-0.0023803925,0.0025799111,-0.006147352,0.007963168,0.005246724,-0.010250905,-0.015315032,-0.006289281,-0.0033073504,-0.0074218623,-8.6139626e-05,-0.0072378917,0.003034504,-0.01687685,-0.0038534265,0.021263484,0.003532936,0.004820747,-0.007875414,-0.047405735,-0.085597806,0.03358965,-0.19067807
dostići,-0.7068623,-0.07325174,0.05124885,0.06617363,0.015457113,0.06675569,-0.070492886,0.034367505,-0.1961673,-0.29699418,-0.5400314,-0.05717776,-0.2116912,0.07487858,0.04417243,-0.003036994,0.0101447115,0.006008937,-0.034735262,-0.00033265474,-0.0016229742,-0.00064916053,-0.020819923,-0.00021913314,0.015602817,0.004401848,0.0021067082,-0.004930229,0.008062606,-0.0058959764,0.008319039,0.006000234,-0.009532281,-0.011993119,-0.007335624,-0.002808312,0.004851175,-0.0012743387,-0.0067598936,0.0034083745,-0.016294422,-6.781289e-05,0.007404588,0.0015105512,0.0063641137,-0.0073022638,-0.0037593888,-0.003899024,-0.0065055415,0.0035130503
dosuditi,-0.7074143,-0.07334164,0.05369182,0.062190585,0.0153177045,0.0675603,-0.07464762,0.028044464,-0.18809807,-0.3097449,-0.5321348,-0.055154596,-0.21529156,0.07607264,0.045053776,-0.0025459325,0.010658421,0.0066006454,-0.036346395,-0.0007085284,-0.0014326113,-0.0011979955,-0.022353169,-0.000144288,0.016777705,0.004487743,0.0021252038,-0.008337354,0.009351331,-0.003429067,0.008138335,0.00614216,-0.012192705,-0.011997722,-0.008611639,-0.008482528,0.005081399,0.0023343181,-0.0068912045,0.005430227,-0.020127965,0.0023100227,0.015487454,-5.601222e-05,0.014951816,-0.0057449946,-0.013606153,-0.011489925,-0.014573316,0.0052428404
dotaknuti,-0.70639837,-0.073184945,0.050636318,0.064497605,0.020973278,0.07307293,-0.06501695,0.03316027,-0.1880035,-0.30392691,-0.5406985,-0.05673268,-0.21007362,0.073895,0.043616094,-0.0029236036,0.009893711,0.006141652,-0.033682562,-0.0003784879,-0.0015583955,-0.00058648165,-0.019933116,-0.0001523811,0.0149403615,0.004419245,0.0019414405,-0.004553821,0.007065174,-0.0055321506,0.0077159195,0.0060014613,-0.009972564,-0.010784695,-0.007012554,-0.0032469244,0.0033213864,-0.0026469666,-0.0067562265,0.004037885,-0.016034737,0.000230056,0.008342439,0.0036163446,0.0067912047,-0.0091006085,-0.0029599767,-0.005146117,-0.005420149,0.004423991
doterati,-0.7033988,-0.072930545,0.051816605,0.0673796,0.016159099,0.07228695,-0.068590894,0.026819328,-0.1833447,-0.30076483,-0.537385,-0.056332503,-0.20966333,0.07385074,0.043634478,-0.0028586073,0.009807617,0.006089306,-0.032621987,-0.0003004491,-0.0015527379,-0.00021800457,-0.016530678,-0.00022092633,0.010610422,0.0048215124,0.002693572,0.012261335,-0.07692583,-0.01888863,0.009499052,0.008302126,-0.0055931266,-0.004337001,-0.0099062165,-0.0029077744,0.013789943,-0.0045764023,-0.010161497,0.004597702,-0.0042434717,0.009668852,0.06979822,0.0029645714,0.011565113,-0.0094022015,-0.004142869,-0.0028872762,-0.009621618,0.019890146
doticati,-0.67842835,-0.07001959,0.05221936,0.061250143,0.018834978,0.059762917,-0.06672204,0.032893937,-0.19040197,-0.2909456,-0.5092536,-0.053033747,-0.20583753,0.06691963,0.046620086,-0.0020361703,0.010963458,0.006434601,-0.037510894,-0.00012701475,-0.0020432135,2.4932739e-05,-0.023675712,0.001479717,0.018242346,0.0046606194,-0.000595614,-0.009560545,0.011942649,-0.0036551233,0.0075577972,0.014636375,-0.011700853,-0.016981041,-0.008184574,-0.00884433,0.006823119,0.0076239537,-0.004621874,0.00812837,-0.034968074,0.0011790681,0.034131385,-0.015134601,0.048743345,0.05003437,-0.12022669,-0.053355794,0.061887506,0.23326784
dotrajati,-0.70642364,-0.07318676,0.050802186,0.0651636,0.024642441,0.0642674,-0.06912259,0.03362359,-0.1886317,-0.3041868,-0.5407605,-0.056653015,-0.20992596,0.07384389,0.043525558,-0.0029625632,0.01012091,0.0062197214,-0.033522498,-0.00034590744,-0.0015937665,-0.0005723889,-0.019830676,-0.00016435058,0.014945656,0.0044289446,0.0019405298,-0.0044293776,0.0066765137,-0.005528372,0.00774056,0.0060203145,-0.009905244,-0.010628924,-0.007043689,-0.0031598143,0.0037817706,-0.0027226065,-0.0071221455,0.0051087355,-0.015138201,0.00030672638,0.0073911655,0.0040654023,0.00690303,-0.006987969,-0.0020054176,-0.006412951,-0.0063686175,0.0041799764
dotrčati,-0.70728856,-0.07331063,0.052927505,0.06013476,0.020586774,0.07043544,-0.07605146,0.02872986,-0.19354823,-0.2958636,-0.53985506,-0.05719004,-0.21247879,0.075354315,0.044553746,-0.003115364,0.010191598,0.006047121,-0.03533093,-0.0005493814,-0.0016447414,-0.0007358912,-0.021705119,-0.00049949804,0.016375626,0.004395581,0.0024713026,-0.0056916787,0.008835404,-0.004613395,0.009162472,0.005676602,-0.010604758,-0.012518903,-0.0076533444,-0.004099284,0.0044437367,-0.00040126333,-0.0070005124,-0.00048480715,-0.01743259,-0.0014244149,0.009481533,-0.00060448726,0.0076611764,-0.006200841,-0.0044853888,-0.004934299,-0.0076120035,0.0034097203
dotući,-0.7064232,-0.073188215,0.050875355,0.06558212,0.01526739,0.065894775,-0.06937754,0.03369723,-0.18876351,-0.304212,-0.54077524,-0.056639858,-0.20989121,0.07381606,0.043521333,-0.0028929866,0.009947638,0.006106997,-0.033558745,-0.00040204363,-0.0015461426,-0.00058080384,-0.01977106,-0.00015624243,0.014655081,0.004375774,0.001979691,-0.004546588,0.0069959187,-0.005653497,0.007624213,0.0060635055,-0.009935809,-0.010725303,-0.007174661,-0.0031406912,0.004175487,-0.0027195623,-0.007070345,0.0050255987,-0.015295049,0.0013883344,0.007026342,0.0036971103,0.0067820386,-0.007842745,-0.0030696418,-0.0052553094,-0.0065737884,0.003998512
dovesti,-0.5850553,-0.0600249,0.046177223,0.05464346,0.017173382,0.05696696,-0.05562208,0.024786687,-0.1618171,-0.24606365,-0.44616595,-0.04536503,-0.15977563,0.057654783,0.027181799,-0.00090936193,0.009168747,0.006072336,-0.0351486,0.0021090899,-0.011789763,-0.014045394,-0.011825804,-0.0021722564,-0.022495216,-0.057640154,-0.0129791545,-0.051537238,0.04306721,-0.10170453,-0.066234134,-0.030679645,-0.1234175,0.5032763,0.16616993,0.02641449,-0.024993034,-0.018755686,-0.0012732168,0.005834119,0.0038117862,0.009290278,-0.0018298127,0.0009778085,0.0034978138,-0.009170938,0.006237557,-0.011185275,0.0077331117,0.0025843086
doviknuti,-0.7054336,-0.07313762,0.051321983,0.06553243,0.021397779,0.07457938,-0.06645615,0.03402886,-0.19627583,-0.2965788,-0.5386064,-0.05702803,-0.21003431,0.073754594,0.043063115,-0.0031867682,0.0100849345,0.0059697,-0.027760822,0.00045792898,-0.0017227359,0.0005454781,0.0018464779,0.0009833445,-0.053461373,0.0012429655,0.0031451834,-0.008303445,0.020862319,-0.0028325357,0.0106792925,0.004985152,-0.020875521,-0.026756957,-0.016299998,-0.0024021617,0.018864855,0.0060481103,-0.0066251443,0.002154749,-0.01935928,-0.0013309604,0.0061126775,-0.00042628043,0.008706376,-0.0118544735,0.002791498,0.005159619,-0.008916284,0.013985302
dovoditi,-0.5835646,-0.060551174,0.04101903,0.050072435,0.017611373,0.06260634,-0.058765404,0.02305259,-0.16053604,-0.24531668,-0.4450298,-0.04643778,-0.16148546,0.056583043,0.04474502,-0.0025737702,0.008552223,0.005098435,-0.034633547,-0.0010789718,-0.0005637025,0.00030411905,-0.023478042,-0.000430348,0.018465962,0.004562845,0.0024010015,-0.013688067,0.013385365,-0.004471586,0.013867627,0.006949889,-0.015707012,-0.025113137,-0.015859615,-0.020584296,-0.0003014606,0.01725733,0.16956098,0.36536032,0.39100838,0.030822821,-0.06513033,0.009384661,0.0067186505,-0.017322611,0.016486855,-0.00899207,0.010762943,0.0040450552
dovoziti,-0.70729977,-0.073315136,0.053325947,0.061646424,0.0151327625,0.06650889,-0.07177287,0.040457964,-0.18397993,-0.30245328,-0.54052204,-0.056885377,-0.21127242,0.07460442,0.044150658,-0.0030051249,0.009889943,0.0062388536,-0.03488487,-0.00059840153,-0.0016151686,-0.0007172011,-0.021163324,-0.00040174235,0.01568722,0.004473119,0.0022861734,-0.0061029047,0.0071623255,-0.005109511,0.008275014,0.005810512,-0.0118544195,-0.011236088,-0.008097107,-0.005378679,0.0039264807,-0.0004901957,-0.00640343,0.006060507,-0.017509183,-0.0009819566,0.007650439,0.0046108896,0.0054208916,-0.007354897,-0.007631862,-0.0033374573,-0.008867088,0.003714506
dovršiti,-0.7070092,-0.07332584,0.047748767,0.066202395,0.025729826,0.07031638,-0.066487364,0.039896958,-0.18331659,-0.3026469,-0.5400132,-0.056689505,-0.20731413,0.060639028,0.05043447,-0.0031575009,0.010163212,0.006443426,-0.03828637,-0.00082631834,-0.0007679505,0.000447741,-0.02426082,-4.732508e-05,0.01846097,0.0048425025,0.001943147,-0.009969219,0.0104736835,-0.0070112995,0.011141276,0.0075452677,-0.01375881,-0.014177911,-0.010375041,-0.007904073,0.0016049377,0.0025486199,-0.005190189,0.009990946,-0.035430938,-0.0089686755,0.026762247,0.009981093,0.007790569,0.006625948,-0.021720186,-0.0070889243,-0.02667338,0.006909679
dovući,-0.58501095,-0.06075243,0.042598035,0.053831015,0.017145159,0.057438895,-0.058446076,0.027906053,-0.14864679,-0.24994393,-0.44595805,-0.046060678,-0.16182612,0.06592417,0.02354067,-0.0029911564,0.008328555,0.005412454,-0.033700928,-0.00085078203,-0.001372819,-0.00048962404,-0.0115797045,-0.0007879426,-0.027317554,-0.06618385,0.0033750404,-0.062459882,0.04275838,0.021889655,0.056114048,0.07859073,0.54002446,0.09307256,0.038059324,0.024273988,-0.01147537,-0.013915453,-0.0028091168,0.002065412,-0.00038505782,0.0057479846,0.0011063209,-0.00085973577,0.0046152635,-0.007155147,0.0060504945,-0.0070607965,0.0017525139,0.0010246366
doznati,-0.7064518,-0.07282055,0.05062426,0.06445474,0.02164934,0.06832895,-0.07125931,0.03461897,-0.19673614,-0.29740816,-0.5400816,-0.05653545,-0.21138667,0.07464383,0.043955136,-0.0011883938,0.0048132725,0.0027800654,-0.03445261,-0.0020242615,2.9847293e-05,-0.0013720789,-0.020704322,-0.00032507326,0.015123961,0.0041982234,-0.0010389489,-0.0063948687,0.008700683,-0.017329078,-0.0008271198,0.0010399048,-0.006437123,-0.014840821,-0.009538943,-0.0018332581,0.004614263,-0.00084780954,-0.006517365,0.0028115585,-0.015427577,-0.001989355,0.0072544552,0.0016409423,0.006237664,-0.0077611464,-0.000982034,-0.0035133988,-0.009860796,0.0026834202
dozvati,-0.70696294,-0.07327805,0.051158216,0.06517313,0.021074131,0.07165533,-0.07697109,0.029109733,-0.19486164,-0.29674035,-0.5398753,-0.056995813,-0.21117242,0.07418046,0.04355957,-0.0030128905,0.009365752,0.0053833416,-0.006942192,0.0021351255,-0.002081284,-0.001307814,-0.029473377,-0.00025389306,0.019675823,0.0039649657,0.0019860202,-0.010259811,0.009057894,-0.0034110916,0.0073759174,0.0052888747,-0.009798352,-0.011375461,-0.0075689238,-0.002964149,0.005068766,-0.0018638548,-0.007404672,0.0005253918,-0.016424429,0.0010261331,0.00763087,-0.0022334943,0.006647754,-0.013446535,-0.010997847,-0.00088725943,-0.0070758974,0.006062941
dočekati,-0.7061624,-0.07315835,0.05032463,0.06379435,0.020447705,0.06889066,-0.070863955,0.03424501,-0.19040751,-0.30529773,-0.5408416,-0.056484416,-0.20854542,0.07261751,0.04251506,-0.0029147908,0.009211337,0.0055178744,-0.007148839,0.0019492953,-0.0019714772,-0.0011292055,-0.02666745,-0.00013462649,0.017518505,0.003917903,0.0016936183,-0.0076885475,0.007069474,-0.003956956,0.006271128,0.0052236468,-0.009159541,-0.009494056,-0.0070006284,-0.0021771218,0.004303135,-0.004214766,-0.0069367187,0.003970355,-0.014254615,0.0018758738,0.0057094907,0.0027133448,0.0063099847,-0.0123700285,-0.006447846,-0.002269061,-0.0061330865,0.0049566096
doživeti,-0.5973262,-0.061964717,0.040752135,0.057246417,0.016875621,0.053751316,-0.06223961,0.02328756,-0.15829039,-0.26138324,-0.44864804,-0.04644168,-0.1817274,0.06413982,0.037874084,-0.0021235177,0.009186212,0.0056082592,-0.02937834,-0.00022345864,-0.0012055319,-0.00084496045,-0.016010983,0.00019786705,0.010943163,0.0037962866,0.0015522774,0.033018097,0.006528601,0.00029509954,-0.0066940673,-0.00879231,-0.007522535,-0.03105271,0.034362078,-0.008702905,-0.20477308,-0.0036807633,-0.0069493325,0.012242228,-0.0295255,0.007772459,0.00019861302,-0.01610808,0.06336014,0.023819674,0.0868057,0.45467457,0.10499144,-0.115437776
doživiti,-0.70597565,-0.07312131,0.050094847,0.06347296,0.020341761,0.0685209,-0.070498325,0.03406776,-0.18967557,-0.30472654,-0.54081684,-0.056616705,-0.20944512,0.07351483,0.043292858,-0.002918859,0.009939564,0.006098295,-0.032976847,-0.0003459522,-0.0015522175,-0.0005490765,-0.019321727,-0.0001413206,0.014339372,0.0042622457,0.0018715624,-0.0038081321,0.0067110285,-0.005593285,0.0073918537,0.0058957986,-0.009364427,-0.010064491,-0.0066095474,-0.0024753886,0.0037275974,-0.0034344902,-0.006742658,0.0039885906,-0.01459962,0.00094766635,0.0067251166,0.0036793982,0.0066137156,-0.008070633,-0.0016228936,-0.0053315787,-0.0058965776,0.003926629
doživjeti,-0.7064232,-0.073188215,0.050875355,0.06558212,0.01526739,0.065894775,-0.06937754,0.03369723,-0.18876351,-0.304212,-0.54077524,-0.056639858,-0.20989121,0.07381606,0.043521333,-0.0028929866,0.009947638,0.006106997,-0.033558745,-0.00040204363,-0.0015461426,-0.00058080384,-0.01977106,-0.00015624243,0.014655081,0.004375774,0.001979691,-0.004546588,0.0069959187,-0.005653497,0.007624213,0.0060635055,-0.009935809,-0.010725303,-0.007174661,-0.0031406912,0.004175487,-0.0027195623,-0.007070345,0.0050255987,-0.015295049,0.0013883344,0.007026342,0.0036971103,0.0067820386,-0.007842745,-0.0030696418,-0.0052553094,-0.0065737884,0.003998512
dragati,-0.081565015,0.78592056,-0.0030769303,-0.00039999792,-0.0014413807,-0.0005059679,0.0019894459,0.000461527,0.0036427067,0.0077811265,-0.009905443,0.043580096,1.5442727e-06,0.0006753332,-0.0045135,0.09933596,0.03039719,-0.005240015,-0.009331155,0.10198515,-0.10805181,0.0795081,-0.003732285,0.54435635,0.013945663,-0.013606228,0.17184193,-0.0059983293,0.00020666781,-0.012970434,0.028161168,-0.07846596,0.007291258,0.00044136881,0.0053128754,-0.0002578739,0.0044824886,0.0037241816,-6.7740206e-05,0.00037545082,0.0009503568,-0.011685928,0.0009374446,-0.0019846347,-0.00068733265,-0.0023927344,0.0049656266,0.0046731634,-0.022745175,-0.005891896
dražiti,-0.0770877,0.7429887,-0.0028397436,-0.00067248195,-0.0014201753,-0.0005431383,0.0019739715,0.00043884508,0.0036200855,0.007727784,-0.009839045,0.043420557,-1.4517468e-05,0.0006783296,-0.0045384676,0.1003332,0.03164297,-0.005182013,-0.009820961,0.10771575,-0.1132711,0.08396818,-0.003973688,0.5898936,0.01529058,-0.015020648,0.19318037,-0.006825059,0.00021970824,-0.014575367,0.03313564,-0.092391334,0.008558771,0.00074692006,0.0061528296,-0.0003373548,0.005481936,0.0049122428,-7.305888e-05,0.00045213453,0.0012088735,-0.015538516,0.0012710501,-0.0027592278,-0.0008939748,-0.0032262702,0.006777743,0.006521281,-0.03185985,-0.008050167
dremati,-0.0836907,0.8038419,-0.0035471388,0.005201578,-0.0017477163,-0.0004691031,-0.0028806527,-0.0052379454,0.0019988387,-0.039875172,0.071091525,-0.55489194,0.028627027,0.0060461317,-0.00019189953,-0.16776788,0.00075161265,0.005959758,0.0033326617,-0.01419808,0.035171073,-0.012057222,0.001020063,-0.009489128,0.002828567,-0.0038013286,0.029823696,-0.0007165166,0.0009648532,-0.0053715683,0.0013813314,-0.017567903,0.0022458623,0.0009605274,-0.0011585172,-0.0016665859,0.0005714231,0.0033541345,-4.4350243e-05,1.866713e-05,0.0003823009,-0.0061241714,-0.00050473947,-0.00081592286,-0.0006068001,-0.001039521,0.0028051836,0.002085294,-0.011881744,-0.0031789823
drhtati,-0.09966141,0.9585594,-0.0043762773,0.0038202868,-0.0016306177,-0.00026069122,-0.00041820254,-0.0022353502,0.0028011564,-0.015602271,0.02983482,-0.25063825,0.014127239,0.0033179368,-0.0021537174,-0.03929386,0.009723757,0.0034812742,1.8102075e-05,0.010723786,-0.0085495245,0.012536125,-8.478323e-05,0.016170088,0.0010157618,-0.0008743083,-0.018734537,0.0013662332,0.0003416965,0.00084644614,-0.012390426,0.034065757,-0.0030497387,-0.0021512785,0.0016482021,-0.0006064286,-0.0027143164,-0.003814056,-5.9828468e-05,-0.00024779275,-0.0008938486,0.016298069,-0.0020939503,0.004166114,0.0007605844,0.004189853,-0.00877797,-0.010252239,0.0493636,0.011076776
drmati,-0.10067244,0.97012234,-0.0046378477,0.0022405365,-0.0013768533,-5.2066174e-05,0.0017726807,0.00059029576,0.0032856797,0.0070275622,-0.008822573,0.036457412,0.0003188196,0.00073709694,-0.0038105214,0.0782514,0.01887739,0.004856734,-0.0026726744,0.03188975,-0.048666064,0.038125053,-0.0011367736,0.038730264,-0.0005587491,0.0017918549,-0.06538173,0.0035526308,-0.00038381264,0.00791829,-0.025410669,0.08901387,-0.008982399,-0.006312618,0.0086003505,0.00019580738,-0.0057240496,-0.011487363,-0.00011196693,-0.0005533238,-0.0023101545,0.042863946,-0.0043031313,0.010650375,0.0024031764,0.010946188,-0.023426281,-0.026628291,0.12976947,0.029702457
družiti,-0.080537885,0.7844889,-0.005610252,0.004033206,-0.0019654473,0.0010157635,0.002298974,0.0021572409,0.0037539506,0.014837076,-0.030728472,0.30130148,-0.017054759,0.01228315,0.018624593,-0.5279926,-0.012876092,-0.0634788,0.00044883025,-0.009982487,-3.2272314e-05,-0.022749435,0.0010870947,-0.0020841963,0.0007234471,4.654385e-05,0.036088914,0.0012128084,-0.0011094024,0.009306172,0.012682149,-0.0061598183,-0.001646873,0.0013254439,0.009029001,0.00027436463,0.0021712005,-0.0007779344,-3.0140232e-05,-0.00020100122,0.00014279535,-3.4639128e-05,-0.00015675277,-0.00017987471,-9.822652e-05,-0.00015573809,0.0001458355,0.00039367203,-0.0011579219,-9.9956866e-05
držati,-0.10064876,0.97030395,-0.005374945,0.0026002761,-0.0016179925,9.7614204e-05,0.0018408704,0.00089087576,0.0024412565,0.008937625,-0.011131901,0.057612617,-0.001334827,0.0018446678,-0.0042086835,0.09716422,0.003665889,0.10513517,0.0041207327,-0.016432839,-0.07647562,0.09635949,-0.002011527,-0.0218042,0.0004613728,0.0008597947,-0.05531031,0.002115689,-0.0025467542,0.020309009,0.031000696,-0.0059517054,-0.0030743503,0.0021460715,0.0063595264,-0.0035947796,-0.0018977657,-0.0048878235,-2.9405435e-05,-0.00044560412,-0.0009431029,0.017386919,-0.0013183461,0.004397427,0.0008099048,0.004449566,-0.0114928875,-0.013727014,0.055789445,0.005000948
dubiti,-0.09120509,0.88551944,-0.005545769,0.0038203425,-0.0017925438,0.0016490755,0.002684562,0.0033943816,0.006481225,0.015125095,-0.02515432,0.19788527,-0.008886573,0.007504207,0.004952399,-0.16962247,0.2595321,-0.1996812,0.018543268,-0.15020205,0.06363597,-0.022166824,0.0011225216,-0.026785905,0.000527369,-0.00069160416,0.049253218,-0.0005099481,-0.00044984694,0.0021284942,0.011698066,-0.018778235,0.0005548016,0.00045507518,0.008550638,0.00044424518,0.0029021848,0.00044440353,-1.9673455e-05,-5.0385723e-05,0.00045201328,-0.0030883828,0.0001494564,-0.00073045917,-9.106412e-05,-0.0007307676,0.001656444,0.0015786781,-0.0075348723,-0.001780563
duvati,-0.09250558,0.891022,-0.004421352,0.0026220828,-0.0013341226,0.00039915365,0.0014233538,0.0009608901,0.0018171279,0.00399698,-0.0060315253,0.048999283,-0.0024324514,0.002188738,-0.0042698905,0.09805167,0.009702532,0.010459428,-0.006836734,0.07981651,-0.23741034,0.30037418,-0.0064057587,-0.15825744,0.0038629645,-0.0014738896,0.06708505,-0.0029623075,0.003313906,-0.007291187,0.013315169,-0.0465163,0.0049660946,0.0042744265,-0.010816645,0.00020904352,-0.00069302967,-0.0009676272,-0.000103849285,-0.0003495991,7.820828e-05,-0.0007975476,-0.0007293301,5.3740834e-05,-0.00030461745,0.0001105576,0.000870073,0.00035098905,-0.000822318,-9.033622e-06
dužiti,-0.08900292,0.8573148,-0.0044504562,0.0030224465,-0.0013507289,0.00072710426,0.0012446296,0.001158177,0.001482335,0.004955982,-0.009172804,0.05467376,0.0023732681,-0.011056493,-0.00026513325,0.13267735,0.021309726,0.02991958,-0.014623082,0.119349875,-0.40439236,-0.052578494,0.011216894,-0.19201577,0.0043046256,0.00085237494,0.114206806,-0.0006233841,0.00023472992,0.00015357143,0.016657641,-0.03221481,0.0042633894,-0.013640751,0.020259071,0.0006595767,0.008707647,0.0051692957,-0.0002793413,0.00018116263,0.0018132476,-0.017409854,-0.00038430272,-0.0029617792,-0.0011888875,-0.0037731912,0.010461024,0.00865658,-0.038521532,-0.005285089
formirati,0.0,0.0,0.0,0.0,0.0,0.0,0.0,0.0,0.0,0.0,0.0,0.0,0.0,0.0,0.0,0.0,0.0,0.0,0.0,0.0,0.0,0.0,0.0,0.0,0.0,0.0,0.0,0.0,0.0,0.0,0.0,0.0,0.0,0.0,0.0,0.0,0.0,0.0,0.0,0.0,0.0,0.0,0.0,0.0,0.0,0.0,0.0,0.0,0.0,0.0
gaditi,-0.08771753,0.842653,-0.003732359,0.004990599,-0.0017392819,-0.0004349366,-0.0024524827,-0.004728009,0.0021546988,-0.03573501,0.064062476,-0.503173,0.02616839,0.0055766227,-0.00053347676,-0.14574316,0.002075235,0.0049314396,0.002711695,-0.00972869,0.027735366,-0.008379671,0.000837245,-0.0049672783,0.0024997948,-0.003291641,0.02177992,-0.00039657432,0.0008810131,-0.004503661,-0.0009789437,-0.009679842,0.001482803,0.0006150566,-0.0013602825,-0.0014538035,-2.3486204e-05,0.0022376042,-4.1398765e-05,-2.0745176e-05,0.00018763344,-0.0029476157,-0.00068429747,-0.0001860409,-0.00041517967,-0.0003710504,0.0012744013,0.0005649043,-0.0041940245,-0.0013730767
ganjati,-0.0639697,0.6219719,-0.003796766,0.002792195,-0.0011254386,0.0023470828,0.0024794117,0.0045169746,0.008298947,0.013097069,-0.016279817,0.07562166,-0.0002793311,0.0022795363,-0.008395876,0.18642567,0.55208534,-0.3480985,0.03956138,-0.31572735,0.14904837,-0.031323995,0.0015184272,-0.06731178,0.0005934009,-0.00209786,0.08477432,-0.0033135118,0.00021469755,-0.006829794,0.019364491,-0.056076538,0.004957306,0.00044618035,0.009924538,0.00048641945,0.0059239143,0.0046683094,-5.3297567e-06,0.0002452619,0.0014122361,-0.016125135,0.0013361602,-0.00343268,-0.00056996447,-0.0035198657,0.008105968,0.007890122,-0.03933515,-0.009319831
gasiti,-0.079036415,0.7703036,-0.0055985837,0.0040627886,-0.001971112,0.0010440518,0.0023004038,0.002193869,0.003746502,0.014997985,-0.031244416,0.30797273,-0.017507989,0.012589216,0.019231804,-0.54434496,-0.013668268,-0.06501193,0.00056653505,-0.01128995,0.0013601877,-0.024211083,0.0011464262,-0.0033295157,0.0007671212,-5.5014693e-06,0.038826235,0.0011651219,-0.0011432808,0.009454791,0.013774176,-0.008370748,-0.0015150696,0.001447362,0.0093978215,0.0002653848,0.0024126293,-0.0005422341,-3.0595216e-05,-0.00019479613,0.00019870038,-0.0008801192,-8.609858e-05,-0.00036595913,-0.00014430175,-0.00034636498,0.0005616193,0.0008378096,-0.0033327807,-0.0005924035
gasti,-0.0789739,0.76971257,-0.0055980375,0.004063953,-0.0019713207,0.0010451998,0.0023004345,0.0021953455,0.0037461508,0.015004405,-0.031265207,0.3082427,-0.017526375,0.012601624,0.019256493,-0.5450095,-0.013700625,-0.06507407,0.0005713618,-0.011343504,0.0014173702,-0.024270821,0.0011488491,-0.0033806483,0.0007689062,-7.640787e-06,0.03893827,0.0011631441,-0.001144659,0.009460776,0.013818921,-0.008461623,-0.0015096235,0.0014523613,0.009412877,0.00026501116,0.0024225393,-0.00053251575,-3.0613515e-05,-0.0001945375,0.00020100185,-0.0009149645,-8.318423e-05,-0.0003736299,-0.00014620027,-0.00035422374,0.00057876436,0.00085612194,-0.003422469,-0.00061271543
gaziti,-0.09924233,0.9491637,-0.0037324694,0.0041396995,0.0003488165,-0.0012906882,7.996912e-05,-0.00085507694,-0.00095312326,-0.0123452535,0.017728055,-0.15242818,0.004904192,0.0028010271,-0.0020189562,0.05174574,-0.20003365,-0.12672241,-0.005785344,-0.058839444,0.047892857,-0.012336825,-0.0055967867,-0.004441385,-0.0028706198,-0.0019412461,0.022683855,0.0010524571,-0.0002531028,0.002981249,0.004153327,0.0005825438,-0.0009563234,0.0003470528,0.0052767154,0.00026769147,0.0011080567,0.003449911,6.5261636e-05,-0.0001795615,-0.00017053317,0.004149616,-0.0009432087,0.00080951035,6.2036794e-05,0.0009688979,-0.00083480444,-0.000537081,0.010046952,0.0027608804
gađati,-0.093391135,0.90270185,-0.0056528533,0.0018062401,-0.0017330245,0.00010391257,0.0020779285,0.0011771299,0.0012508538,0.016370814,-0.016970636,0.08767474,-0.0020725457,0.002767952,-0.004971484,0.123028964,0.012210161,0.22599916,0.0038855025,0.050350633,0.14654304,-0.0067042313,-0.00012166092,-0.012065822,0.00014875959,0.00039018,-0.014945085,0.035414506,-0.0011821135,0.09352176,-0.029629558,0.09618814,-0.011740601,0.08883701,-0.2084283,0.0061992165,-0.053015582,0.00789164,-0.00043451603,0.00132653,0.00023249883,-0.021831783,0.0023340348,-0.0030647528,-0.0011075513,-0.004316399,0.007850718,0.00758907,-0.045444187,-0.008300276
ginuti,-0.06985291,0.68305343,-0.008038614,0.0034780533,-0.0021263603,0.0008215765,0.0024458314,0.0022308144,0.00092975306,0.024185263,-0.032493904,0.26059127,-0.013379761,0.011390608,0.007981426,-0.22236165,-0.046550833,0.4937623,0.04538718,-0.3433837,0.13661344,-0.035986856,0.0027690076,-0.027660487,0.0009762788,-0.001987443,0.123198666,-0.00196854,-0.0020045545,0.007946767,0.036678158,-0.052258532,0.0002890828,-0.0013588431,0.03425729,0.00019019359,0.010655407,0.0018628918,-6.968299e-05,-1.35117425e-05,0.0013264971,-0.012990168,0.0010868561,-0.0032027913,-0.00076065084,-0.0031897181,0.0070776716,0.00796346,-0.037661348,-0.0089557385
glasati,-0.08374267,0.8072156,-0.0041634506,0.0026658971,-0.0012790546,0.0005498634,0.0012577383,0.001063737,0.0012742592,0.002855977,-0.004892225,0.051815152,-0.003287949,0.0027225218,-0.004437625,0.10460696,0.008117605,0.015707055,-0.0079962835,0.095467925,-0.30277276,0.3933969,-0.008267998,-0.22518367,0.0054450943,-0.0025535556,0.108865276,-0.0048897294,0.0044687707,-0.011151017,0.025790293,-0.084772065,0.008658682,0.0067042476,-0.013668111,0.00010404645,0.0009224136,0.0014148284,-0.00013775566,-0.00035018192,0.0006511377,-0.009994345,-0.00020893867,-0.0018216677,-0.0008728027,-0.0017983532,0.005521504,0.0050172945,-0.023577627,-0.005144658
glasiti,-0.09624966,0.9291524,-0.0041511627,0.0005004938,-0.0017202909,-0.000409198,0.0023828868,0.0006950672,0.0044169747,0.010433973,-0.0139946,0.06702205,-0.00040605856,0.0009445499,-0.0052089533,0.119518615,0.04039106,0.035010274,-0.019062566,0.2691877,0.13042644,0.0027238026,5.7817793e-05,0.09004091,0.0029413903,-0.003177747,0.059588294,0.00096106454,-0.0011189164,0.007919114,0.010955621,-0.0020520901,-0.001730662,0.0030846808,-0.0022075174,0.00012228398,-0.0032880027,-0.003500573,-3.5378573e-05,-0.00021392116,-0.0008663267,0.015408857,-0.0006225011,0.004117806,0.0007130762,0.0038385673,-0.012173574,-0.015190285,0.054755695,-0.0005788558
glaviti,-0.07660054,0.73552704,-0.0032232674,0.0054749744,-0.0017426598,-0.00051725534,-0.0035154205,-0.0059752096,0.0017357408,-0.045892194,0.08127324,-0.6294812,0.032149814,0.0067128823,0.00034208936,-0.20028713,-0.001322462,0.007500717,0.0042669503,-0.021030352,0.04642743,-0.017688205,0.001295416,-0.016484676,0.0033135344,-0.0045603216,0.042164437,-0.0012148465,0.001086284,-0.0066838004,0.0051083444,-0.02988381,0.0034316117,0.0014993114,-0.0008224738,-0.0019857427,0.0015153005,0.005099292,-4.852283e-05,8.174889e-05,0.0006902242,-0.011157881,-0.00020911076,-0.0018232374,-0.000908501,-0.0021065152,0.005244107,0.004518684,-0.024171706,-0.006062581
gledati,-0.10289091,0.99047047,-0.0048295907,0.0025826422,-0.0012900309,-4.7824502e-05,0.0016491675,0.0007132122,0.0026416434,0.0053472477,-0.007264487,0.033785433,-0.00015098213,0.00078800233,-0.0018173427,0.04695181,-0.0033287704,0.0011162328,-0.0024183728,0.019729018,-0.047724683,0.013140622,-7.529922e-05,0.012779081,0.00067641353,-0.00037347383,0.01687668,0.0012535682,-0.00047590362,0.0041580233,-0.0038653924,0.026310816,-0.0032935168,-0.004890782,0.013808872,0.000645373,0.0011914278,-0.0010133926,-7.739367e-05,-9.058611e-05,-0.00017192714,0.0071029635,-0.0010156832,0.0019610578,0.00030021035,0.0018109824,-0.003782536,-0.0051476806,0.02315167,0.0034685053
goditi,-0.0988745,0.95456517,-0.004518145,0.0010834072,-0.0018720557,-7.807756e-05,0.002439848,0.0010950913,0.0042188866,0.011378094,-0.018168071,0.13034692,-0.0050185467,0.003911497,0.0020514438,-0.07486178,0.020847805,0.00028493966,-0.010279641,0.14677781,0.07027057,0.006541428,-0.00020996103,-0.0047151204,-0.00096623943,0.001977085,-0.019593481,0.004059293,-0.0031564909,0.014974776,-0.023428472,0.12653938,-0.01681598,-0.027042044,0.09845694,0.0027542438,0.016658554,0.0070793573,-0.00031845507,0.00073632185,0.001863007,-0.014120064,-8.5698e-05,-0.0008059862,-0.0005566141,-0.0015865318,0.0069849915,0.001814652,-0.016335402,-0.004864673
golicati,-0.08278204,0.79508543,-0.0035054903,0.0052428227,-0.0017483286,-0.00047603413,-0.0029695437,-0.0053425995,0.0019644047,-0.04072692,0.07253542,-0.56549495,0.029129593,0.00614172,-0.00011919154,-0.17233239,0.00046953783,0.006174357,0.0034624995,-0.015139542,0.036730345,-0.012832547,0.0010583119,-0.010447131,0.002896703,-0.0039074225,0.031521425,-0.0007845323,0.0009820916,-0.0055535496,0.0018863555,-0.01924683,0.002407919,0.0010340271,-0.0011142294,-0.0017110517,0.0006990247,0.0035919552,-4.495105e-05,2.7156555e-05,0.00042400116,-0.0068052323,-0.0004655399,-0.00095156446,-0.00064776535,-0.0011833451,0.00313426,0.0024128368,-0.013537047,-0.0035676176
