verb,dim_001,dim_002,dim_003,dim_004,dim_005,dim_006,dim_007,dim_008,dim_009,dim_010,dim_011,dim_012,dim_013,dim_014,dim_015,dim_016,dim_017,dim_018,dim_019,dim_020,dim_021,dim_022,dim_023,dim_024,dim_025,dim_026,dim_027,dim_028,dim_029,dim_030,dim_031,dim_032,dim_033,dim_034,dim_035,dim_036,dim_037,dim_038,dim_039,dim_040,dim_041,dim_042,dim_043,dim_044,dim_045,dim_046,dim_047,dim_048,dim_049,dim_050
aviti,0.08146202,0.8991558,-0.004207062,0.0007633589,-0.002738778,0.0007681664,-0.0010738891,0.003599423,-0.0056281644,0.005337883,-0.0017882262,0.002223545,-0.022737898,0.030678418,-0.003487918,0.07227109,-0.012642429,0.01372996,-0.006035219,0.044196464,-0.0032738969,0.018944578,-0.053499516,0.011891938,-0.002875376,-0.012154979,0.1273906,-0.00012555649,-0.020348009,-0.0135633815,0.20047525,-0.18873692,0.039836194,-0.16987757,0.1854035,-0.035506375,0.013613276,-0.02376432,0.061729614,-0.093219854,0.0047614477,-0.014077688,0.0007549948,0.0018309229,-0.00033504362,-0.0023380166,-0.002535185,0.0016201193,0.0009943907,0.0018826805
bacati,0.0773426,0.8601484,-0.0050459565,-0.00031946317,-0.002991387,0.00017984485,-0.002618643,0.0007912651,-0.004157316,0.0048129302,-0.0020924874,0.0028708484,-0.025055652,0.03318484,-0.004251644,0.100126565,-0.029910091,0.01594282,-0.011185503,0.098079205,-0.00057240925,0.03373907,-0.29227635,0.078204,-0.021730252,0.36082402,-0.07557395,-0.00050457404,-0.005561827,0.012624326,-0.022676645,0.00539026,0.02724136,-0.00451979,-0.006272668,-0.004271792,0.0012208557,-0.027208047,0.0035685701,-0.005841313,0.0010075034,0.0005904171,2.7147556e-05,-2.714308e-05,4.4758002e-05,3.1378546e-05,0.00010359413,0.0005483543,-0.0003444913,-0.000167477
baciti,0.08886412,0.9853335,-0.005922541,-0.0020807586,-0.0027062655,0.00011407244,-0.0026223864,0.001172515,-0.0019111179,0.0018459099,-0.00036026136,0.0020419287,-0.020360565,0.026528448,-0.000930293,0.013833385,0.06055981,-0.01725926,0.016406313,0.040606964,-0.0015370973,-0.010456552,-0.05734227,0.011779973,-0.0034482349,-0.059626665,-0.0033102548,5.533204e-05,0.015438631,-0.025303517,0.026909778,0.0016665515,-0.05683892,0.022232514,-0.008606021,0.010838015,-0.00027611767,0.029534932,-0.0092925895,0.015753152,-0.002665164,-0.0061630486,-0.0021141148,-0.00019817987,-0.0010158389,0.0010195839,-0.0038634357,0.0066296174,-0.0018347871,0.001082757
baviti,0.08811176,0.9784201,-0.006061187,-0.0024859363,-0.0026954687,-0.00021823603,-0.0027102302,0.0015477241,-0.0036966135,0.0017324722,-0.0025415835,0.00043561787,0.019986369,-0.018270856,-0.002121872,0.074094266,-0.023735091,0.03459493,-0.014785024,0.115475826,-0.0045535085,0.06051657,-0.006369199,0.0029668475,-0.0013759005,-0.058555104,0.053511787,0.0021585564,0.0048295464,-0.0008299875,-0.019477086,0.025636356,-0.012081501,0.023250774,-0.023667108,0.004163781,0.0008550963,-0.030573407,-0.00032475693,0.0006067346,0.0016977243,0.0008563152,-0.0030453724,-0.00039152737,-0.00028942752,-0.0006554036,-4.1750707e-05,-0.00076929544,-0.00026362264,-0.00031556192
bazirati,0.07496041,0.83186424,-0.00537238,-0.0028426293,-0.0015637327,-0.0003048686,-0.0024577603,0.0006942515,-0.0033130466,0.0042405287,-0.003388412,0.006970645,-0.036219258,0.024735272,-0.012492167,0.11467655,-0.044819355,0.061779294,-0.026040148,0.084620446,-0.06308183,0.49303025,0.15138704,-0.030941185,0.0077545373,0.011520282,-0.038903266,0.0012649759,0.004685588,-0.00064271025,-0.014318229,0.014457679,-0.007610441,0.00875237,0.0038585612,-0.00021529353,-0.0010694697,0.0076918146,-0.0032025615,0.0059462185,-0.0010208247,0.0014955602,0.00076208124,-0.00049800373,-0.00070748595,-0.0037719137,-0.0004753076,0.0005282826,-0.00052126485,-0.0006335265
bediti,0.048759118,0.54870003,-0.0055482043,-0.0049914573,-0.0024769588,0.0023593572,-0.001477148,-2.4299627e-05,0.0062477863,0.006788824,0.0036455593,0.022724265,-0.27523157,0.27464896,0.015353508,-0.7264438,0.019322949,-0.07478405,0.04517229,-0.0040647946,0.0057235262,0.008929835,0.042222917,-0.010210444,0.002175516,0.02175433,-0.061887912,-0.0010259827,-0.0013426507,0.0105757015,-0.029505843,0.011783306,0.022561852,0.00323509,-0.015283166,-0.002723572,5.1501447e-05,-0.021994973,-0.0016320113,0.002116529,-0.00013016064,0.0013827963,0.00010027324,-0.0003491039,0.00013888555,0.0005484117,-0.0032451705,0.0012156329,-0.0014184364,0.0017262164
beležiti,0.08482898,0.9413642,-0.0059761866,-0.0043458887,-0.0011287197,-0.0019671351,-0.0029955613,0.0034715973,-0.003615508,-0.0030663356,-0.0003492446,-0.0029674144,0.10794917,-0.11724355,0.012399761,-0.1345536,-0.014862309,0.01460738,-0.0038362506,0.032954287,-0.029780054,0.22419953,0.08785093,-0.018972868,0.00301161,0.014017357,-0.03955283,0.0002996115,0.0032891617,0.001179743,-0.011882229,0.010029817,-0.00071247126,0.006134808,-0.0028719786,-0.00022411208,-0.00018806967,-0.0034974779,-0.001482385,0.003190802,-0.00021590675,0.0009314054,0.00043831932,-0.000263873,-0.0014051232,-0.0008468249,-0.000687584,-0.00064620544,-0.0017129738,-3.99151e-05
besneti,0.07377267,0.8245821,-0.0066197137,-0.00077711703,-0.0034668255,0.0005892058,-0.0027930625,0.0007556972,-0.0014405468,0.010705829,-0.0019859562,0.0041994923,-0.05227018,0.066997565,-0.006781247,0.12734589,-0.066695064,0.24768056,-0.09975607,-0.11528856,0.010428318,-0.0501404,-0.19327073,0.054899476,-0.017081853,0.3691881,-0.1186163,-0.0017029699,-0.013105963,0.027362045,-0.04780683,0.011175651,0.059144672,-0.010216308,-0.011039883,-0.008525726,0.0006920045,-0.03279142,0.00208803,-0.0037999162,0.00019673878,7.333303e-05,-0.0009078016,-0.00019641458,-2.859845e-05,0.00058686355,-0.002924571,0.002423039,-0.0019147408,0.0012614185
bežati,0.07394826,0.82282996,-0.0048007453,-8.024802e-05,-0.0029424727,0.00013488792,-0.0026016685,0.00079127436,-0.004139473,0.004801309,-0.0020728023,0.0028662365,-0.025202906,0.033413965,-0.0043172995,0.10236891,-0.031645987,0.017770559,-0.012150096,0.1059723,-0.00037968435,0.035578635,-0.3217995,0.08646697,-0.02435079,0.40852556,-0.09166688,-0.0007365806,-0.0068398877,0.016448641,-0.030503953,0.0078419605,0.035996474,-0.0053497194,-0.009258976,-0.005722911,0.0016123157,-0.037740972,0.0044873403,-0.007350619,0.0012483497,0.00032792153,-0.0005181974,-9.77291e-05,2.0632608e-05,0.00022831914,-0.0009849529,0.0012788837,-0.0010050854,0.00022103492
bilježiti,0.07620738,0.8442111,-0.004987685,-0.004447292,0.00018540057,-0.0037255138,-0.003113229,0.0048779757,-0.005388005,-0.007960943,-0.0006924626,-0.010869294,0.23635791,-0.25346118,0.015563985,-0.048331503,-0.022469362,0.04228109,-0.016545152,0.03954214,-0.04793455,0.34751725,0.15386434,-0.033106472,0.0049433317,0.018775407,-0.065906435,0.00023551758,0.0038200147,0.0059562786,-0.026733298,0.018533994,0.009239912,0.00826775,-0.007319351,-0.0024538774,0.0003646073,-0.021319065,-0.000675905,0.002425579,-2.3804712e-05,8.5812295e-05,-0.0010501056,-0.0005574876,-0.002324703,-0.0009911263,-0.0038100088,0.0008091238,-0.0042747413,0.0008131563
birati,0.08840133,0.9797909,-0.0061014933,-0.0025483014,-0.002690903,0.00064369396,-0.0024059433,0.0005068139,-0.0007017201,0.0033933502,-0.00084054563,0.0057236184,-0.07802016,0.08484268,-0.0027889851,-0.03404612,0.107430205,-0.049648613,0.036013264,-0.008520055,-0.007502108,0.0083689885,-0.017930405,0.001048683,-2.1057089e-05,0.004683211,0.011300545,0.0010077802,0.0017493601,-0.006933295,0.013188301,-0.0035441518,-0.018847711,0.0031140684,0.0053956956,0.0036951883,-0.0012429089,0.029700378,-0.002965521,0.004728222,-0.00072735664,0.002497852,0.00084907905,0.000285741,0.0008944737,0.002088826,0.0070779645,-0.004043984,0.004234186,-0.0026777585
bistriti,0.062430758,0.69589335,-0.0039823926,0.0005824689,-0.0027202845,6.696058e-06,-0.0024775818,0.00076780457,-0.0039669983,0.004626093,-0.0019564568,0.0027677882,-0.024856504,0.033048548,-0.0043699737,0.10551706,-0.035522394,0.022326088,-0.014470258,0.12478805,0.00017169087,0.039635614,-0.3947253,0.1069949,-0.03096331,0.5301571,-0.13428527,-0.0013709576,-0.010254667,0.026828552,-0.051862776,0.014592325,0.059850678,-0.0075496254,-0.017512307,-0.009696871,0.0026831536,-0.066801675,0.0069874483,-0.011459263,0.0019023616,-0.00044185924,-0.0020779518,-0.0002990334,-5.0067407e-05,0.00079265836,-0.0041142176,0.0033591853,-0.0028936865,0.0013469177
biti,0.08912378,0.9893025,-0.0062142904,-0.0021556031,-0.002977051,0.0005826455,-0.0023790924,0.00025633659,-0.0033530872,0.0045343395,-0.0016576864,0.0030209615,-0.027951522,0.034672968,-0.0031634893,0.05412095,-0.020191168,0.00077960076,-0.00360962,0.021696644,-0.0012698686,0.012701962,-0.053732045,0.012757988,-0.0028342507,1.702314e-05,0.02507213,0.0010946397,0.010450392,-0.018362667,0.021007188,0.002056928,-0.043369837,0.01642341,-0.004167761,0.008207046,-0.00030802595,0.019057041,-0.0044396035,0.0072812424,-0.00061283447,-0.0016920373,9.5360316e-05,1.0080345e-05,-0.00027111382,0.00023827319,0.0010414697,0.0013481876,0.0007136925,-0.0004169483
bivati,0.08336067,0.9216504,-0.005305971,-0.0018973905,-0.0022361926,0.0003488948,-0.0021241405,0.00034801147,0.00030933507,0.0031936627,-0.0014066148,0.0016886477,-0.041422665,0.04932304,-0.008543246,0.12751932,0.1764919,-0.049722638,0.044334967,-0.032732308,-0.012126485,-0.009262747,-0.01709426,-0.0018746124,-0.0016601313,0.0075518196,0.074625485,0.0024148333,0.06433291,-0.093896404,0.086811095,0.01199672,-0.18730433,0.079450086,-0.053263273,0.027663501,0.0056247097,-0.11893923,0.008505701,-0.016418105,0.008476164,0.0022225438,0.0022595075,-0.0003210704,-0.00041525188,-0.00081001705,-0.0024484529,0.0006271236,-0.00077459624,-0.0027312844
blagati,0.06686625,0.74225533,-0.004900829,-0.0029274665,-0.0011196982,-0.000493708,-0.002346872,0.0006599592,-0.0030283476,0.0040133544,-0.0035918087,0.0077880393,-0.038444575,0.02276966,-0.014307212,0.1202108,-0.050756186,0.074874416,-0.030870738,0.094609655,-0.07650711,0.5973009,0.20031954,-0.041251455,0.009849481,0.015564735,-0.059323322,0.0012444318,0.0047553834,0.0032226646,-0.026676632,0.021099186,0.00019713749,0.010394687,0.00073630095,-0.0019124419,-0.00089753437,-0.0033588908,-0.0031610944,0.0060391896,-0.0010744021,0.0012056842,-9.434274e-05,-0.0007464355,-0.00093834265,-0.004332208,-0.0026890407,0.0019018217,-0.0018152635,-5.774596e-06
blažiti,0.062438317,0.6993874,-0.0061765066,-0.0047777663,-0.0028057927,0.0021576432,-0.001815334,0.00013123863,0.004603798,0.0068514952,0.002733095,0.020311693,-0.2437406,0.24468184,0.012607068,-0.61439186,0.013543339,-0.064494744,0.038426913,0.0037075584,0.004530169,0.011625003,0.023585025,-0.0059283576,0.0015721981,0.017520009,-0.04343778,-0.00061842264,-0.00029228273,0.005643929,-0.017600104,0.007316888,0.0111454185,0.0031208778,-0.0096265115,-0.00092417863,-0.000319092,-0.007759075,-0.0020833334,0.002945591,-0.00027589753,0.001733635,0.0009753184,-0.00018800244,0.00016727265,0.00015185107,-0.00095729856,-3.425223e-05,-0.00020346358,0.0007876383
bledeti,0.0815861,0.90063506,-0.0049611283,-0.0015554675,-0.0021080235,0.00025865663,-0.0022020692,0.0003434985,0.0006581691,-0.0025330165,0.0016814385,-0.00025748217,-0.04446574,0.05690385,-0.009430775,0.1571581,0.2383271,-0.06603433,0.058043346,-0.04051317,-0.017878316,0.007865921,-0.15245295,0.03137197,-0.009760831,-0.20464338,-0.112270825,-0.0033687942,-0.0048549226,0.01792542,-0.041069705,0.013016504,0.039064243,-0.0017275925,-0.017594261,-0.0073352885,0.001741395,-0.0507299,0.005355849,-0.007737402,0.00014374033,0.0017295191,-0.0033672208,-0.00018030434,6.0819766e-05,-0.00044842093,-0.0020764375,-0.0014462138,6.467373e-05,-0.0017545514
blistati,0.07452251,0.82453483,-0.004458342,-0.0043532536,0.0004980537,-0.004844011,-0.0030526072,0.0066743763,-0.0061037974,-0.014021648,0.0016856435,-0.02207507,0.37219274,-0.38132048,0.03452675,-0.15847643,0.008835343,-0.0049699456,0.0026470136,-0.018333262,-0.0020325165,-0.022192748,0.030340808,-0.008046035,-0.0019337607,0.012041615,-0.031768814,-0.00045581395,0.0023472882,0.0018511422,-0.0063907704,0.0050873044,0.0038130092,0.0032503724,-0.0073484425,-0.0002570448,0.0009075277,-0.015421708,0.0010123344,-0.00048611997,0.0007265548,-0.00029878604,-0.00042305232,-2.890264e-05,-0.0025128184,0.0020246739,-0.0011237479,-0.0017272178,-0.0034999638,0.00042113464
bližiti,0.05122111,0.5700995,-0.003887767,-0.0023325686,-0.0028957848,0.00050579844,-0.0014229786,0.00043784763,-0.0010344799,0.0004261453,-0.011298239,-0.0019180226,-0.015354003,0.024116198,-0.0031299086,0.053043175,-0.016142441,0.024987843,-0.008795937,0.04647409,-0.0055482923,0.020296056,-0.08148493,0.019524062,-0.0020382223,-0.03153835,0.67348254,0.02596983,-0.081916615,0.15081765,-0.27147785,0.16970731,0.22577828,0.041794557,-0.10287919,-0.013392633,-0.00078990235,-0.058470286,-0.014788362,0.026657602,-0.002110006,-0.008247078,-0.05272765,-0.002882376,0.0023658744,0.0011183823,-0.003528017,0.00421493,-0.005350371,0.001323605
bojati,0.06538588,0.7258601,-0.004812125,-0.0029347104,-0.0010441131,-0.0005236334,-0.002323233,0.0006527972,-0.0029744979,0.0039666686,-0.0036170005,0.007904676,-0.038722068,0.022392625,-0.014573232,0.12084307,-0.051618043,0.07686351,-0.03159683,0.09603897,-0.078550525,0.6131659,0.20796603,-0.042865194,0.0101740025,0.016200213,-0.06258525,0.0012378864,0.00475508,0.0038633838,-0.028684044,0.02216111,0.0015088292,0.010644144,0.00020884899,-0.0021933345,-0.0008662231,-0.0052153473,-0.0031457576,0.0060389847,-0.0010806222,0.0011534173,-0.0002391035,-0.00078656484,-0.00097499567,-0.004415681,-0.0030577383,0.0021300376,-0.0020303577,0.00010112884
boleti,0.08401206,0.93223053,-0.0053125327,-0.0021869743,-0.0017555882,-0.0019407115,-0.0030209853,0.0033761621,-0.005328082,-0.0028672465,-0.00064871745,-0.00757128,0.1428297,-0.1414686,0.012011604,-0.0035330588,-0.014882796,0.007411139,-0.005701362,0.05231582,-0.0013187958,0.011674545,-0.16339058,0.043582305,-0.013717037,0.21735136,-0.054984957,-0.00041245666,-0.0020465038,0.00721449,-0.013799301,0.004492812,0.01526266,-0.0012042735,-0.0057518976,-0.0022164267,0.0009875996,-0.019205712,0.002308591,-0.0032958316,0.00084027566,0.00037518796,8.6869026e-05,2.0428624e-06,-0.000985268,0.00075767527,9.159815e-05,-0.0006734835,-0.0013521612,-0.00010876901
boliti,0.07524955,0.8369283,-0.005143804,-0.0012791614,-0.002283272,-0.00024944573,-0.002784455,0.00082516874,-0.0040617865,0.004991181,-0.003130958,0.0058735907,-0.035787094,0.032370396,-0.010325806,0.12830053,-0.048358552,0.053165197,-0.025073132,0.12441473,-0.040752206,0.34213454,-0.12512673,0.04078487,-0.01284133,0.31672347,-0.108319,-0.00010592949,-0.0033190316,0.01679482,-0.043122414,0.019227965,0.033673935,0.0011715031,-0.00930201,-0.0064230864,0.0010283124,-0.03884018,0.0022637497,-0.0032625014,0.00050590927,0.0004403194,-0.0011385819,-0.0005491029,-0.00051374576,-0.0018466372,-0.003550498,0.0027879877,-0.0024831821,0.00068803213
boraviti,0.07094154,0.78467584,-0.004172078,-0.004506997,0.0008589379,-0.005303318,-0.003050028,0.007163337,-0.006213069,-0.015675763,0.0020425166,-0.024229884,0.40620178,-0.41682935,0.037831746,-0.17995676,0.011167493,-0.005547599,0.0032233763,-0.023466544,-0.0020067703,-0.026052125,0.03931001,-0.010167819,-0.001957407,0.013718882,-0.039417107,-0.0006253699,0.002145345,0.0036799852,-0.010703782,0.00690457,0.00812768,0.003382918,-0.009704102,-0.00096076034,0.0011692082,-0.02221155,0.0014445895,-0.0010855127,0.0008763024,-0.00059690676,-0.0008939261,-8.411289e-05,-0.0027814722,0.0023738013,-0.0020999436,-0.0013826911,-0.004325503,0.0007872794
boriti,0.078297645,0.8696482,-0.005632626,-0.0025234164,-0.0023090406,0.00034291492,-0.0023775958,0.00058696384,-0.0024802617,0.0011017362,0.00039530575,0.004370566,-0.03716009,0.036182866,-0.010205883,0.12338019,-0.04416162,0.06323589,-0.028286632,0.079221845,-0.041571878,0.3323527,-0.10026076,0.028312022,-0.007179624,-0.23841888,-0.13596463,-0.0037329001,-0.00073323975,0.01719239,-0.049163073,0.02204449,0.034391157,0.003912143,-0.01588478,-0.0070751295,0.0015091082,-0.056812666,0.0047893934,-0.006876329,0.0013800247,0.001839051,0.00081821595,-0.0004172502,-0.0005556377,-0.002234425,-0.0038816005,3.7305104e-05,-0.0009909068,0.0005254248
braniti,0.08195041,0.90754545,-0.004733158,-0.001872103,-0.0012632054,-0.002863742,-0.003181391,0.0043065893,-0.0055823014,-0.0058777966,3.5671397e-05,-0.011553574,0.20551755,-0.2072523,0.018294299,-0.052600715,-5.2362975e-05,-0.0024641724,0.00011709408,0.01529535,-0.0022638193,-0.0062686545,-0.042407565,0.008863024,-0.0028369583,-0.008775959,0.024051866,0.002079021,0.007545226,-0.027392445,0.054157633,-0.0111342175,-0.077430636,0.017461225,0.021706233,0.021067137,-0.005908399,0.23485656,-0.046638414,0.080451116,-0.018548489,-0.032798883,-0.014400579,-0.00071482395,-0.004568678,0.006784061,-0.018749828,0.03259154,-0.01189124,0.009517764
brinuti,0.08413924,0.93588436,-0.0070016882,-0.0033844593,-0.0020174806,-0.001457141,-0.0029582933,0.0032759611,-0.0025675143,0.0018111442,-0.00039580447,-0.006746011,0.12299248,-0.11699186,0.010547213,0.0018866861,-0.038115975,0.20241812,-0.07880238,-0.17080003,0.007676886,-0.07112677,0.0511952,-0.0122607015,0.0012663385,0.029328305,-0.031135676,-0.00062312826,-0.0037582673,0.005982528,-0.0072348495,0.00080330664,0.01102845,-0.0029233238,0.00065402495,-0.0006548456,-0.0008720293,0.013341722,-0.0023012315,0.0039441343,-0.00073030725,0.00076176383,0.0011027693,9.4762196e-05,-0.0009811502,0.00058136095,0.0011230137,-0.0015556399,-0.00048141787,-0.00017218804
brisati,0.07801811,0.8666366,-0.0056048995,-0.0024100668,-0.0024260504,0.0004585237,-0.0023267174,0.00056135387,-0.002327446,0.0006076917,0.0010063074,0.0037809142,-0.036297396,0.037451006,-0.0094383,0.12162203,-0.04252766,0.06078311,-0.027551353,0.07572959,-0.03594241,0.28946385,-0.14297575,0.03814827,-0.009603089,-0.2734124,-0.14641786,-0.0044412394,-0.00157005,0.01925091,-0.052406665,0.022137558,0.039483782,0.0029217019,-0.018342137,-0.007838252,0.001864448,-0.06467534,0.005939941,-0.008752081,0.0017334446,0.0018929938,0.000903602,-0.00037230767,-0.0004995284,-0.0019053069,-0.004113802,-0.00018204273,-0.0009129525,0.0006297965
broditi,0.05806588,0.631894,-0.002295561,-0.0006256727,0.00010292323,-0.0009038694,-0.0016364789,-4.5637895e-05,0.0055247126,-0.006332606,0.0002830593,-0.0026715158,-0.060996987,0.07262865,-0.015437166,0.21651025,0.63571614,-0.21738051,0.17212681,-0.1840355,-0.038859658,-0.043494612,0.09493486,-0.036973815,0.003136704,0.03100329,-0.073530115,0.00052108715,-0.007399661,0.019268652,-0.04384913,0.01461036,0.042930383,-0.002243165,-0.016988713,-0.008533978,0.0009418881,-0.033195917,0.001116201,-0.00036311446,-0.0036059069,0.0003826951,-0.012924235,-0.0006360769,0.0002370371,-0.0002857912,-0.0039569526,0.00083408225,-0.0020297826,-0.004265394
brojati,0.08648628,0.9584481,-0.0056067607,-0.0013781779,-0.0028160987,0.00040137602,-0.0025627417,0.0005937228,-0.0018367319,0.0014131791,-0.000520369,0.0024927524,-0.04344998,0.051745124,-0.008886783,0.13961662,0.1081101,-0.012721306,0.020953104,0.11448675,0.005146211,-0.056222532,-0.035549514,0.0072487593,-0.0036153304,-0.11503279,-0.07115043,-0.002451994,-0.0027776444,0.00958311,-0.023439305,0.00864556,0.018839989,0.0011770199,-0.010133388,-0.0027720367,0.00035742772,-0.016867595,0.0010382785,-0.001187343,-0.000208989,0.0018981275,-0.00047555045,-8.93043e-05,4.8025475e-05,-0.00039179288,0.00019051506,-0.0017365968,0.00094875204,-0.0008287572
brojiti,0.080216266,0.89078766,-0.0055886963,-0.0018061084,-0.002989555,0.00087383913,-0.0021302507,0.0005039539,-0.002229886,8.528218e-05,0.0021676335,0.0011600346,-0.027245913,0.03794281,-0.0043705106,0.09610463,-0.02609735,0.03024636,-0.015952172,0.046627894,-0.0031661948,0.035131335,-0.26401418,0.06397762,-0.015263312,-0.30067584,-0.1151932,-0.0049484503,-0.0026991572,0.014388948,-0.03315026,0.010127498,0.030902443,-0.0011828467,-0.015216202,-0.0055725365,0.0019038335,-0.052438233,0.0068138153,-0.010505372,0.0021056484,0.0021963383,0.0021767423,8.63431e-05,-3.995527e-05,-0.0004734142,-0.0007810625,-0.0024476505,0.0011599305,-0.00021132661
brusiti,0.06582529,0.7298011,-0.0034251648,0.0018809044,-0.0027976108,-0.00024186225,-0.0026190956,0.00084257853,-0.003742676,0.004004047,-0.0016537028,0.002091284,-0.016019097,0.022422299,-0.0028951182,0.07049696,-0.008299463,0.0005809544,-0.0024423443,0.050892565,-0.0020589728,0.01062738,-0.12235574,0.027591627,-0.003621011,-0.03431859,0.08622511,0.0050798417,0.013379415,-0.06198706,0.12526686,-0.029489722,-0.1751697,0.035675157,0.056258887,0.04762549,-0.014491043,0.5537661,-0.10901094,0.18649551,-0.04396305,-0.07656228,-0.033894464,-0.0017401292,-0.0074424623,0.01354066,-0.04421249,0.07966039,-0.024299433,0.022488864
buditi,0.08556347,0.9522336,-0.0066463193,-0.0023849064,-0.003287585,0.0019270418,-0.0014058166,-0.0037930598,-0.006890134,0.009217301,-0.002235683,0.0037189205,-0.043525018,0.056308415,-0.0069415215,0.13899218,-0.16985945,-0.04902839,-0.014546248,-0.107916415,0.007670367,-0.039803386,-0.043420274,0.013162111,-0.0037735237,0.11267872,-0.035580553,-8.8874884e-07,-0.0035064335,0.0061263135,-0.0090699075,0.0018677473,0.009199846,-0.003698976,0.0049249204,-0.0011363066,-0.0002939618,0.014180592,0.00105642,-0.0015522273,-0.00057466957,7.467182e-05,0.0012518903,0.00018675452,1.8649278e-05,-0.00041759768,0.0021273603,-0.0010248866,0.0014493552,-0.0002633535
bujati,0.06508603,0.7278157,-0.0046248217,0.00013231087,-0.003236845,0.00043603647,-0.002766837,0.0008246414,-0.004099665,0.005842745,-0.0034709014,0.00748477,-0.057064917,0.05625237,-0.012325215,0.14805037,-0.030108055,0.079292126,-0.028583825,0.51023674,0.060824364,-0.27256492,0.26754636,-0.0576765,0.008654139,-0.01139148,-0.10148562,-0.004063132,-0.005730805,0.01914574,-0.049352553,0.022672165,0.03692829,0.0069700098,-0.022310464,-0.0030112122,-0.0004858044,-0.016101975,-0.004121147,0.0066446867,-0.0005941565,0.0013641999,0.00024412056,-0.0005806097,-0.00017480622,0.000946421,-0.0039932313,0.0013613689,-0.001327234,0.0036919885
buniti,0.080585614,0.89971167,-0.0077294367,-0.0023198663,-0.0034458747,0.0009395003,-0.0025716925,0.0006215762,-0.000393907,0.011521495,-0.0018067027,0.0041688257,-0.05435504,0.06922179,-0.0064167944,0.10848098,-0.06376929,0.28748584,-0.113301344,-0.22676349,0.01198322,-0.08568945,0.04267117,-0.009841457,0.0025219324,0.029727615,-0.01899751,-0.000402635,-0.0060439934,0.0041061514,0.0013358494,-0.0047298167,0.0044606654,-0.005742776,0.009793366,0.0010366312,-0.0022586056,0.04703657,-0.0055361264,0.008865716,-0.0022124578,0.00109026,0.0026509082,0.0003061247,-2.1055712e-05,-0.00068537926,0.004465353,-0.002227798,0.0028175449,-0.0012895629
bušiti,0.06913733,0.7682488,-0.005104878,-0.00344797,-0.0025079607,0.0041150395,0.0013743177,-0.011811068,-0.013876356,0.009631695,-0.0021528387,0.0032910754,-0.043743078,0.056690298,-0.008821328,0.1797333,-0.38214618,-0.40672183,0.07171208,-0.182902,0.011635933,-0.065909125,0.090675935,-0.020283418,0.0045781597,0.017338965,-0.043083865,0.0002324008,-0.0018677597,0.011157002,-0.026031347,0.011451423,0.019141518,-0.0025892921,0.0019080559,-0.0042030723,0.0011342169,-0.010517286,0.0075745923,-0.011907415,0.00037547405,-0.0018695381,-0.00067110464,1.6977654e-05,4.8347178e-05,6.478746e-05,-0.0021253354,0.000861122,-0.00056463596,0.0020827851
cediti,0.06420886,0.7137447,-0.004816685,-0.0035246708,-0.0023734155,0.0044414587,0.0018045951,-0.013007642,-0.014711188,0.0100012105,-0.0021085583,0.0032819721,-0.0452547,0.05860479,-0.009247238,0.18774211,-0.417162,-0.44616577,0.07904205,-0.20479767,0.013012441,-0.074583486,0.10692621,-0.023924462,0.005205339,0.019766912,-0.052983426,0.00010727997,-0.0025454985,0.014243304,-0.03306589,0.0142080635,0.025746593,-0.003060168,0.0001704977,-0.005437461,0.0014590113,-0.01783727,0.0087774405,-0.01382922,0.00050897803,-0.0023853248,-0.0012449772,-4.228214e-05,2.58435e-05,0.0002482822,-0.0033688685,0.0015550366,-0.0011886498,0.0026926263
ceniti,0.08309909,0.92391884,-0.0063656983,-0.0039831307,-0.002579105,0.0022128602,-0.0009908912,-0.0049834335,-0.0069649746,0.007952734,-0.002017561,0.009153352,-0.08956603,0.09060699,-0.0071314345,0.0048113577,-0.19008312,-0.16833928,0.028405525,-0.041376967,-0.02265552,0.19830988,0.11209707,-0.023874868,0.0058427467,0.01640309,-0.044093918,0.00059151003,0.0013796007,0.0051924223,-0.02019912,0.012570135,0.0058720787,0.0035064302,0.0011778708,-0.0018859362,-0.00011161559,-0.00086865487,0.0013162227,-0.001717617,-0.0003774848,0.00030165535,0.00039423688,-0.00023517148,-0.0002535713,-0.0016773014,-0.0010248055,0.00042506895,-0.0003524683,0.00065822
cerekati,0.07471933,0.8267263,-0.004474287,-0.0043436736,0.0004770361,-0.004816626,-0.0030522945,0.0066449973,-0.006096531,-0.013923579,0.0016646913,-0.02194676,0.37016422,-0.37920362,0.034329884,-0.15720735,0.008698939,-0.004935729,0.0026132362,-0.0180334,-0.0020336828,-0.021966081,0.029817699,-0.007922158,-0.0019320835,0.011942838,-0.0313225,-0.00044596606,0.0023585262,0.0017455983,-0.006141557,0.004981912,0.003564208,0.0032421972,-0.0072117858,-0.00021656298,0.0008923385,-0.015029211,0.0009873545,-0.000451644,0.00071783847,-0.00028163783,-0.000395979,-2.5733805e-05,-0.0024969801,0.0020043172,-0.0010676427,-0.001746635,-0.0034520805,0.00040011306
cijeniti,0.066796005,0.7423602,-0.004968997,-0.0034884764,-0.0024446524,0.0042778696,0.0015852721,-0.012404963,-0.014295831,0.009820553,-0.0021332349,0.003289662,-0.044519726,0.057675127,-0.00903693,0.18380038,-0.3995507,-0.42630434,0.07534748,-0.19373007,0.012316683,-0.07019182,0.098665625,-0.022073496,0.004887519,0.018535994,-0.04793557,0.00017187405,-0.0021986256,0.012665777,-0.029470649,0.012800358,0.022364963,-0.002820332,0.0010675464,-0.00480589,0.0012928408,-0.014075392,0.00816532,-0.012851,0.00044053025,-0.0021213107,-0.0009497031,-1.1688876e-05,3.750828e-05,0.00015365126,-0.0027293821,0.0011978089,-0.00086712476,0.0023800035
crtati,0.086299166,0.9602392,-0.0061901323,-0.0028467183,-0.0025825514,-0.0005351893,-0.0029953732,0.0023799762,-0.003235738,0.0011432224,-0.00076211616,0.00212695,0.01888224,-0.019535145,0.0069037825,-0.10928464,-0.009687723,0.013167982,-0.001833978,0.1904972,0.021935286,-0.096854374,0.093178906,-0.02052974,0.0025463079,0.0015051543,-0.041782837,-0.0013653826,-0.00037054275,0.0041464693,-0.013215797,0.007416492,0.0061137783,0.004429774,-0.007525283,0.00043780464,-0.00045348823,0.0023759594,-0.0024704314,0.00422446,-0.00027854898,0.0014531818,0.0012818538,-0.00011362505,-0.0006181591,0.0004988808,0.0003371029,-0.0012939281,-0.0001849415,0.0007123591
cvetati,0.06966642,0.77409804,-0.0051352964,-0.003437676,-0.0025220967,0.0040760688,0.0013248123,-0.011669732,-0.013775157,0.009585291,-0.0021568683,0.0032905806,-0.0435512,0.056446675,-0.008768896,0.17874092,-0.3779981,-0.40206084,0.070847765,-0.18033613,0.011474618,-0.064896196,0.08879526,-0.019862084,0.004505074,0.01705633,-0.041946117,0.00024638095,-0.0017905213,0.010804245,-0.025227128,0.011135688,0.018389361,-0.0025350489,0.002102171,-0.004062308,0.0010971745,-0.009690919,0.0074357735,-0.01168574,0.00036032175,-0.0018107825,-0.00060649746,2.3597811e-05,5.0837563e-05,4.4239103e-05,-0.0019851692,0.0007830983,-0.0004946139,0.0020135553
dahnuti,0.08583121,0.9524011,-0.0061662863,-0.0028267622,-0.0027847067,0.00094397,-0.0023932448,0.00038810444,0.0008562989,0.0016515502,0.00143222,0.0066745924,-0.105093636,0.114397384,-0.002370625,-0.07736786,0.131161,-0.054269128,0.04207922,-0.0148813,-0.009014955,0.011914968,-0.104414366,0.021892387,-0.006085637,-0.12528782,-0.07029051,-0.0019563565,-0.0019395468,0.007841531,-0.019143013,0.0060654352,0.014895544,0.00032986258,-0.007779997,-0.0023963875,0.00037254478,-0.011521266,0.00093873224,-0.0008686698,-0.0006145902,0.0016847665,-0.0003991764,2.8572871e-05,2.4151957e-05,-0.0006465664,0.0012236773,-0.0022696785,0.0017001459,-0.0017459642
dati,0.08926529,0.9908049,-0.0063208807,-0.002705428,-0.00280495,0.00060118205,-0.0022787317,-0.00013018251,-0.0031099448,0.003661265,-0.0015041601,0.0026814137,-0.026278738,0.032438703,-0.003377522,0.05085093,-0.0022365372,-0.022278465,0.0073677893,0.016273232,-0.0028569798,0.012865843,-0.00999703,0.0016846533,-0.0011246685,-0.037950724,0.017766261,0.00097650336,0.0114423735,-0.013435858,0.0023265006,0.01332572,-0.032205734,0.021538965,-0.017405258,0.00578749,0.0010702692,-0.026492221,0.0012584368,-0.0022692424,0.0017118333,0.0011631806,-0.0004389082,-0.0001526285,-0.00019850038,-0.0006172487,0.0005260627,-0.0010799672,0.00047732552,-0.00091852003
davati,0.08895781,0.9865056,-0.0061224783,-0.0028756154,-0.0026408383,0.000585617,-0.0020993294,-0.00041742827,-0.0034209173,0.0027006236,-0.0015997889,0.0016772724,-0.01672703,0.022820234,-0.0027560296,0.05237063,-0.001641403,-0.056773767,0.019059576,-0.007856457,-0.009694433,0.046791926,-0.037662547,0.0077518667,-0.0021877151,-0.046076313,0.043679804,0.0020244822,0.01149193,-0.012850374,-0.00037317935,0.01730562,-0.033084586,0.024388751,-0.02019492,0.0061229104,0.0013717681,-0.0323792,0.0018845531,-0.0031971629,0.0020200312,0.0008695352,-0.001875773,-0.0002063719,-0.00016552358,-0.0007183109,0.0005067213,-0.0010618708,0.00033562,-0.0011781537
daviti,0.08430953,0.9371383,-0.0062951334,-0.0045917933,-0.0017589288,-0.0011090953,-0.0027850699,0.0032450126,-0.0016348244,-0.0022138457,0.0014889131,-0.00029037814,0.054255273,-0.056324445,0.020335317,-0.32555494,0.006384995,-0.030325454,0.017336287,0.0014060456,0.0006152699,-0.00052329845,0.009693209,-0.0030060585,-0.00050998613,0.011615173,-0.02218546,-0.00018287006,0.0018366816,-0.00044025603,-0.0020966951,0.002385852,-0.0023151876,0.0031301265,-0.003638812,0.0009891937,-0.000123711,0.0016475668,-0.0011657956,0.0022315234,2.6696802e-05,0.0011821836,0.0011602152,2.290444e-05,-0.0009684456,0.000612641,0.000992244,-0.0018742608,-0.000557193,-0.00019274661
dejstvovati,0.067675784,0.7523817,-0.0048462437,-0.0015740497,-0.0027739606,0.0010284019,-0.0018093701,0.0003599585,-0.0012002897,-0.0022775908,0.004319022,0.00029197667,-0.028699683,0.040904112,-0.0046550003,0.10222946,-0.03085081,0.044400536,-0.02203031,0.051555034,-0.0036937804,0.0428516,-0.36459082,0.08897193,-0.022222139,-0.450572,-0.19902518,-0.008170619,-0.006260132,0.030506318,-0.06980116,0.022399994,0.067652225,-0.0026948624,-0.03190001,-0.012049242,0.0038299714,-0.108123,0.012238828,-0.019057546,0.0036652402,0.0020127206,0.0011579619,-0.00013536251,-0.0001844114,4.1125153e-05,-0.005664232,-0.001167813,-0.0006665024,0.001336297
deliti,0.08580343,0.9557503,-0.007053625,-0.002347179,-0.0034150814,0.0010106364,-0.0025282812,0.0005764829,-0.0006947478,0.009327636,-0.0014897313,0.006063259,-0.07015497,0.080068596,-0.004049171,0.019668942,-0.03618083,0.12875357,-0.050052855,-0.065156646,0.005403514,-0.027901994,-0.06639899,0.017140405,-0.0053938013,0.10729935,0.017531227,0.00075736403,0.035983346,-0.051800247,0.045374878,0.00806878,-0.10324116,0.04557466,-0.032453854,0.01601084,0.00304242,-0.07020602,0.0044865236,-0.009362305,0.005506571,0.0018061592,0.0038703573,-0.00012380519,-0.00026318192,-0.00037089013,-0.0011254845,0.00055426033,-0.00031207726,-0.0006879812
denuti,0.072191164,0.7985831,-0.004271208,-0.004457462,0.0007373106,-0.005150835,-0.0030525858,0.0070018372,-0.0061795334,-0.015124618,0.0019228567,-0.023513949,0.39491493,-0.40504053,0.03673391,-0.17278357,0.010383656,-0.005355024,0.003029907,-0.021739915,-0.0020166663,-0.024758473,0.036290165,-0.00945391,-0.0019505383,0.013157675,-0.03684301,-0.00056813477,0.0022153151,0.0030601772,-0.0092432005,0.006290588,0.0066646785,0.0033399337,-0.008908379,-0.0007217925,0.0010808471,-0.019912913,0.0012982277,-0.0008819588,0.0008258285,-0.00049566897,-0.00073398027,-6.533893e-05,-0.0026916645,0.002256259,-0.0017682756,-0.0015011637,-0.004046637,0.00066280074
derati,0.07852768,0.8719756,-0.005623181,-0.003179364,-0.002746114,0.003259555,0.00035743718,-0.0087658465,-0.01159834,0.008528036,-0.0021943734,0.0032213076,-0.039110012,0.050786972,-0.007612573,0.15662916,-0.29245338,-0.30638295,0.05317548,-0.12848863,0.008215892,-0.044570647,0.05170371,-0.011554699,0.003045234,0.01142348,-0.01982642,0.0005031805,-0.00031420027,0.0040261396,-0.009768564,0.005045549,0.0040431204,-0.0014774653,0.0056647905,-0.0013711564,0.00038892392,0.0057940586,0.0047230846,-0.00735825,7.351065e-05,-0.00069079676,0.00059703714,0.00014500717,9.56336e-05,-0.00033437784,0.0006310316,-0.00066611526,0.00080064515,0.000704017
desiti,0.08663439,0.96417564,-0.007123403,-0.004105999,-0.0023058213,-0.00067046675,-0.0028762745,0.0027472451,-0.0012310899,0.0020533183,0.0005381691,5.946586e-05,0.036542617,-0.033039592,0.013240831,-0.19050573,-0.01859348,0.09646627,-0.03386082,-0.094776645,0.005273008,-0.037611563,0.03256298,-0.008070428,0.0008071101,0.022502592,-0.028551089,-0.00044342197,-0.001521316,0.003426115,-0.005799228,0.0016325662,0.005592105,-0.00024996372,-0.0013443957,6.694031e-05,-0.0006773388,0.009450399,-0.0021390829,0.003600637,-0.0004996251,0.001168473,0.0013082187,5.411536e-05,-0.0007513442,0.00042632877,0.0011671985,-0.0016148438,-0.00019202448,-0.00017760345
dešavati,0.08444861,0.94210106,-0.0078029013,-0.0032216222,-0.003500998,0.0013386229,-0.002539191,0.0005419243,0.00079947093,0.0103667155,-0.0006036775,0.009141131,-0.11185288,0.12282351,-0.00095449144,-0.10234541,-0.038933054,0.1789437,-0.066480376,-0.15095916,0.009264127,-0.053249896,0.034244828,-0.008110775,0.00224395,0.027545186,-0.022367936,-0.00039964105,-0.004026516,0.00413456,-0.0038124335,-0.0012127062,0.0063200337,-0.0029842544,0.0033491417,0.00022418684,-0.0015536287,0.024713675,-0.0036926803,0.0056240377,-0.0011855703,0.0017289543,0.0021318402,0.00012752837,0.00013292891,-0.00042148883,0.002527502,-0.0015727392,0.0015653576,-0.0005881253
dijeliti,0.07581256,0.8466834,-0.007416527,-0.0024831893,-0.0033427796,0.001198373,-0.002240913,0.00042194797,0.0013747647,0.013039731,-0.0017216818,0.0045969193,-0.060087487,0.073366284,-0.007783221,0.11108703,-0.058076214,0.2871785,-0.1111951,-0.21586375,0.011910706,-0.09121885,0.04188783,-0.011076572,0.0007713122,0.03480088,0.056968823,0.001231976,0.07000791,-0.100369774,0.086882584,0.016914131,-0.198763,0.0890053,-0.06462757,0.030656332,0.005964942,-0.14188637,0.008498877,-0.017853294,0.010581664,0.0019066638,0.0058202497,-0.00039067623,-0.00067088945,-0.00019432705,-0.0054210527,0.0028449986,-0.0022547122,-0.00016639063
diktirati,0.07268714,0.8077411,-0.005150373,-0.0016696329,-0.0028736563,0.000981904,-0.0019386283,0.00041422932,-0.0015770893,-0.0014543505,0.0035879586,0.0006040378,-0.028420579,0.040188964,-0.0045923623,0.10089816,-0.029409407,0.03970677,-0.020039577,0.050225325,-0.0035357804,0.04044381,-0.33152878,0.08074014,-0.019906798,-0.40040722,-0.1704532,-0.0070754574,-0.0050235367,0.0249172,-0.057090994,0.018133564,0.05487879,-0.0021682542,-0.02610362,-0.009794822,0.0031613116,-0.08874319,0.010363874,-0.016099265,0.0031270217,0.0020982756,0.0015419959,-5.519312e-05,-0.0001330224,-0.0001476787,-0.003920493,-0.001649316,-2.3018298e-07,0.00077806355
dirati,0.08663552,0.96278167,-0.005926798,-0.0024769343,-0.0026810872,0.0005391586,-0.0018970488,-0.0014491497,-0.0069458033,0.0040966286,-0.0018886353,-0.00048090148,0.03574993,-0.030702656,-0.0003919461,0.09076876,-0.11724793,-0.08536995,0.009218675,0.065605216,0.012718663,-0.059913006,-0.01222402,0.0054479614,-0.0041230884,0.09280084,-0.010415225,0.00016056286,0.029696764,-0.03744537,0.023332834,0.01404326,-0.075174436,0.0388582,-0.031232608,0.011351099,0.0034505215,-0.07306629,0.006607061,-0.011902462,0.005055224,0.0006089641,0.002230065,-0.00022012007,-0.00072226283,0.00033117438,-0.0028177325,0.00091602956,-0.0016265915,0.0006803098
dirnuti,0.057456527,0.6394755,-0.0043359017,-0.0019445642,-0.0021945378,0.0009750629,-0.0012700327,0.00010419819,0.00094432535,0.0075646793,-0.0014168728,0.0031945617,-0.033073954,0.036503136,-0.0059386306,0.07270657,-0.012071067,0.034189176,-0.012423741,0.016203923,0.00029342575,-0.011214305,-0.046217654,0.007532706,-0.004881125,0.0026603872,0.19179748,0.004401159,0.16470243,-0.23693192,0.21524186,0.03424504,-0.4703663,0.20404135,-0.14238696,0.07044881,0.015704202,-0.3404987,0.024865001,-0.048317146,0.025583522,0.0027035319,0.010731886,-0.00093492464,-0.0015141815,-0.00033661985,-0.012717512,0.0064622005,-0.0056548207,-0.00075147214
disati,0.08738235,0.9715374,-0.0065094708,-0.0029984475,-0.0029618312,0.0008634469,-0.0024843127,0.0005804296,-0.0017422162,0.004180628,-0.00022935512,0.0075339894,-0.07996245,0.08329102,-0.0024054162,-0.05911792,-0.021672565,0.008976408,-0.0034491837,0.043746438,-0.014410648,0.1275289,-0.061126478,0.0156533,-0.002989744,-0.08452641,-0.03518901,-0.0008295137,0.0016529656,-0.000959123,-0.0023274494,0.002506319,-0.0056896997,0.0028532012,0.0012477975,0.00093025103,-0.00048049094,0.009197518,-0.0009576013,0.0019421108,-0.00028362492,0.0019293604,0.0025588153,9.711756e-05,-0.00011710519,-0.0014723513,0.0028938365,-0.0024647976,0.002191638,-0.0012883638
diskutovati,0.07789524,0.86499655,-0.0055901157,-0.0032048458,-0.0027311603,0.0033312694,0.00043782935,-0.009017117,-0.011793184,0.008626414,-0.0021941394,0.003231227,-0.03952729,0.051319957,-0.0077178325,0.15865545,-0.29987016,-0.3146485,0.05469756,-0.1329124,0.008493821,-0.04629501,0.054806508,-0.012249453,0.0031685873,0.011898519,-0.021654207,0.0004829862,-0.00043442726,0.00458047,-0.011033155,0.005545173,0.0052090213,-0.0015649875,0.005384885,-0.0015902529,0.0004465861,0.004554961,0.004947846,-0.0077165114,9.665614e-05,-0.00078171096,0.00050124194,0.00013547693,9.2178845e-05,-0.00030453477,0.0004224802,-0.0005510821,0.00069820555,0.0008095788
diti,0.07723044,0.8615378,-0.0066388356,-0.0041767405,-0.0030741799,0.0017421431,-0.0021598001,0.0003351645,0.002060779,0.0064904825,0.0013113059,0.015698751,-0.18493295,0.18788543,0.008046791,-0.42187205,0.0048345556,-0.046305034,0.026760021,0.013912501,0.0026231317,0.014451138,-0.0029215994,0.00019385447,0.0006603326,0.010683224,-0.016014453,-3.8042523e-05,0.0011063486,-0.0011973997,-0.00081080216,0.00097230304,-0.004520673,0.0027469806,-0.0015895446,0.0014741726,-0.0007751553,0.011162156,-0.0025093213,0.0037927227,-0.00044219207,0.0020539255,0.0020224499,3.1557913e-05,0.00019084364,-0.0003637469,0.0020226673,-0.0016187199,0.0013518182,-0.0004580379
diviti,0.07374046,0.8158282,-0.0043952237,-0.0043900586,0.0005802475,-0.0049504363,-0.003053344,0.0067883213,-0.0061312653,-0.014403346,0.0017674054,-0.022573907,0.3800756,-0.38954774,0.035292037,-0.1634205,0.009368178,-0.0051031564,0.00277889,-0.019505026,-0.0020276068,-0.023077225,0.03238583,-0.008530183,-0.0019400067,0.012426782,-0.033513397,-0.00049435685,0.0023027908,0.002264935,-0.0073675094,0.0054999604,0.00478867,0.0032818725,-0.007883474,-0.0004158951,0.0009669871,-0.016959868,0.001110236,-0.0006214097,0.00076065067,-0.000366078,-0.0005293042,-4.1344905e-05,-0.0025745665,0.0021042693,-0.0013439632,-0.0016506013,-0.0036874493,0.000503669
dizati,0.082977355,0.9247614,-0.007117009,-0.0021964244,-0.0034507657,0.0010385766,-0.0024762088,0.00056900707,-0.0009842366,0.006263546,0.0006360961,0.002803984,-0.046425443,0.06106636,-0.0060715023,0.113914706,-0.053099893,0.19267526,-0.07812891,-0.113370426,0.0055878395,-0.032690126,-0.13244335,0.032584347,-0.007975586,-0.17271794,-0.09214673,-0.0035788936,-0.0059765056,0.013994562,-0.025540842,0.0054985327,0.027813114,-0.0044410927,-0.005975321,-0.0038107845,8.561099e-05,-0.011292674,0.0013205413,-0.0018318279,2.5940137e-05,0.0015392064,0.0023511767,0.00017216592,-9.7249904e-05,-0.0005005451,0.0010290782,-0.0021588008,0.0018255463,-0.0004735571
dići,0.06556962,0.73548186,-0.00773572,-0.002242518,-0.0035092796,0.0013894193,-0.0022932685,0.00043780042,0.0024607044,0.011384461,0.0013100265,0.0037045197,-0.07193444,0.09260247,-0.008310392,0.13344808,-0.08846361,0.43521342,-0.17026608,-0.3319898,0.017195633,-0.11940041,-0.050251845,0.014179515,-0.005217876,-0.159875,-0.165541,-0.0057262387,-0.015915036,0.037273847,-0.06899126,0.017082397,0.0804804,-0.011901567,-0.018826365,-0.011856029,0.0004276315,-0.04779293,0.0026509247,-0.0045592543,0.00018692357,0.0012213961,0.00025054056,-0.00019721496,-0.00012230071,0.00045850236,-0.00526932,0.0009348057,-0.0015581496,0.0021272178
djelovati,0.08764907,0.9738936,-0.0060848203,-0.001961976,-0.0029779365,0.00048081102,-0.0024572858,0.0007070482,-0.0038443638,0.0044818944,-0.0020707373,0.0027880154,-0.023921162,0.031062366,-0.0034955163,0.07856803,-0.010718621,-0.00013291212,-0.0020536855,0.036421265,-0.0027257432,0.021148503,-0.07380166,0.015999034,-0.0010805738,-0.006718688,0.06567354,0.0016465768,0.006381477,-0.027277716,0.060221296,-0.020871866,-0.067460224,0.004725823,0.028158564,0.012425178,-0.0047400743,0.10447177,-0.0064092567,0.0097473515,0.00011236696,0.01830814,0.009980174,0.001284958,0.0010926551,-0.0067222877,0.03568149,-0.019388514,0.016714929,-0.014360342
dobaciti,0.70890695,-0.063138284,0.05001747,-0.060592953,0.018237835,0.067177534,0.0700903,-0.038487047,0.16812195,-0.23137821,-0.5727477,-0.22518075,0.060665388,0.075323634,-0.038364943,-0.0060220277,-0.013243719,0.014978667,0.033897903,0.0017585226,-0.024750467,-0.003260815,0.005473142,0.017529884,-0.000294552,0.00026862437,-0.00934627,-0.01192021,-0.008861759,-4.2456577e-06,0.0032149928,0.0024757236,-0.004883189,0.016229158,0.011175638,-0.00043148134,-0.015631255,0.0016346298,0.0015497688,-0.020038536,0.0018109665,-0.011786777,-0.009342689,0.0084389,0.0037799748,-0.0018562753,-0.011107993,0.016891155,-0.0033483158,-0.00201594
dobaviti,0.70850396,-0.062736005,0.049349643,-0.06354502,0.023090657,0.07089791,0.07292313,-0.039642338,0.17695299,-0.23132917,-0.56488955,-0.23882905,0.05678037,0.07379347,-0.03721722,-0.0044205096,-0.014994438,0.022341212,0.030430771,-0.005632903,-0.023224484,-0.006643776,0.008826848,0.016011335,-0.00023668265,0.002859796,-0.011353062,-0.012131637,-0.007083904,0.0025432897,0.0016945597,0.0008253099,-0.0016482457,0.010921846,0.009327679,-0.0014828001,-0.009856693,0.003946358,0.00026057003,-0.013122527,-0.0021489002,-0.0061948863,-0.009754773,0.008516615,0.0054054107,-0.0014246682,-0.009975795,0.016189298,-0.008356318,0.0033385383
dobijati,0.08696473,0.96407884,-0.0057378993,-0.0031695499,-0.0020347433,-0.0014102063,-0.0027030357,0.0029057027,-0.0044292514,-0.0027946911,-0.0030565707,-0.0071803387,0.12121109,-0.11906813,0.010145672,-0.007682773,-0.007961811,0.00466661,-0.0027143874,0.020719232,-0.002959165,0.0056250677,-0.037027955,0.00813509,-0.0018449422,-0.0056044003,0.1613372,0.0062011136,-0.015351724,0.026149668,-0.04472493,0.032752026,0.032634977,0.011017901,-0.017362515,7.892646e-05,-0.00064888387,0.0060036154,-0.0043170387,0.00800859,-0.0005561158,-0.00065715396,-0.009442187,-0.0003870615,-0.00025460488,0.000257889,0.0027061715,-0.001973946,-0.00019011674,-0.001006948
dobiti,0.43242863,0.7024449,0.022376927,-0.035616312,0.010214408,0.033151537,0.036679436,-0.015260197,0.08639774,-0.12196336,-0.291751,-0.12278933,0.1425929,-0.072976366,-0.0029953697,-0.018950816,-0.0112512745,0.008709751,0.0035800769,0.017072404,-0.025312854,9.379834e-05,-0.02321197,0.022072459,-0.0029753693,-0.004732103,0.16563362,-0.012286406,-0.045016196,-0.06383031,-0.2962884,-0.183043,-0.07391441,-0.05260154,-0.02583057,0.003084229,0.009545428,-0.0006729283,-0.0052278372,0.007661556,-0.008070044,0.006823738,-0.0070404387,0.0041978788,-0.0002988074,-0.00038986385,-0.0004044533,0.001823355,0.0024540764,0.0028459914
dobivati,0.47144902,0.67821556,0.024930125,-0.039638914,0.009009515,0.034150176,0.039351434,-0.015979612,0.09545101,-0.13893667,-0.33269775,-0.14442702,0.19156364,-0.11904693,-0.0065046297,-0.04550823,-0.011542397,0.01574156,0.014679517,0.014963143,-0.0151706245,-0.0015596616,-0.022785595,0.013859512,-0.001875831,-0.007704137,0.2572231,0.004995495,-0.034328658,0.060872342,-0.10710562,0.06804838,0.08476038,0.023323946,-0.03867729,-0.005095587,-0.005154926,-0.024133136,-0.0057161665,0.0042820866,-0.0024066626,-0.0034652369,-0.02339071,0.0029628926,0.00086551753,-0.00018079733,-0.0047490927,0.007002591,-0.0030071335,0.0022033474
dodati,0.5287886,0.43493304,0.031583507,-0.04547728,0.013518024,0.045292724,0.04888346,-0.023853756,0.116911076,-0.15538721,-0.38902652,-0.16415411,0.029030023,0.066098206,-0.027729614,0.036608834,-0.013712818,0.017089723,0.02134575,0.025392337,-0.018536046,0.009838162,-0.04359781,0.016054304,0.0107096145,-0.011052897,0.24190332,-0.0048567853,-0.03558383,0.046949822,-0.07981606,0.06280872,0.069154605,0.031397715,-0.019511297,-0.0046157152,-0.028655997,0.025155937,-0.008964204,-0.025063904,0.012079456,0.0980898,0.45155168,0.012162533,-0.011772299,0.0054817856,-0.014338629,-0.0016097996,0.014655635,0.0072880806
dodavati,0.5924519,-0.05248062,0.042063706,-0.050968114,0.01523031,0.05486511,0.06690639,-0.02935602,0.14595732,-0.19245009,-0.47113332,-0.20019034,0.04807779,0.06147338,-0.031147571,-0.004201331,-0.011682374,0.0122331595,0.027545717,0.0025156746,-0.0163902,-0.0016290841,-0.0012501937,0.001953224,0.021763049,0.0007619026,-0.005403194,-0.017706534,-0.0075344853,-0.0042122747,0.008699068,0.002641077,-0.008137049,0.015579808,0.011051413,-0.002034416,-0.028659327,0.02399486,0.0020640334,-0.0235245,-0.0004746598,0.036979184,-0.032392044,0.009884067,0.031225055,-0.16096935,0.48885491,-0.16791534,0.06523064,0.017748125
dodeliti,0.7080013,-0.06298795,0.052543346,-0.059699487,0.025233896,0.061109595,0.072111845,-0.033533793,0.17289786,-0.23274879,-0.5732421,-0.2315407,0.052191876,0.06874329,-0.023436913,-0.004913743,-0.0135840885,0.014255938,0.032770388,0.0014280851,-0.022819834,-0.003275723,0.005221027,0.01609881,-0.00018209785,0.00026909565,-0.009009431,-0.010176357,-0.00675064,0.0013465254,0.001963258,0.00036357206,-0.0054972484,0.011790893,0.008896379,-0.00025368607,-0.011661912,0.001230337,0.0005231266,-0.013851001,-0.0025143842,-0.0035480217,-0.0049618646,0.007473011,0.0026174781,-0.0032368521,-0.006789393,0.013118881,0.0007653599,0.002865608
dodijeliti,0.70734906,-0.062893055,0.050718907,-0.06313696,0.025388382,0.061426997,0.07213996,-0.033474803,0.17240196,-0.23211224,-0.5727403,-0.23351781,0.055245876,0.07103906,-0.035759173,-0.005586514,-0.01307816,0.013364316,0.030450394,0.0015579012,-0.020699246,-0.0029578926,0.0046375976,0.014588004,-6.086465e-05,0.00034020792,-0.008696978,-0.009279775,-0.0049999193,0.002251633,0.0017187826,-0.0016106048,-0.006218372,0.008840275,0.007497536,-7.179282e-05,-0.009045061,0.0015316182,-0.00037772793,-0.011366713,-0.0036497642,-0.0010727873,-0.004751457,0.0072713704,0.0023448218,-0.0030420332,-0.0060571525,0.011873797,0.00085190847,0.0036647683
dodirati,0.70830804,-0.063043594,0.047783133,-0.06268532,0.0228144,0.070072144,0.07305183,-0.028410733,0.1700694,-0.23164986,-0.5727867,-0.23227654,0.052572753,0.06899079,-0.023505116,-0.0048648976,-0.013474429,0.014457552,0.03361635,0.0015687846,-0.023725335,-0.0033325579,0.0053191376,0.016675638,-0.00029508668,0.00034544241,-0.009203739,-0.011215666,-0.0075996756,0.0009821235,0.0024174035,0.001128246,-0.005266603,0.013462969,0.009629494,9.548452e-05,-0.012618589,0.0020971105,0.0008908832,-0.015839294,-0.0014593991,-0.004337102,-0.0063898647,0.0085532265,0.0037440397,-0.0025474657,-0.007610854,0.013415111,-0.0023326562,0.004527946
dodirnuti,0.70696235,-0.06283905,0.050146624,-0.06179588,0.021969814,0.06484495,0.07333591,-0.03381794,0.17321144,-0.23252472,-0.57291096,-0.23314859,0.05511442,0.07071569,-0.03561463,-0.0055979127,-0.012910364,0.01319289,0.03005131,0.0015393533,-0.020300107,-0.002811025,0.004571574,0.01415791,-6.799974e-05,0.00035602634,-0.008673616,-0.009053352,-0.00471662,0.0023327756,0.0015537662,-0.0018351023,-0.006335965,0.008383507,0.0070231543,-0.0003272454,-0.008556935,0.0018057275,-4.8349953e-06,-0.01116071,-0.0033419668,-0.00058177667,-0.0043352284,0.007738928,0.002108429,-0.0025900425,-0.0062882784,0.01128579,0.0006511701,0.0033925872
događati,0.70772475,-0.0629478,0.051168814,-0.06398162,0.025973076,0.06516572,0.06780269,-0.032761067,0.17111242,-0.2315061,-0.57248294,-0.2340455,0.055533465,0.071314335,-0.03596537,-0.005615949,-0.013137702,0.01358623,0.03099339,0.0015799925,-0.021232506,-0.003028837,0.0047547515,0.01501158,-5.322752e-05,0.0003589434,-0.008762085,-0.009790922,-0.005353305,0.002142896,0.001854544,-0.0012512322,-0.006121858,0.009511249,0.007953935,0.00012776034,-0.0096997395,0.001480021,-0.00046438831,-0.012128891,-0.0031390903,-0.0020374272,-0.0054094796,0.0073021026,0.002840537,-0.0032544897,-0.005935444,0.011605037,0.0003058829,0.0041368753
dogoditi,0.7080439,-0.06299458,0.05243594,-0.059219737,0.022343459,0.06845308,0.069069386,-0.033239577,0.17282648,-0.23318471,-0.57360494,-0.2242123,0.059661094,0.07444941,-0.037676867,-0.0057985117,-0.013340363,0.014003489,0.032204922,0.001475294,-0.022599032,-0.0030824426,0.0051539247,0.015892956,-0.0001291356,0.00031137103,-0.008991764,-0.010220829,-0.006305246,0.0015670934,0.0018382203,0.00013765678,-0.005795602,0.011357795,0.008370958,-6.2414765e-05,-0.011188257,0.0017494791,0.0006017041,-0.013796212,-0.0015527321,-0.004019738,-0.0046103923,0.00827347,0.0028169998,-0.0028697595,-0.006252884,0.011352346,9.867626e-05,0.0027174922
dogovoriti,0.7087424,-0.06311525,0.053491127,-0.06084769,0.023183363,0.071826614,0.076478995,-0.034633107,0.17289868,-0.22503227,-0.57114154,-0.2267399,0.061512064,0.075857654,-0.03879487,-0.0060496936,-0.013461647,0.015079819,0.03477918,0.0019613309,-0.025584387,-0.0033118988,0.005654673,0.018358072,-0.00046648554,0.00018234874,-0.009582953,-0.012533332,-0.00873173,0.001069279,0.0028942374,0.0035073913,-0.0041958033,0.017910441,0.01116553,-0.00055725605,-0.015639907,0.002228337,0.0032612933,-0.018775135,0.0019293878,-0.013739379,-0.010197399,0.009972704,0.006668636,-0.0015769303,-0.011855949,0.01968339,-0.0105543835,-0.0017111126
dograbiti,0.7077172,-0.06294275,0.052026376,-0.058499746,0.021846294,0.06487962,0.07384192,-0.034251705,0.17871986,-0.22669296,-0.5715546,-0.23484673,0.056050345,0.07131928,-0.03608854,-0.0057304157,-0.013255563,0.013410882,0.03122516,0.0016776079,-0.021390118,-0.0028348516,0.0048798597,0.01504508,-0.00014330514,0.00024279786,-0.008947092,-0.00996966,-0.0050427765,0.0026285097,0.0013559749,-0.0008999681,-0.0059475,0.009849563,0.007530791,-0.0011532028,-0.008696373,0.0016170187,0.00088417844,-0.011888249,-0.0027728945,-0.0023258103,-0.005076664,0.007941885,0.0028947478,-0.0022379286,-0.0070049977,0.012852936,-0.0015829552,0.002328686
dograditi,0.7037436,-0.06268793,0.053545695,-0.061715208,0.018515445,0.06793792,0.07089476,-0.038865037,0.17007105,-0.23645891,-0.56231326,-0.23312528,0.052317027,0.06919021,-0.022843752,-0.0052361577,-0.010580437,0.007693608,0.010946154,0.002348171,-0.033852242,-0.0045581604,0.007281776,0.021869523,-0.0014881634,0.0010271975,-0.0086667435,-0.017087573,-0.011743451,-0.007827271,0.009721188,0.010939595,0.0020740412,0.01946283,0.012053566,-0.0030458574,-0.018845547,0.00055263686,0.0017250734,-0.024706205,0.013129253,-0.016064811,-0.016999528,0.00912911,0.0037243387,-0.008362336,-0.02858055,0.036133025,-0.021887109,-0.10685307
dogurati,0.70805377,-0.06299355,0.052465286,-0.05923466,0.022252835,0.06671983,0.07923167,-0.034443524,0.16691203,-0.23020908,-0.5719659,-0.23492329,0.05596071,0.07158735,-0.036292054,-0.005897195,-0.012909267,0.014111667,0.031512048,0.0016089659,-0.022083124,-0.0029750383,0.004976533,0.015433904,-0.00034555822,0.00027699085,-0.009073248,-0.010258542,-0.006013163,0.0018631121,0.001714474,-0.0002904185,-0.005891513,0.011177394,0.0073793046,0.00043408028,-0.010638669,0.0015469991,-0.00026353565,-0.012286941,-0.0028548627,-0.0021637774,-0.005996209,0.008156141,0.0027793588,-0.001851859,-0.00811904,0.013511794,-0.00066505827,0.0037452527
dohvatiti,0.70843273,-0.062678926,0.048555106,-0.061294343,0.025478749,0.061733685,0.0730286,-0.034108765,0.1789997,-0.22698712,-0.5719526,-0.23237635,0.048478674,0.06380695,-0.04203474,-0.005027854,-0.0140828,0.014303991,0.033785123,0.002096852,-0.023610337,-0.0036823645,0.0024738421,0.017164443,0.0004873535,-0.00020160883,-0.0065803495,-0.012688497,-0.0069423444,0.0014452781,0.0048954515,-0.0010851362,-0.010494056,0.011626781,0.011473451,-0.00040355258,-0.013213116,0.012691388,0.00066977815,-0.017010214,-0.0021339078,0.008104545,-0.0033374273,0.010424226,0.0044963188,-0.008779281,0.010972593,0.009149944,0.00061474124,-0.004674595
dojaviti,0.70831287,-0.063076444,0.05224411,-0.06566126,0.026818778,0.06776993,0.07193669,-0.039448313,0.17545708,-0.22613922,-0.5714197,-0.22543375,0.06080828,0.07508393,-0.038121514,-0.0057798484,-0.0116005475,0.013070233,0.030361446,0.0009516887,0.008333186,0.0013165245,0.009523896,0.036226053,-0.0006564836,-3.3438782e-06,-0.008232519,-0.015752805,-0.008171762,-0.0006811968,0.0039158706,0.0014279824,-0.004361014,0.013689966,0.010092603,-0.004152968,-0.012772716,0.0015303694,0.0031492298,-0.014362423,-0.0052526463,-0.025569994,-0.004893564,0.0084088845,0.0033203592,-0.01508713,-0.007908251,0.015660655,-0.0030866081,0.0009300941
dojuriti,0.7083347,-0.06304035,0.051709075,-0.06474727,0.026230406,0.06437142,0.07911563,-0.03455974,0.16781464,-0.23151214,-0.57292145,-0.2251441,0.060173582,0.07513282,-0.038131934,-0.0058487477,-0.013189492,0.014681114,0.033082783,0.0017745111,-0.023775034,-0.003335109,0.005135605,0.016925229,-0.00032948813,0.0002951591,-0.009059111,-0.0104529755,-0.0074015316,0.0010429843,0.0028641706,0.0007045952,-0.0052435175,0.013050807,0.0093669165,0.0007727112,-0.012969486,0.001919519,0.000112805326,-0.013891551,-0.0025223228,-0.0048208265,-0.006263826,0.007558975,0.0028131413,-0.0032941175,-0.0073700473,0.014147341,0.0009884243,0.0032213782
dokazati,0.7086452,-0.06308638,0.049434263,-0.059221923,0.025321398,0.061354984,0.072776034,-0.03402515,0.17881203,-0.22684029,-0.5718953,-0.23257126,0.0486408,0.06367784,-0.042270556,-0.005872578,-0.013957221,0.014383868,0.034064163,0.0012778969,-0.023964971,-0.0041039716,0.004751939,0.017350066,-0.00034820946,9.4259114e-05,-0.009045802,-0.012833807,-0.0073103975,0.003247051,0.0010637718,0.0003271079,-0.006444902,0.011610349,0.00944824,-0.0010863793,-0.011666961,0.0013394936,0.00076033507,-0.01712673,-0.0040205447,-0.008632047,-0.0059985947,0.010822944,0.004794298,-0.003937534,-0.006701797,0.01883254,-0.0058536786,0.0004875082
dokazivati,0.70846623,-0.063053936,0.049208805,-0.05890875,0.025163326,0.060972255,0.07229419,-0.03378674,0.17767042,-0.22592036,-0.5712632,-0.23551309,0.05634598,0.07179386,-0.036348026,-0.005740689,-0.013502137,0.013664682,0.032041386,0.0017598779,-0.02228487,-0.003031924,0.0050380956,0.015886145,-0.0001711004,0.0001918684,-0.009079527,-0.010754231,-0.0058037727,0.0024358528,0.0016552539,-9.1642185e-05,-0.0056227236,0.011456651,0.00877334,-0.0011674686,-0.009360831,0.0010663908,0.0005875934,-0.01320678,-0.002934665,-0.004497855,-0.0065271477,0.007438084,0.0042023775,-0.0026030547,-0.0072452147,0.015567668,-0.0035357736,0.002208987
dokopati,0.7081357,-0.06300577,0.0489168,-0.05846996,0.024931982,0.060310632,0.07132093,-0.033189736,0.17160545,-0.23168848,-0.5725864,-0.23403515,0.05550741,0.071325816,-0.035958357,-0.005708201,-0.013268042,0.013548824,0.031043114,0.001496024,-0.021384856,-0.0030113023,0.004890864,0.015078958,-0.00013132118,0.00027078862,-0.0089122625,-0.01001691,-0.005560658,0.0020513318,0.0015462202,-0.0007591186,-0.0061076223,0.010194514,0.007872583,1.5502932e-06,-0.009532002,0.0010243439,-0.0006591744,-0.012462335,-0.0034158805,-0.00230357,-0.0053560976,0.0074091908,0.0031217113,-0.0027649656,-0.006523444,0.013393615,-0.00038875465,0.0036710158
dolaziti,0.7060993,-0.062013302,0.049991492,-0.060623683,0.01814528,0.06595259,0.0768785,-0.0323414,0.1732583,-0.22414674,-0.5688428,-0.22550316,0.060525466,0.0766601,-0.03882458,-0.0021024588,-0.022897782,0.0047528287,0.036718447,-0.0029609273,-0.02547948,-0.005369238,0.008256336,0.018022396,-0.00030089883,0.0008009904,-0.008402292,-0.013587025,-0.010664367,0.00064724224,0.011803935,-0.004673453,1.5612795e-05,0.009713785,0.027165137,-0.004875464,-0.016183438,0.0005014212,0.014487016,-0.04036703,0.00435957,-0.022244914,-0.0149224,0.009846736,0.010133802,0.0010219378,-0.023310183,0.046965495,-0.043928433,-0.044078264
doleteti,0.5843837,-0.0521044,0.045433525,-0.05311204,0.018669583,0.0548248,0.061365616,-0.02796123,0.1378067,-0.19136092,-0.47235814,-0.18039036,0.04026025,0.052810166,-0.025334217,-0.0042946995,-0.011552263,0.013513415,0.030449767,0.0009486088,-0.016364751,-0.0031537835,-0.0036564474,-0.008495246,0.04582883,0.0009793451,-0.009536347,-0.02993384,-0.021541059,-0.011823011,0.0039920313,0.024120761,0.0047613187,0.056954395,0.044818778,-0.054082964,0.5574245,0.013405061,-0.007691387,0.02445707,-0.00041192153,0.027874833,0.01125662,0.002364253,0.0025027317,0.002077675,0.008008549,-0.0011660054,0.002506377,0.0016958435
dolikovati,0.70803064,-0.06258222,0.05116963,-0.06347335,0.022853462,0.06969605,0.070161425,-0.033702374,0.17454216,-0.23456004,-0.57440025,-0.22118431,0.055641636,0.07212334,-0.024892733,-0.0026661437,-0.0055147177,0.011068456,0.03387752,-0.001430019,-0.0068294164,-0.0014085252,0.008732204,0.025960628,-0.0003219962,0.00088960835,-0.009877815,-0.012360277,-0.007903567,0.0002634742,0.0019118267,0.0011851086,-0.00424692,0.012158515,0.008897594,-0.0019029175,-0.012561105,0.0020662658,0.0020302797,-0.014590225,-0.0027360802,-0.009143605,-0.0036849813,0.008631836,0.0018871287,-0.0062250625,-0.0061138812,0.010535649,0.001380912,0.0021858667
dominirati,0.70696235,-0.06283905,0.050146624,-0.06179588,0.021969814,0.06484495,0.07333591,-0.03381794,0.17321144,-0.23252472,-0.57291096,-0.23314859,0.05511442,0.07071569,-0.03561463,-0.0055979127,-0.012910364,0.01319289,0.03005131,0.0015393533,-0.020300107,-0.002811025,0.004571574,0.01415791,-6.799974e-05,0.00035602634,-0.008673616,-0.009053352,-0.00471662,0.0023327756,0.0015537662,-0.0018351023,-0.006335965,0.008383507,0.0070231543,-0.0003272454,-0.008556935,0.0018057275,-4.8349953e-06,-0.01116071,-0.0033419668,-0.00058177667,-0.0043352284,0.007738928,0.002108429,-0.0025900425,-0.0062882784,0.01128579,0.0006511701,0.0033925872
domoći,0.70734906,-0.062893055,0.050718907,-0.06313696,0.025388382,0.061426997,0.07213996,-0.033474803,0.17240196,-0.23211224,-0.5727403,-0.23351781,0.055245876,0.07103906,-0.035759173,-0.005586514,-0.01307816,0.013364316,0.030450394,0.0015579012,-0.020699246,-0.0029578926,0.0046375976,0.014588004,-6.086465e-05,0.00034020792,-0.008696978,-0.009279775,-0.0049999193,0.002251633,0.0017187826,-0.0016106048,-0.006218372,0.008840275,0.007497536,-7.179282e-05,-0.009045061,0.0015316182,-0.00037772793,-0.011366713,-0.0036497642,-0.0010727873,-0.004751457,0.0072713704,0.0023448218,-0.0030420332,-0.0060571525,0.011873797,0.00085190847,0.0036647683
donositi,0.5855885,-0.052019175,0.042833813,-0.05278514,0.018695438,0.055030353,0.06176893,-0.02822235,0.14028592,-0.18933943,-0.47247607,-0.18040513,0.03986799,0.052952766,-0.025146268,-0.0034688255,-0.011728793,0.01393665,0.029651022,0.0012304577,-0.01070646,-0.0027998833,-0.0068498263,-0.030405607,-0.050177604,0.0005579315,0.015584895,-0.019590618,0.48090526,-0.17368147,-0.04668839,0.017930664,0.15841733,-0.07532033,-0.022102628,-0.13583648,-0.006105409,0.047319803,-8.2732746e-05,0.0032194366,-0.053289346,0.009648626,-0.0026634326,0.004493226,0.004401828,0.007171035,-0.001278579,0.004987381,0.0014923757,0.03128707
dopadati,0.5869061,-0.05229615,0.04146903,-0.049591657,0.019011836,0.05886349,0.061772346,-0.024141854,0.1482104,-0.19246496,-0.4676602,-0.1950786,0.04059055,0.053331546,-0.03589047,-0.00482141,-0.011944526,0.012145367,0.028347462,0.0011219096,-0.01792142,-0.0032345965,0.0035439061,0.011607174,0.00054320664,0.00042638733,-0.009667077,0.07167057,-0.013426353,-0.009080152,0.002116384,0.0026203492,-0.0036392873,0.009297799,0.0036389742,-0.013417737,-0.00867313,0.003196358,-0.059562016,-0.06711827,-0.03350948,-0.019247934,-0.015935851,-0.40020046,-0.334832,0.016860759,-0.00039053112,0.025460014,0.1684194,0.00089581776
dopati,0.70696235,-0.06283905,0.050146624,-0.06179588,0.021969814,0.06484495,0.07333591,-0.03381794,0.17321144,-0.23252472,-0.57291096,-0.23314859,0.05511442,0.07071569,-0.03561463,-0.0055979127,-0.012910364,0.01319289,0.03005131,0.0015393533,-0.020300107,-0.002811025,0.004571574,0.01415791,-6.799974e-05,0.00035602634,-0.008673616,-0.009053352,-0.00471662,0.0023327756,0.0015537662,-0.0018351023,-0.006335965,0.008383507,0.0070231543,-0.0003272454,-0.008556935,0.0018057275,-4.8349953e-06,-0.01116071,-0.0033419668,-0.00058177667,-0.0043352284,0.007738928,0.002108429,-0.0025900425,-0.0062882784,0.01128579,0.0006511701,0.0033925872
dopiti,0.7084443,-0.063048586,0.053077906,-0.06066811,0.025908174,0.06520353,0.06820949,-0.033180352,0.17669563,-0.2254788,-0.5710523,-0.23582159,0.056517668,0.071960546,-0.036471274,-0.0057554045,-0.01351985,0.013845844,0.03231348,0.0017332337,-0.022519007,-0.0030766337,0.0051206895,0.01610763,-0.00013638967,0.00022981605,-0.009099349,-0.011035052,-0.0058979224,0.0024668225,0.0016848246,0.00010930703,-0.0055624014,0.01174559,0.008915301,-0.0008198601,-0.010279537,0.0010979868,0.0006006856,-0.013560118,-0.0022309502,-0.005222005,-0.006984567,0.0073890532,0.004421592,-0.0030740136,-0.0068544284,0.014241941,-0.003462919,0.0028654435
doploviti,0.7080878,-0.06299871,0.048616234,-0.05753104,0.021636322,0.064370096,0.07331133,-0.03394177,0.17503677,-0.23859428,-0.56705755,-0.2363122,0.056009512,0.07209385,-0.036354203,-0.0056262324,-0.013723193,0.013867581,0.03156837,0.0015806173,-0.021758009,-0.0029481025,0.0053178966,0.01518905,-0.0002947517,0.0007754538,-0.00854566,-0.010921875,-0.0053285165,0.0013920374,0.002275453,-0.00032963703,-0.005676219,0.009630145,0.007379221,3.6047086e-06,-0.008667543,0.0014927669,-0.0008361514,-0.012339759,-0.0035178857,-0.0016277642,-0.0060770633,0.008106678,0.0036412475,-0.0017510607,-0.007585998,0.014147,-0.0032703576,0.004356938
dopratiti,0.707317,-0.06289038,0.050516278,-0.062417723,0.022291439,0.066207565,0.077203296,-0.029172907,0.17083843,-0.2315933,-0.5725332,-0.23379168,0.055392668,0.07109826,-0.035875052,-0.005613354,-0.013001262,0.013376494,0.030615458,0.0015193573,-0.02090437,-0.0029166967,0.004726572,0.014610687,-0.00017523744,0.0003555379,-0.008864034,-0.009653914,-0.0051214714,0.0022535836,0.0015527003,-0.0012719673,-0.006215784,0.009366083,0.007110407,0.00017269763,-0.009228996,0.0019131892,-0.00023106798,-0.011532626,-0.0034734234,-0.00047070242,-0.004844938,0.007821172,0.002461624,-0.0024156617,-0.0066033187,0.012145492,-0.00016489415,0.0041215355
dopremati,0.70828086,-0.06302797,0.05154111,-0.064381935,0.025987308,0.06304834,0.074372455,-0.0347135,0.18218444,-0.23393075,-0.5663364,-0.2347948,0.04915475,0.064660616,-0.042500667,-0.0056455215,-0.014393453,0.014684049,0.03432665,0.0014640122,-0.023957396,-0.0041010366,0.005011077,0.01731534,-0.00041959554,0.00070701516,-0.008414549,-0.012983164,-0.0065779747,0.002471772,0.0024312485,-7.5157375e-05,-0.0058621033,0.009725659,0.008909261,-0.00058015407,-0.010457652,0.002054461,-2.5577132e-05,-0.01484068,-0.004927126,-0.0055276714,-0.006653369,0.009692955,0.0043124305,-0.0037004182,-0.006798238,0.017133152,-0.005547703,0.0030518097
doprineti,0.70696235,-0.06283905,0.050146624,-0.06179588,0.021969814,0.06484495,0.07333591,-0.03381794,0.17321144,-0.23252472,-0.57291096,-0.23314859,0.05511442,0.07071569,-0.03561463,-0.0055979127,-0.012910364,0.01319289,0.03005131,0.0015393533,-0.020300107,-0.002811025,0.004571574,0.01415791,-6.799974e-05,0.00035602634,-0.008673616,-0.009053352,-0.00471662,0.0023327756,0.0015537662,-0.0018351023,-0.006335965,0.008383507,0.0070231543,-0.0003272454,-0.008556935,0.0018057275,-4.8349953e-06,-0.01116071,-0.0033419668,-0.00058177667,-0.0043352284,0.007738928,0.002108429,-0.0025900425,-0.0062882784,0.01128579,0.0006511701,0.0033925872
doprinositi,0.70696235,-0.06283905,0.050146624,-0.06179588,0.021969814,0.06484495,0.07333591,-0.03381794,0.17321144,-0.23252472,-0.57291096,-0.23314859,0.05511442,0.07071569,-0.03561463,-0.0055979127,-0.012910364,0.01319289,0.03005131,0.0015393533,-0.020300107,-0.002811025,0.004571574,0.01415791,-6.799974e-05,0.00035602634,-0.008673616,-0.009053352,-0.00471662,0.0023327756,0.0015537662,-0.0018351023,-0.006335965,0.008383507,0.0070231543,-0.0003272454,-0.008556935,0.0018057275,-4.8349953e-06,-0.01116071,-0.0033419668,-0.00058177667,-0.0043352284,0.007738928,0.002108429,-0.0025900425,-0.0062882784,0.01128579,0.0006511701,0.0033925872
dopuniti,0.7080927,-0.063002706,0.051819265,-0.06573292,0.021876404,0.063102365,0.06677666,-0.03245457,0.17037407,-0.23109722,-0.57231236,-0.23442875,0.05571592,0.07154613,-0.036122564,-0.005619281,-0.013219137,0.013754072,0.031476982,0.0015885981,-0.021706956,-0.0030960285,0.0048645106,0.015369355,-4.0599203e-05,0.00037392284,-0.008894346,-0.010420301,-0.005851433,0.0018373948,0.0020854136,-0.0008763466,-0.006020431,0.010278781,0.0085280705,-3.8440085e-05,-0.0105461115,0.0014602549,-0.00048925634,-0.013235473,-0.0030096609,-0.0022899017,-0.006363946,0.0066391607,0.0026707426,-0.0032911308,-0.0063540805,0.012622805,-0.00012854693,0.004130352
dopustiti,0.58497345,-0.05214329,0.04209679,-0.051650118,0.018199598,0.053274564,0.05877163,-0.022914173,0.14100254,-0.19607945,-0.46662527,-0.19373895,0.03986591,0.05312015,-0.03582645,-0.0047715516,-0.011985926,0.012394174,0.028330794,0.0008620888,-0.017994663,-0.0035209875,0.003574868,0.011654052,0.00066773506,0.00052908115,-0.010049604,0.086445905,-0.017224258,-0.015429626,0.0033421481,0.0049509783,-0.0034112267,0.0118213715,0.0037738127,-0.01921653,-0.021402592,0.00048336905,0.47176263,0.28796595,0.04071678,0.0075903162,0.0070908978,0.002002294,-0.047282733,0.0047898046,-0.004819413,0.012964015,0.061241824,-0.0005257502
doputovati,0.707317,-0.06289038,0.050516278,-0.062417723,0.022291439,0.066207565,0.077203296,-0.029172909,0.17083843,-0.2315933,-0.5725332,-0.23379168,0.055392668,0.07109826,-0.035875052,-0.005613354,-0.013001262,0.013376494,0.030615458,0.0015193573,-0.02090437,-0.0029166967,0.004726572,0.014610687,-0.00017523742,0.0003555379,-0.008864034,-0.009653914,-0.0051214704,0.0022535836,0.0015527003,-0.0012719674,-0.0062157842,0.009366083,0.007110407,0.00017269753,-0.009228996,0.0019131892,-0.00023106793,-0.011532626,-0.0034734234,-0.00047070248,-0.004844937,0.007821172,0.002461624,-0.0024156617,-0.0066033187,0.012145492,-0.00016489397,0.004121535
dopuštati,0.6742942,-0.060065076,0.051596276,-0.060061168,0.020998923,0.061290227,0.06740556,-0.026281036,0.16047677,-0.21975681,-0.5444002,-0.22053629,0.045468383,0.06027944,-0.04036342,-0.0055774474,-0.012984956,0.013562374,0.031009432,0.00086678145,-0.019278653,-0.0037563688,0.003492883,0.01245812,0.00086241774,-5.4051838e-05,-0.011198666,0.07134867,-0.013960942,-0.0074031083,0.0008697838,0.00040412298,-0.0061431313,0.009710395,0.004813623,-0.008523085,-0.013757143,0.0013905797,-0.0345151,-0.04102597,-0.016593553,-0.0025501207,-0.0038634806,0.011595446,0.07655387,-0.023034476,-0.00021319375,-0.018626017,-0.28140754,0.051137026
dorasti,0.706298,-0.06292099,0.049049962,-0.06599033,0.022210976,0.06457068,0.069715805,-0.038536534,0.169411,-0.23652436,-0.5639431,-0.23440793,0.04879974,0.06452346,-0.043154445,-0.0058407574,-0.014167537,0.015852433,0.035744134,0.0014759875,-0.026029205,-0.004520086,0.0052997544,0.018938685,-0.00061160594,0.00088753004,-0.0084751155,-0.015952269,-0.0100596575,0.00024122492,0.004580573,0.0025118052,-0.005355712,0.014193087,0.012530154,0.0012708989,-0.017963117,0.0018007696,-0.0032684258,-0.027592633,-0.0050247386,-0.020157823,-0.01908582,0.014556555,0.011305834,-0.0072764084,-0.0175016,0.051099055,-0.047773544,0.046947155
dosaditi,0.7077586,-0.06295251,0.048348702,-0.057142448,0.021465262,0.06379542,0.07254779,-0.033543203,0.17244485,-0.23211949,-0.5727687,-0.23364736,0.055366922,0.07098602,-0.035804562,-0.0057173884,-0.013084206,0.013360481,0.030598871,0.0014784287,-0.020919835,-0.0028487416,0.004804568,0.0145763485,-0.00013522788,0.000292969,-0.008869159,-0.009691928,-0.005173085,0.0021703136,0.0013643436,-0.001125841,-0.0062632905,0.0094785085,0.007239379,-0.00032600376,-0.008856777,0.0014426348,-0.00013696967,-0.01203501,-0.0030495818,-0.0014690972,-0.0047136634,0.008009538,0.0026705954,-0.002201883,-0.0067533795,0.0123178065,-0.0004330148,0.0032899047
doseliti,0.70839286,-0.063047856,0.053095482,-0.060949728,0.018187163,0.06639853,0.06804408,-0.032934118,0.17209585,-0.23278783,-0.57343566,-0.22443351,0.059922043,0.07474266,-0.037870828,-0.005806123,-0.013430809,0.014191133,0.03274677,0.0014798514,-0.023162669,-0.0031555912,0.0052934727,0.016324898,-0.00012061259,0.00032399961,-0.009155781,-0.0109550785,-0.006967688,0.0011450828,0.002098222,0.0007595514,-0.0056334347,0.01251224,0.009101346,-0.00028701857,-0.0124349035,0.0017767487,0.0007902347,-0.015477425,-0.0010460236,-0.0047753425,-0.005600717,0.0076885205,0.0025968284,-0.0028112824,-0.006875056,0.012587283,-0.00052660477,0.0022463475
dosetiti,0.70763826,-0.06297312,0.051441327,-0.06423322,0.025928708,0.062826596,0.07409625,-0.034569807,0.18141225,-0.23306811,-0.56532073,-0.23693642,0.056299105,0.07220484,-0.03632084,-0.0054929033,-0.013532621,0.013068382,0.029583054,0.0018073581,-0.012405315,-0.0015398043,-0.00030289075,-0.01291319,-0.02713545,0.0009730692,-0.008418805,-0.016190495,-0.013610579,0.002772884,0.0008251842,-0.00085848797,-0.008026209,0.020116702,0.018673662,-0.0034138935,-0.00940373,0.00078727683,0.0013820858,-0.013159911,-0.0060973004,-0.0017066044,-0.007586801,0.007205066,0.003210532,-0.0066854046,-0.00856855,0.016462937,-0.0048668245,0.005400228
dosezati,0.70696235,-0.06283905,0.050146624,-0.06179588,0.021969814,0.06484495,0.07333591,-0.03381794,0.17321144,-0.23252472,-0.57291096,-0.23314859,0.05511442,0.07071569,-0.03561463,-0.0055979127,-0.012910364,0.01319289,0.03005131,0.0015393533,-0.020300107,-0.002811025,0.004571574,0.01415791,-6.799974e-05,0.00035602634,-0.008673616,-0.009053352,-0.00471662,0.0023327756,0.0015537662,-0.0018351023,-0.006335965,0.008383507,0.0070231543,-0.0003272454,-0.008556935,0.0018057275,-4.8349953e-06,-0.01116071,-0.0033419668,-0.00058177667,-0.0043352284,0.007738928,0.002108429,-0.0025900425,-0.0062882784,0.01128579,0.0006511701,0.0033925872
dosećati,0.53680027,0.46549544,0.033178005,-0.04416067,0.015348534,0.04540892,0.050895683,-0.02416502,0.12955138,-0.16561553,-0.39198813,-0.16542853,-0.0032936516,0.10026494,-0.035548817,0.14575954,0.4089984,-0.13440377,0.13349696,-0.11722183,-0.034339678,-0.028083352,0.05726413,-0.03140132,-0.015663166,0.020607488,-0.050304055,-0.0100559965,-0.013024573,0.0132779535,-0.025388658,0.007675076,0.019630576,0.010969991,0.0013902214,-0.007336276,-0.0054081376,-0.016626973,0.0015680897,-0.008245335,-0.005974149,-7.020965e-05,-0.012584994,0.0049679237,0.0019545944,-0.0037755063,-0.0075231628,0.009780747,-0.0035409299,-0.00017987419
doseći,0.70840126,-0.06304693,0.05322531,-0.06146998,0.02111701,0.05906359,0.07122213,-0.033305176,0.17256762,-0.23297516,-0.5735192,-0.22428185,0.05976501,0.074804656,-0.037812524,-0.0057628285,-0.013557034,0.014148978,0.032620672,0.0014775738,-0.023054454,-0.0032536378,0.0052441335,0.016383905,-0.00012025479,0.00028218972,-0.009110941,-0.010658992,-0.0069460124,0.0011585652,0.0021802224,0.00064974447,-0.0055730483,0.012370037,0.009274559,-0.00012908236,-0.0123788,0.0013674796,0.00023388669,-0.014776782,-0.0023600087,-0.0043095564,-0.0054391,0.006705303,0.0023256063,-0.0034296215,-0.0065780715,0.014261807,0.0007838556,0.0020937186
dospevati,0.70735914,-0.062892266,0.051720552,-0.05806711,0.021642502,0.064194605,0.07286992,-0.033661,0.17277755,-0.2322928,-0.57281864,-0.23341922,0.055244777,0.070874214,-0.03571757,-0.005699442,-0.013042357,0.013309833,0.030314649,0.0014364492,-0.020604134,-0.0028244862,0.0047551603,0.014362576,-0.00010935574,0.000309344,-0.008812295,-0.009404846,-0.0049051936,0.0022986226,0.0012968583,-0.0013560876,-0.006303421,0.009010995,0.0069557857,-0.00024267664,-0.008904298,0.001518924,-8.375192e-05,-0.011502794,-0.0031481527,-0.0010130659,-0.004421131,0.007849506,0.0023226126,-0.0024061913,-0.0065378277,0.011760312,0.0002676455,0.0032892327
dostaviti,0.70843446,-0.06183469,0.0523185,-0.06493428,0.02077505,0.064745344,0.06774152,-0.032847617,0.17256916,-0.2356401,-0.5689959,-0.2354673,0.06005451,0.06689931,-0.035437323,-0.0068666786,-0.010877473,0.0071460586,0.00935046,0.0031225325,-0.029472992,-0.0036373106,-0.0032715881,0.02082926,-0.0012403239,-0.012534634,-0.016090285,-0.014310792,-0.0072875717,-0.0019048883,0.0035941522,0.0047228266,-0.0009470539,0.012030036,0.0069092857,-0.0017381508,-0.011540319,-0.0025756906,0.00014140547,-0.015929181,0.0022513557,0.0060131387,-0.006009835,0.0068680355,0.0020526513,-0.0071262466,0.001345687,0.008933683,0.00094226067,-0.00036241306
dostavljati,0.7084166,-0.061845068,0.05227821,-0.06492774,0.020664081,0.06485929,0.06778149,-0.032854035,0.17257136,-0.23559216,-0.5690727,-0.23544005,0.060396668,0.066498965,-0.03539153,-0.0071490514,-0.01082307,0.007127915,0.009374166,0.0029962356,-0.02942225,-0.0037356406,-0.0028933468,0.02070637,-0.0012589078,-0.01230191,-0.016356712,-0.014243611,-0.007256073,-0.0017247208,0.003255718,0.0047608553,-0.00068159885,0.01195681,0.006679392,-0.0018005426,-0.011394233,-0.0033107097,0.00020086729,-0.015850559,0.0021455314,0.0054256795,-0.006059923,0.0068954597,0.0019693102,-0.0068243304,0.0005461564,0.009185207,0.00070644566,-8.226942e-05
dostignuti,0.7073491,-0.062893055,0.050718907,-0.06313696,0.025388386,0.061426997,0.07213996,-0.033474803,0.17240196,-0.23211227,-0.5727403,-0.23351781,0.055245876,0.071039066,-0.035759177,-0.005586514,-0.01307816,0.013364316,0.030450394,0.0015579014,-0.020699248,-0.0029578926,0.0046375976,0.014588004,-6.086466e-05,0.00034020797,-0.008696978,-0.009279776,-0.00499992,0.0022516332,0.0017187826,-0.001610605,-0.006218373,0.008840275,0.007497536,-7.179282e-05,-0.009045062,0.0015316182,-0.00037772793,-0.011366713,-0.0036497647,-0.0010727873,-0.004751457,0.007271371,0.002344822,-0.0030420336,-0.006057153,0.011873798,0.0008519084,0.0036647688
dostizati,0.69781506,-0.062103476,0.051074274,-0.06462058,0.021276437,0.059300426,0.071297586,-0.033376493,0.17550711,-0.22289567,-0.56294185,-0.23147215,0.05511361,0.07038373,-0.03553596,-0.005495171,-0.012893382,0.012943142,0.029952481,0.0017654317,-0.018993173,-0.0024330618,0.004295264,0.013129654,0.0004898612,0.0003203008,-0.009187316,-0.005413809,-0.004445256,0.006341453,0.0017847489,-0.0013385199,-0.0062832553,0.011506559,0.01212827,0.008118429,-0.011294313,0.0006544749,-0.0043134773,-0.017085753,0.01761516,-0.014056665,-0.008365954,0.00823349,0.033386957,0.1545368,0.0345698,0.013955385,0.03131709,0.034457877
dostići,0.7080749,-0.062998444,0.051668942,-0.06535116,0.021521252,0.059999924,0.072129294,-0.033770625,0.17768718,-0.22603399,-0.57128984,-0.2353449,0.05624333,0.071722075,-0.03629141,-0.0056182495,-0.013378766,0.01363101,0.03186137,0.0018213692,-0.0219758,-0.0030388918,0.0048659653,0.015655685,-8.176562e-05,0.00028498206,-0.008960362,-0.010467544,-0.005623308,0.0023217709,0.0020500054,-0.0007989801,-0.005718113,0.01044598,0.00873649,-0.0012807791,-0.009577942,0.0016356591,0.00069470826,-0.012770836,-0.0032599084,-0.0027129285,-0.006422597,0.00659714,0.002767615,-0.0029652258,-0.006966389,0.0143093355,-0.0015982887,0.002437788
dosuditi,0.7083642,-0.06304065,0.053045765,-0.060794093,0.017980415,0.06407629,0.07662562,-0.028970143,0.17220342,-0.23746772,-0.56642735,-0.23716995,0.056370445,0.07263155,-0.036708046,-0.005629733,-0.013885101,0.014202477,0.032415178,0.0015172241,-0.022640893,-0.003109906,0.0056047104,0.01588547,-0.00039851453,0.000836273,-0.008856261,-0.012194987,-0.0061154184,0.0009940583,0.002472583,0.0007987469,-0.0053725448,0.011434465,0.0076984297,0.00066002255,-0.010623038,0.0016909273,-0.0012487232,-0.013640705,-0.0037610324,-0.0010946079,-0.007857088,0.007411636,0.0037929388,-0.0013346003,-0.008886395,0.017023062,-0.0054385057,0.0058275578
dotaknuti,0.70734054,-0.06289396,0.050591163,-0.06262665,0.0225244,0.06858117,0.06905033,-0.033115033,0.1719465,-0.23193216,-0.5726601,-0.23366216,0.055394646,0.07098033,-0.03581416,-0.0056269434,-0.012963134,0.013402541,0.0305646,0.0015599229,-0.02079369,-0.0028725432,0.004679558,0.014537984,-6.116435e-05,0.0003745852,-0.008732472,-0.009508082,-0.005016098,0.002241973,0.001660498,-0.0015332723,-0.0062606796,0.00893877,0.007379877,-0.0001776742,-0.009082117,0.001793248,-3.3180757e-05,-0.011798985,-0.0028580814,-0.0013508588,-0.004847199,0.007831997,0.0024968074,-0.0027025433,-0.006219625,0.010967826,0.00015939165,0.0037419193
doterati,0.7043902,-0.06272714,0.051959883,-0.06557795,0.018899066,0.06876121,0.07283892,-0.028381892,0.17128848,-0.23656707,-0.5629387,-0.23486713,0.05515476,0.0714782,-0.03585149,-0.00577337,-0.010166432,0.005817175,0.0070492886,0.0022190239,-0.026159408,-0.0036872001,0.0052966606,0.014826819,3.638225e-07,0.0008486928,-0.010578181,0.06295666,-0.012411435,-0.012506996,0.0070142252,0.004259262,-0.0006304122,0.008842369,0.0038960292,-0.009443062,-0.007765363,0.0019306873,-0.02361794,-0.025414284,-0.0050279517,0.005945246,-0.006259934,0.006381008,0.035779107,-0.010587507,-0.0074984464,-0.00311726,-0.07871716,0.005443083
doticati,0.5864412,-0.051984858,0.04183533,-0.051140655,0.017814834,0.05038413,0.06314261,-0.024001976,0.14697008,-0.1913625,-0.46680465,-0.19675481,0.044141237,0.057589125,-0.033566613,-0.004120341,-0.012382153,0.012554456,0.02950539,0.0019974404,-0.021555975,-0.002890622,0.0031280569,0.016180506,-0.0005926209,0.0007581041,-0.004829712,-0.014116177,-0.007497668,-0.0014245256,0.0077547403,0.0032097793,-0.009643846,0.016613867,0.013689461,0.0019060626,-0.014715629,0.026280854,-0.0063963216,-0.01813036,-0.008527898,-0.024724973,-0.02763153,0.012606628,0.045319576,0.011370991,-0.21993259,-0.5018923,0.11034334,-0.0011569109
dotrajati,0.70734906,-0.062893055,0.050718907,-0.06313696,0.025388382,0.061426997,0.07213996,-0.033474803,0.17240196,-0.23211224,-0.5727403,-0.23351781,0.055245876,0.07103906,-0.035759173,-0.005586514,-0.01307816,0.013364316,0.030450394,0.0015579012,-0.020699246,-0.0029578926,0.0046375976,0.014588004,-6.086465e-05,0.00034020792,-0.008696978,-0.009279775,-0.0049999193,0.002251633,0.0017187826,-0.0016106048,-0.006218372,0.008840275,0.007497536,-7.179282e-05,-0.009045061,0.0015316182,-0.00037772793,-0.011366713,-0.0036497642,-0.0010727873,-0.004751457,0.0072713704,0.0023448218,-0.0030420332,-0.0060571525,0.011873797,0.00085190847,0.0036647683
dotrčati,0.7083906,-0.06304478,0.053067505,-0.060835164,0.018013427,0.064189814,0.07684224,-0.029169016,0.17566071,-0.22515076,-0.57091975,-0.23593964,0.05655362,0.07196689,-0.03653504,-0.0057559013,-0.013453858,0.01378781,0.03239574,0.0016738899,-0.022639886,-0.003018245,0.005203588,0.01601336,-0.0002686881,0.0002417315,-0.009371672,-0.011548597,-0.006141615,0.0022754332,0.0015222641,0.0005071812,-0.0055803796,0.012416512,0.008337497,-0.00094619807,-0.010557767,0.001752079,0.0009474249,-0.013928562,-0.0026278961,-0.0029064866,-0.007204591,0.0074694892,0.0035309603,-0.0015926376,-0.008608924,0.016545655,-0.0049171965,0.0028262846
dotući,0.70810986,-0.06300087,0.05296085,-0.061113924,0.020980982,0.058642138,0.070668526,-0.033011813,0.17122446,-0.23146704,-0.57247424,-0.23417737,0.055560477,0.07143594,-0.036022086,-0.0056951144,-0.013303319,0.013655191,0.031210199,0.0014551817,-0.021499783,-0.003043421,0.004948476,0.015174066,-9.466294e-05,0.00029990706,-0.008987018,-0.010298447,-0.005717947,0.0019072713,0.0016348924,-0.0006556232,-0.0060738055,0.010369596,0.00798859,-0.00012174806,-0.010316258,0.0010990622,-0.0005570288,-0.012837678,-0.003404308,-0.001828004,-0.0057789157,0.0066636745,0.0024243258,-0.0028673739,-0.006809882,0.013764646,2.933832e-05,0.0034550799
dovesti,0.5850446,-0.051239237,0.04243103,-0.052206967,0.01841714,0.05401876,0.059353635,-0.02790364,0.14483742,-0.18646528,-0.4715621,-0.18220317,0.04255924,0.056880597,-0.023635415,6.2591823e-07,-0.01938445,0.006964968,0.03144613,0.00010885086,-0.016088404,0.011649498,0.0059746206,-0.02137786,-0.039768,0.00092892273,-0.0006827245,-0.03284242,-0.061972883,-0.004565499,0.17729999,-0.23173073,0.15299988,-0.02093888,-0.4462488,0.062843494,0.030463068,0.026547214,-0.030828748,0.046182074,-0.00577675,0.019492118,0.0023580238,0.0040666903,0.0008232066,0.003507998,-0.00016209623,0.001593438,0.004717616,0.0031392786
doviknuti,0.706977,-0.06291673,0.051170677,-0.06347923,0.022895962,0.06977213,0.07037674,-0.03389287,0.1786445,-0.22650251,-0.5707479,-0.23365974,0.055416785,0.07055804,-0.035444163,-0.005578849,-0.012301056,0.01167634,0.025879886,0.001751464,-0.003189064,-7.520456e-05,-0.0077239764,-0.035586704,0.007560541,0.0011399285,-0.009330299,-0.020992517,-0.013683494,0.0022331115,-0.0010963982,-0.0022297928,-0.008242166,0.017877553,0.015765538,-0.005910793,-0.019043338,-0.0010574221,0.003519735,-0.013092834,-0.0073656742,-0.0036678002,-0.010068391,0.008225564,0.00076466525,-0.008080378,-0.016442856,0.015686484,-0.003036732,0.007104584
dovoditi,0.5847263,-0.05156674,0.04185437,-0.050894335,0.01536765,0.05687805,0.06017888,-0.028154185,0.145703,-0.18712199,-0.47189254,-0.18170536,0.040578425,0.053966448,-0.025910517,-0.0016035947,-0.018752707,0.0067744143,0.034555286,-0.0020374444,-0.025457105,-0.0056850184,0.0072183423,0.018639425,-0.0006078753,4.466337e-05,0.00023927834,-0.016714016,-0.020462159,-0.0010165304,0.05535682,-0.04593561,0.026038112,-0.036439806,0.12715258,-0.035140056,-0.048282593,-0.18808268,-0.27550253,0.42004523,-0.03169391,0.08177268,0.0114850635,-0.0043392614,-0.0023724134,-5.8323225e-05,0.0041820286,-0.0047608656,0.0101913875,0.006055829
dovoziti,0.7080812,-0.06299828,0.052737467,-0.060342826,0.017799571,0.063269526,0.07431865,-0.038890146,0.16863033,-0.23077358,-0.5721979,-0.23463066,0.055847824,0.071412325,-0.03617204,-0.005884012,-0.012886981,0.014070784,0.031362202,0.0016375426,-0.02185404,-0.0029162606,0.004903951,0.015239273,-0.00021352981,0.00029232076,-0.008977068,-0.010112534,-0.0059591206,0.0016773804,0.0019106658,-0.0006886488,-0.0059665916,0.0105634425,0.0077154734,-0.00043689337,-0.010448825,0.001437189,9.293115e-05,-0.012727271,-0.0025828914,-0.0023007158,-0.0060500973,0.0074649914,0.001958019,-0.001994758,-0.008162117,0.013219377,0.00016980164,0.0024680234
dovršiti,0.7086496,-0.0630911,0.048338797,-0.06403184,0.026313921,0.06635564,0.07028571,-0.038490422,0.16827895,-0.23114742,-0.5726013,-0.2322065,0.048394773,0.06365049,-0.04229735,-0.0059480397,-0.013383786,0.0150233265,0.033971556,0.0013658216,-0.024174469,-0.0041880207,0.0045536,0.017384283,-0.00037475137,0.00022869241,-0.008795958,-0.012369921,-0.008042922,0.0022396112,0.002159408,-0.00023951923,-0.0065634954,0.011357447,0.0097337235,0.00050907955,-0.013480268,0.001602126,-0.0006459869,-0.017388348,-0.0034119962,-0.008839929,-0.007061354,0.010878569,0.0038860044,-0.0045735193,-0.0067926757,0.0151334535,-0.0013057556,0.0029781188
dovući,0.5846018,-0.0521473,0.042578995,-0.052439176,0.018588247,0.05471004,0.06150801,-0.028173128,0.14189084,-0.1849906,-0.47035652,-0.18439913,0.048169795,0.06080661,-0.020136131,-0.004233007,-0.011436218,0.013043344,0.030021168,0.0016379054,-0.013993299,-0.001631633,-0.0018632913,-0.020820118,-0.041287173,0.00029945036,-0.009458135,-0.032800034,-0.060510863,-0.01478029,0.0015790297,0.25162634,-0.16303252,-0.4604409,-0.12181197,0.017499126,0.030569507,0.0037712897,-0.0077648475,0.009091161,-0.00537637,0.012610419,0.0034368958,0.0061188345,0.0004517335,0.0016829157,-0.0010231123,0.0029341779,0.004195429,0.0033618726
doznati,0.7075801,-0.06265646,0.050682455,-0.06265237,0.022615721,0.06548048,0.074508265,-0.03451225,0.17966016,-0.22731261,-0.5718226,-0.23384161,0.054461535,0.07153253,-0.03553693,-0.0070355753,-0.008008019,0.0054069106,0.011114699,0.001760981,-0.027649151,-0.0036909655,0.005839332,0.017332917,-0.00076873845,0.0005919899,-0.008061092,-0.011493043,-0.0062734266,-2.0831392e-05,0.0068656034,-0.0022180036,-0.0019869388,0.0060659214,0.011118502,-0.0033220407,-0.008004681,2.6674732e-05,0.0026672664,-0.013918587,-0.00056893314,-0.0019120768,-0.0044608926,0.007921988,0.0019601814,-0.0037304345,-0.0069009545,0.012100526,0.00010762667,0.0009363726
dozvati,0.70841694,-0.0626404,0.05181668,-0.064882375,0.025397645,0.068857506,0.07342596,-0.02878916,0.17556167,-0.22525571,-0.5709807,-0.23526743,0.055580236,0.07179614,-0.036222357,-0.004533331,-0.01100965,0.0074345223,0.009554303,0.0041681565,-0.031446114,0.008158783,0.010309816,0.01844773,-0.00076832034,0.00077013223,-0.010604707,-0.013694932,-0.0071178214,-0.0014700027,0.004100363,0.0050373957,-0.0029813854,0.0137304505,0.009155621,-0.0019371756,-0.010807831,0.0025354496,0.00033985992,-0.012824181,0.0013004335,-0.0039197737,-0.0072768372,0.007758423,0.003628478,-0.00554334,-0.007347086,0.014662758,-0.003192867,0.0015912749
dočekati,0.70755374,-0.062928654,0.050635017,-0.062514134,0.022272317,0.06582971,0.07463705,-0.03455641,0.17973958,-0.22738586,-0.5718679,-0.23385723,0.05524443,0.070650026,-0.035513446,-0.0058848923,-0.010223551,0.0064380453,0.010348279,0.0022544528,-0.027378242,-0.0036666072,0.005471392,0.01744894,-0.00077239645,0.000356523,-0.008666499,-0.011434458,-0.005780484,-8.618835e-05,0.003744364,0.0012266309,-0.0037290058,0.009594626,0.007358128,-0.0023400737,-0.00826893,0.0016455686,0.00100869,-0.011297957,-0.00067666,-0.0015399901,-0.004632139,0.007933884,0.0019423076,-0.0035656618,-0.0067408714,0.011934248,0.00012202473,0.0011067977
doživeti,0.69300675,-0.061718088,0.047665183,-0.06384761,0.021221545,0.059638586,0.074149765,-0.028018247,0.16799547,-0.23220786,-0.5534946,-0.23184583,0.054957516,0.07105711,-0.035764504,-0.0053832424,-0.013421906,0.013464086,0.03042671,0.0016357566,-0.01943347,-0.0028205737,0.0045868056,0.012554509,-0.00024240541,0.0009890568,-0.008670761,-0.0028788701,0.03170892,0.055548504,-0.0027376562,-0.014881839,-0.014323431,-0.00039611495,0.018272236,0.08961114,0.0023200174,-0.0009661518,-0.012497884,-0.0059913746,0.0816895,-0.0042595505,-0.009512334,0.0051641124,-0.00266472,-0.022397216,-0.012519979,0.022806674,-0.007209911,-0.15681846
doživiti,0.7073421,-0.062894896,0.050785337,-0.06351156,0.017905062,0.06281386,0.07238136,-0.03352886,0.17251654,-0.23214242,-0.5727572,-0.23350771,0.0552836,0.07092926,-0.035759494,-0.0056007346,-0.012980273,0.01333811,0.030474951,0.0015458013,-0.020694664,-0.002862991,0.004661217,0.014435806,-5.754471e-05,0.00036905226,-0.008781202,-0.009530179,-0.0050765527,0.0021030314,0.00171106,-0.0015916774,-0.006275902,0.008877908,0.0073746946,-0.00050690316,-0.009082102,0.0018297976,3.4929883e-05,-0.011860543,-0.0032735427,-0.00057082216,-0.00488418,0.0073280637,0.0018809852,-0.0025156192,-0.0066333907,0.011942569,0.00040753972,0.003265305
doživjeti,0.7073421,-0.062894896,0.050785337,-0.06351156,0.017905062,0.06281386,0.07238136,-0.03352886,0.17251654,-0.23214242,-0.5727572,-0.23350771,0.0552836,0.07092926,-0.035759494,-0.0056007346,-0.012980273,0.01333811,0.030474951,0.0015458013,-0.020694664,-0.002862991,0.004661217,0.014435806,-5.754471e-05,0.00036905226,-0.008781202,-0.009530179,-0.0050765527,0.0021030314,0.00171106,-0.0015916774,-0.006275902,0.008877908,0.0073746946,-0.00050690316,-0.009082102,0.0018297976,3.4929883e-05,-0.011860543,-0.0032735427,-0.00057082216,-0.00488418,0.0073280637,0.0018809852,-0.0025156192,-0.0066333907,0.011942569,0.00040753972,0.003265305
dragati,0.07069564,0.7870225,-0.004567901,0.00012613121,-0.0028870066,9.554368e-05,-0.0025752378,0.0007876901,-0.0041052764,0.00476944,-0.0020463816,0.0028491865,-0.025214944,0.03345918,-0.004354259,0.10383739,-0.033002414,0.019270776,-0.012929099,0.112322405,-0.00021070694,0.03700933,-0.3459467,0.09324322,-0.026515445,0.44812417,-0.10526691,-0.0009356584,-0.007924787,0.019719642,-0.037215915,0.009953327,0.04349902,-0.00605185,-0.011835634,-0.006969615,0.0019484719,-0.046823397,0.005274533,-0.008644027,0.0014545216,9.4835064e-05,-0.0009966451,-0.0001595755,-7.8428405e-07,0.00040128035,-0.0019424282,0.0019185708,-0.0015846469,0.0005641238
dražiti,0.06681553,0.74426174,-0.0042921067,0.00035063623,-0.0028126352,5.2154097e-05,-0.002534004,0.0007799847,-0.004048137,0.004711588,-0.0020076192,0.0028167437,-0.025105642,0.033346064,-0.0043734903,0.10493714,-0.034326136,0.020819947,-0.013719144,0.118732415,-2.4068071e-05,0.038395975,-0.37076285,0.10022731,-0.02876398,0.48947075,-0.11973558,-0.0011507844,-0.009083891,0.023241209,-0.044460885,0.012242326,0.05159117,-0.0067989654,-0.014634067,-0.008317572,0.0023117242,-0.0566787,0.006122915,-0.010038235,0.0016764839,-0.00016561744,-0.0015249035,-0.00022776429,-2.4707297e-05,0.00059241307,-0.0030021262,0.002623327,-0.0022243725,0.000945298
dremati,0.072822124,0.80560577,-0.004321557,-0.0044308533,0.00067422714,-0.0050708167,-0.0030532335,0.006916749,-0.0061608157,-0.014836211,0.0018605455,-0.023138478,0.38899034,-0.39885417,0.036158044,-0.16903639,0.0099762315,-0.00525429,0.0029292451,-0.02084297,-0.0020213078,-0.024084633,0.0347226,-0.009083136,-0.0019465315,0.012864939,-0.035506383,-0.00053848326,0.0022508374,0.0027400663,-0.008488403,0.0059727198,0.005909375,0.003316955,-0.0084963525,-0.0005985623,0.0010350803,-0.018724713,0.0012225813,-0.0007769942,0.0007996481,-0.00044346284,-0.0006515171,-5.566771e-05,-0.0026447796,0.0021952353,-0.0015973061,-0.0015616643,-0.0039022353,0.00059866504
drhtati,0.08670907,0.961359,-0.0056296648,-0.003315631,-0.0013730774,-0.002216622,-0.0028989469,0.0037860433,-0.005246105,-0.0047215284,-0.00024282317,-0.009828434,0.1780889,-0.17885177,0.01574934,-0.03837173,-0.0066462834,-0.00074685883,-0.0013992339,0.00651246,-0.0018520983,-0.00273276,-0.020285351,0.0039977646,-0.0019460052,-0.00030661465,0.008705042,0.00047145985,0.003425791,-0.008611855,0.018642085,-0.005393646,-0.021844288,0.0025715784,0.0070432797,0.00419278,-0.00068638334,0.0304908,-0.0023243737,0.0046103247,-0.00062836905,0.00075798144,0.0022258656,0.0003288497,-0.0012219235,0.000106029096,0.0048018135,-0.0037569155,0.0014682712,-0.0017654999
drmati,0.0833316,0.92606395,-0.0059754765,-0.0029434708,-0.0029286668,0.0025479745,-0.00049041514,-0.006249583,-0.009755415,0.007701556,-0.002244172,0.003207232,-0.035623696,0.046586152,-0.0066820392,0.14077614,-0.22388776,-0.223493,0.03677356,-0.08721636,0.005740049,-0.028893232,0.014694513,-0.003160975,0.0015066332,0.0021151933,3.665381e-05,0.0008174743,0.0012028718,-0.0035563775,0.00803708,-0.0018446996,-0.0139612015,-0.00044255177,0.012266249,0.0022510649,-0.00058086956,0.03575064,0.00090213754,-0.0008996644,-0.0009902588,-0.00031601693,0.0021099427,0.00037510696,-1.5587655e-05,-0.0008733789,0.0044736005,-0.0025137907,0.003097532,-0.0009459187
družiti,0.07455628,0.8312698,-0.00620481,-0.0039501362,-0.00350629,0.001394863,-0.0020851428,0.0004312503,0.00095622084,0.004191915,-0.0056245406,0.008892978,-0.12744066,0.13406202,0.003586661,-0.24680997,-0.005357425,-0.015613686,0.012440587,0.03392969,-0.0013863362,0.020022977,-0.045296993,0.010574306,-0.00065980817,-0.0108094765,0.3715032,0.014695046,-0.046023063,0.085454985,-0.15606087,0.09724729,0.12673435,0.025274321,-0.059900682,-0.0069488306,-0.0008525764,-0.028424906,-0.00972623,0.017080946,-0.0014230399,-0.0034108309,-0.028329732,-0.0016119827,0.0014267038,0.00046594496,-0.001110253,0.001561547,-0.0023437312,0.00060875923
držati,0.08835805,0.9815214,-0.006511983,-0.0029026035,-0.0025448133,-0.00037465096,-0.002739037,0.0017726603,-0.0032974076,0.0019500193,-0.00165982,-0.0008402731,0.034824494,-0.031107444,0.00016043866,0.061704032,-0.031183911,0.082999885,-0.03430593,-0.013695673,-0.011714596,0.08783007,-0.031002855,0.008311238,-0.0019473562,-0.05662769,0.01882342,0.0013266422,-0.0050185625,0.01019761,-0.020534938,0.014270728,0.010825029,0.0054071294,-0.005244045,0.0003697368,-0.0007501019,0.008394289,-0.0024419476,0.004366854,-0.00010481935,0.001250441,-0.0014308749,-1.5736387e-05,0.00015955257,0.0014660402,0.0041090217,-0.002758268,0.0021025252,-0.001084238
dubiti,0.079621986,0.8869778,-0.006511318,-0.0044195317,-0.003087046,0.0034502982,-0.00029250068,-0.00679986,-0.006506139,0.00924693,-0.0002590579,0.011386857,-0.13792163,0.1466904,0.00012537825,-0.1625847,-0.21900389,-0.26641533,0.058743645,-0.10130854,0.008583077,-0.031195974,0.0565707,-0.0129376445,0.00320037,0.01718441,-0.039063875,-2.8608565e-06,-0.00076753955,0.007153371,-0.018769484,0.00837261,0.011727239,4.8771366e-05,-0.001349256,-0.0021051136,0.0003291047,-0.0038451802,0.0030857997,-0.004965737,1.3057202e-05,-4.3113927e-05,0.00048136184,-1.67583e-05,0.00012377615,-5.4211265e-05,-0.0007253468,-5.4431584e-05,8.8153305e-05,0.0011839714
duvati,0.08017953,0.890383,-0.0055866395,-0.0018054738,-0.0029891406,0.00087453786,-0.002129326,0.000503479,-0.0022263087,7.640778e-05,0.0021760096,0.0011569285,-0.027255008,0.03795899,-0.0043721613,0.09614042,-0.026118606,0.030303262,-0.015977003,0.046652503,-0.0031685815,0.035164755,-0.26442263,0.06407887,-0.015291128,-0.30127028,-0.11551744,-0.0049609556,-0.0027125662,0.014449739,-0.033288483,0.010173617,0.031040581,-0.0011885132,-0.015278936,-0.005596823,0.0019110825,-0.052647013,0.006834349,-0.010537702,0.0021115623,0.0021959771,0.0021733698,8.555782e-05,-4.0479637e-05,-0.00047163304,-0.0007986874,-0.002443398,0.0011535496,-0.00020582585
dužiti,0.08410289,0.93329227,-0.005839535,-0.004056075,-0.00167416,0.00016486048,-0.0013852915,-0.0025436715,-0.008937429,-0.0005733011,-6.963381e-05,-0.004245651,0.09455512,-0.09398391,0.0033289422,0.07543319,-0.18110707,-0.14368081,0.017683117,-0.047530014,-0.017672794,0.1386318,0.015928568,-0.00114229,-0.0015301079,-0.09733455,-0.097450264,-0.0017679085,-0.00031847274,0.013699852,-0.03775715,0.01816957,0.025233107,0.0028647066,-0.009330943,-0.0046787625,0.001250119,-0.026375137,0.002826571,-0.003304905,-0.00021159413,-0.0025343862,-0.0015131873,-0.00033051876,-0.0013724326,0.00012015476,-0.0054682936,0.0030238954,-0.0032424736,0.0023575958
formirati,0.088954344,0.98389715,-0.005713827,-0.0026203243,-0.0014891402,-0.00053229474,-0.0019333425,0.0019410285,-0.0046197744,0.0047522313,-0.0017739075,0.0024047676,-0.022744032,0.02979585,-0.0033991416,0.06943443,-0.011381725,-0.0005787546,-0.001372255,0.033951808,-0.0028494294,0.019283548,-0.056690704,0.01285486,-0.001155644,-0.005373839,0.05322311,0.00066538947,0.0013864202,-0.01625038,0.05285347,-0.029708542,-0.030888043,-0.014744748,0.035840217,0.0021141218,-0.0018243566,0.045555647,0.0053475634,-0.010108189,0.001353601,0.006127452,0.028414434,0.0011013714,-5.2477502e-05,-0.0028246003,0.011208243,-0.0064988164,0.00571098,-0.010864719
gaditi,0.076298244,0.8443085,-0.0046031256,-0.004261838,0.00030320868,-0.0045874966,-0.0030477792,0.0063982606,-0.006032681,-0.013105293,0.0014907083,-0.02087387,0.35318854,-0.3614935,0.03268355,-0.14663692,0.0075684907,-0.0046503856,0.0023330278,-0.01554988,-0.0020419497,-0.020083787,0.02548887,-0.0068965172,-0.0019169766,0.011121531,-0.02762843,-0.0003646482,0.0024493053,0.0008769061,-0.004089124,0.004112352,0.0015172712,0.0031727427,-0.006084133,0.00011607955,0.0007669688,-0.011796255,0.000781633,-0.00016838252,0.00064580125,-0.00014074318,-0.00017358646,2.7333252e-07,-0.0023652727,0.0018359423,-0.00060687517,-0.0019045264,-0.0030570556,0.00022756727
ganjati,0.056137834,0.6244282,-0.0043298504,-0.0035913899,-0.0021442675,0.0048636287,0.0024144116,-0.014598494,-0.015746761,0.010413307,-0.0020152768,0.0032248306,-0.046880655,0.06064676,-0.009752088,0.19704515,-0.46329817,-0.49846676,0.08881456,-0.23443764,0.014874959,-0.086425155,0.12959121,-0.029004015,0.0060653426,0.023103733,-0.067008264,-8.161475e-05,-0.0035241358,0.018667893,-0.043144565,0.018140042,0.035295844,-0.00372254,-0.0024514792,-0.007215549,0.0019266797,-0.028624913,0.0104599865,-0.016520774,0.00070325163,-0.0031294436,-0.0020955945,-0.00013162996,-8.786184e-06,0.00052342174,-0.0052062594,0.0025859966,-0.0021198886,0.003578643
gasiti,0.06905312,0.77204275,-0.0064224824,-0.004575812,-0.0029415567,0.0020074577,-0.0019732087,0.00021598917,0.0036045043,0.0067672925,0.0021756133,0.018609395,-0.22189301,0.22366802,0.010853512,-0.54110307,0.010088698,-0.057623435,0.033991326,0.007950284,0.003787095,0.0129047185,0.012858232,-0.0034550559,0.0012103718,0.014861869,-0.032489702,-0.00038339384,0.00028723798,0.002847301,-0.010773771,0.0047432138,0.004716948,0.0029972976,-0.006365489,7.00305e-05,-0.0005135117,9.449627e-05,-0.0022846723,0.0033331637,-0.00034879963,0.0018871516,0.0014264294,-9.75705e-05,0.00017904605,-6.39502e-05,0.00028921146,-0.0007032701,0.00045108926,0.0002696807
gasti,0.068999335,0.7714528,-0.0064206896,-0.004577808,-0.0029405362,0.0020088675,-0.0019719454,0.00021526594,0.0036133612,0.0067683873,0.002180562,0.018625151,-0.22209433,0.2238622,0.010869289,-0.541767,0.01011913,-0.05768604,0.03403156,0.007914077,0.0037937234,0.012894402,0.0129514765,-0.0034765808,0.0012135599,0.014885625,-0.03258579,-0.00038543667,0.000282279,0.0028714577,-0.010832956,0.0047655636,0.004772334,0.0029985392,-0.0063938065,6.152372e-05,-0.00051187974,2.7351114e-05,-0.0022830958,0.0033300624,-0.0003481992,0.0018859608,0.0014226695,-9.834796e-05,0.00017895717,-6.211534e-05,0.0002786085,-0.000697616,0.00044554484,0.00027410532
gaziti,0.08773779,0.97068053,-0.0054022367,-0.002086918,-0.0018586797,-0.0011328653,-0.00283251,0.002143015,-0.00271353,-0.0018997195,-0.0011313031,-0.0034176016,0.05618091,-0.05287085,0.0007080426,0.07735994,0.14374961,-0.03639259,0.034869473,0.07388236,0.0022554016,-0.06605366,0.061566435,-0.017352903,0.0015061889,0.005513882,-0.027363727,-0.00033058005,-0.000710156,0.0023958327,-0.007352462,0.004025812,0.003034128,0.0023476945,-0.0037706338,-8.716797e-06,-0.0003438482,0.0059188963,-0.0016179216,0.0032473714,-0.0010609112,0.0013112007,-0.0013140431,-6.668357e-05,-0.00047954483,2.847713e-05,0.0013243328,-0.0018776797,0.0002797907,-0.0013217782
gađati,0.08103867,0.90438235,-0.006973568,-0.0018653107,-0.0035484037,0.0010206545,-0.0025739528,0.0005820125,-0.0006485865,0.010972381,-0.0024605058,0.0057078316,-0.059746064,0.06844115,-0.009526723,0.12783214,-0.04678923,0.20068616,-0.077165544,0.033049967,0.025692463,-0.13817038,0.09637906,-0.02225315,0.0023831446,0.017110359,0.030433869,0.00014071529,0.060390588,-0.08396319,0.06574681,0.020008449,-0.16701621,0.07979138,-0.060998917,0.02629696,0.00515511,-0.1258064,0.0065380433,-0.013970202,0.009080459,0.0020532482,0.0051096957,-0.00047499398,-0.0006098925,1.32721725e-05,-0.005245006,0.0024656632,-0.0020343144,0.0006593292
ginuti,0.07007364,0.7868289,-0.008253943,-0.0035581214,-0.0037754083,0.0020234943,-0.0023742535,0.00032772866,0.0043793693,0.011049402,0.002980988,0.010632427,-0.15464278,0.17216241,-0.0017799635,-0.13446918,-0.06808672,0.33667475,-0.12654772,-0.27186027,0.015790066,-0.09178815,-0.061122127,0.016627047,-0.005844981,-0.17268133,-0.18235321,-0.006019505,-0.014478258,0.038828284,-0.07752741,0.021872452,0.08412065,-0.0087787295,-0.025813607,-0.012436241,0.00095497456,-0.062920466,0.0031119743,-0.005348497,0.00053443306,0.0012010919,-4.472717e-05,-0.00034806493,-0.00011188277,0.00077423494,-0.0069391867,0.0017776667,-0.0023503285,0.0028053198
glasati,0.07251528,0.8058436,-0.005140071,-0.001666404,-0.0028704684,0.0009837575,-0.0019342141,0.00041231303,-0.001563582,-0.0014846334,0.0036152129,0.0005927466,-0.028435297,0.040221475,-0.0045953817,0.1009629,-0.029466674,0.039884154,-0.020115325,0.050281905,-0.0035421066,0.04053801,-0.3327849,0.081052564,-0.01999419,-0.40229473,-0.17151771,-0.0071163266,-0.0050691473,0.025123537,-0.057560224,0.018290862,0.055349782,-0.0021876507,-0.026317421,-0.009877894,0.0031859886,-0.08945745,0.010433255,-0.016208682,0.0031469562,0.0020955685,0.001528447,-5.8086527e-05,-0.00013489403,-0.00014091906,-0.003983869,-0.0016323108,-2.416217e-05,0.0007982416
